 ===================== NEURON LEVEL 0 ===================== 
 ----------------------- layer5_n0 ----------------------- 
0.24596863985061646  -> 31.483985900878906  :     00011111 
-0.1604008823633194  -> -20.531312942504883 :     11101100 
-0.17499685287475586 -> -22.39959716796875  :     11101010 
0.40840885043144226  -> 52.27633285522461   :     00110100 
-0.18265386          -> -23.37969398498535  :     11101001 
 ----------------------- layer4_n0 ----------------------- 
-0.9987852573394775  -> -127.84451293945312 :     10000001 
-0.6202278137207031  -> -79.38916015625     :     10110001 
-0.4038238525390625  -> -51.689453125       :     11001101 
0.0                  -> 0.0                 :     00000000 
 ----------------------- layer3_n0 ----------------------- 
0.6779475212097168   -> 86.77728271484375   :     01010110 
0.3557274341583252   -> 45.533111572265625  :     00101101 
-0.0042404337        -> -0.5427755117416382 :     00000000 
 ----------------------- layer2_n0 ----------------------- 
0.43135038018226624  -> 55.21284866333008   :     00110111 
0.4085901379585266   -> 52.299537658691406  :     00110100 
0.43819499015808105  -> 56.088958740234375  :     00111000 
-0.00024540332       -> -0.03141162544488907:     00000000 
 ----------------------- layer1_n0 ----------------------- 
0.12465202808380127  -> 15.955459594726562  :     00001111 
-0.6332964301109314  -> -81.06194305419922  :     10101111 
0.10678217560052872  -> 13.668118476867676  :     00001101 
-0.7788391709327698  -> -99.69141387939453  :     10011101 
-0.098881            -> -12.656767845153809 :     11110100 
 ----------------------- layer0_n0 ----------------------- 
-0.006545105017721653 -> -0.8377734422683716 :     00000000 
0.049666304141283035 -> 6.3572869300842285  :     00000110 
0.011562329716980457 -> 1.4799782037734985  :     00000001 
0.04168078675866127  -> 5.335140705108643   :     00000101 
0.06573516130447388  -> 8.414100646972656   :     00001000 
0.003464086214080453 -> 0.443403035402298   :     00000000 
0.024195188656449318 -> 3.0969841480255127  :     00000011 
0.0013637185329571366 -> 0.1745559722185135  :     00000000 
-0.0010417343582957983 -> -0.13334199786186218:     00000000 
-0.0021249421406537294 -> -0.27199259400367737:     00000000 
0.043198827654123306 -> 5.529449939727783   :     00000101 
0.08204243332147598  -> 10.501431465148926  :     00001010 
0.06683479994535446  -> 8.554854393005371   :     00001000 
0.08145321160554886  -> 10.426011085510254  :     00001010 
0.06703414767980576  -> 8.580370903015137   :     00001000 
0.011363690719008446 -> 1.454552412033081   :     00000001 
0.0010738082928583026 -> 0.13744746148586273 :     00000000 
-0.004099709447473288 -> -0.5247628092765808 :     00000000 
0.02744130976498127  -> 3.5124876499176025  :     00000011 
-0.019991589710116386 -> -2.5589234828948975 :     11111110 
-0.011651644483208656 -> -1.491410493850708  :     11111111 
-0.043206989765167236 -> -5.530494689941406  :     11111011 
0.058841776102781296 -> 7.531747341156006   :     00000111 
0.011779865249991417 -> 1.5078227519989014  :     00000001 
0.002465752651914954 -> 0.31561633944511414 :     00000000 
0.052398230880498886 -> 6.706973552703857   :     00000110 
0.02684704028069973  -> 3.4364211559295654  :     00000011 
-0.0039333151653409  -> -0.5034643411636353 :     00000000 
0.0061207115650177   -> 0.7834510803222656  :     00000000 
-0.019451450556516647 -> -2.489785671234131  :     11111110 
0.0004501404764596373 -> 0.05761798098683357 :     00000000 
0.02360483817756176  -> 3.0214192867279053  :     00000011 
-0.0004617011873051524 -> -0.05909775197505951:     00000000 
0.09819686412811279  -> 12.569198608398438  :     00001100 
0.0031532866414636374 -> 0.4036206901073456  :     00000000 
0.0036634919233620167 -> 0.46892696619033813 :     00000000 
-0.0849069356918335  -> -10.868087768554688 :     11110110 
-0.008068001829087734 -> -1.03270423412323   :     11111111 
-0.004797160625457764 -> -0.6140365600585938 :     00000000 
0.09596755355596542  -> 12.283846855163574  :     00001100 
0.028369612991809845 -> 3.63131046295166    :     00000011 
0.160033717751503    -> 20.484315872192383  :     00010100 
0.04288763925433159  -> 5.489617824554443   :     00000101 
0.016246777027845383 -> 2.079587459564209   :     00000010 
-0.0590648427605629  -> -7.560299873352051  :     11111001 
0.011943486519157887 -> 1.5287662744522095  :     00000001 
0.10827092081308365  -> 13.858677864074707  :     00001101 
0.06748252362012863  -> 8.637763023376465   :     00001000 
-0.0007220801780931652 -> -0.09242626279592514:     00000000 
0.12084658443927765  -> 15.468362808227539  :     00001111 
0.05860162526369095  -> 7.501008033752441   :     00000111 
0.050626348704099655 -> 6.480172634124756   :     00000110 
0.011623780243098736 -> 1.4878438711166382  :     00000001 
0.0910525694489479   -> 11.654728889465332  :     00001011 
0.05817641317844391  -> 7.44658088684082    :     00000111 
-0.02034786157310009 -> -2.6045262813568115 :     11111110 
0.005387943238019943 -> 0.6896567344665527  :     00000000 
0.026790568605065346 -> 3.4291927814483643  :     00000011 
0.0432453379034996   -> 5.535403251647949   :     00000101 
-0.0035946685820817947 -> -0.4601175785064697 :     00000000 
0.0036640751641243696 -> 0.4690016210079193  :     00000000 
0.017437878996133804 -> 2.232048511505127   :     00000010 
0.018558192998170853 -> 2.375448703765869   :     00000010 
0.007427722681313753 -> 0.9507485032081604  :     00000000 
-0.12465311          -> -15.955597877502441 :     11110001 

 ===================== NEURON LEVEL 1 ===================== 
 ----------------------- layer5_n1 ----------------------- 
0.4665527939796448   -> 59.71875762939453   :     00111011 
0.11791963875293732  -> 15.093713760375977  :     00001111 
-0.44018232822418213 -> -56.34333801269531  :     11001000 
-0.45789608359336853 -> -58.61069869995117  :     11000110 
-0.012800948         -> -1.6385213136672974 :     11111111 
 ----------------------- layer4_n1 ----------------------- 
1.0                  -> 128.0               :     01111111 
0.18436026573181152  -> 23.598114013671875  :     00010111 
-0.39337897300720215 -> -50.352508544921875 :     11001110 
-0.5374707           -> -68.79624938964844  :     10111100 
 ----------------------- layer3_n1 ----------------------- 
-0.4625614285469055  -> -59.207862854003906 :     11000101 
-1.0                 -> -128.0              :     10000000 
0.0                  -> 0.0                 :     00000000 
 ----------------------- layer2_n1 ----------------------- 
0.028750769793987274 -> 3.680098533630371   :     00000011 
0.46463847160339355  -> 59.473724365234375  :     00111011 
1.178170919418335    -> 150.80587768554688  :     01111111 
-0.0006133599        -> -0.07851006835699081:     00000000 
 ----------------------- layer1_n1 ----------------------- 
0.17154280841350555  -> 21.95747947692871   :     00010101 
0.6656275987625122   -> 85.20033264160156   :     01010101 
-0.3058091104030609  -> -39.1435661315918   :     11011001 
-0.0022013485431671143 -> -0.2817726135253906 :     00000000 
0.30869168           -> 39.512535095214844  :     00100111 
 ----------------------- layer0_n1 ----------------------- 
0.0708584263920784   -> 9.069878578186035   :     00001001 
0.28531673550605774  -> 36.52054214477539   :     00100100 
-0.029835935682058334 -> -3.818999767303467  :     11111101 
0.06296020746231079  -> 8.058906555175781   :     00001000 
-0.08834819495677948 -> -11.308568954467773 :     11110101 
0.11661950498819351  -> 14.92729663848877   :     00001110 
-0.05402820184826851 -> -6.915609836578369  :     11111010 
-0.10653934627771378 -> -13.637036323547363 :     11110011 
-0.11539004743099213 -> -14.769926071166992 :     11110010 
-0.011764021590352058 -> -1.5057947635650635 :     11111111 
0.13440516591072083  -> 17.203861236572266  :     00010001 
0.2222316563129425   -> 28.44565200805664   :     00011100 
-0.009438741952180862 -> -1.2081589698791504 :     11111111 
0.05675830319523811  -> 7.2650628089904785  :     00000111 
0.10246552526950836  -> 13.11558723449707   :     00001101 
-0.08781415969133377 -> -11.240212440490723 :     11110101 
-0.14325380325317383 -> -18.33648681640625  :     11101110 
-0.03647301718592644 -> -4.668546199798584  :     11111100 
0.33684423565864563  -> 43.11606216430664   :     00101011 
0.41750794649124146  -> 53.441017150878906  :     00110101 
-0.36066511273384094 -> -46.16513442993164  :     11010010 
0.32451167702674866  -> 41.53749465942383   :     00101001 
0.2855449616909027   -> 36.54975509643555   :     00100100 
0.03793070837855339  -> 4.855130672454834   :     00000100 
-0.0016252492787316442 -> -0.20803190767765045:     00000000 
0.20985978841781616  -> 26.86205291748047   :     00011010 
0.4919251799583435   -> 62.96642303466797   :     00111110 
0.1701374053955078   -> 21.777587890625     :     00010101 
-0.5313665866851807  -> -68.01492309570312  :     10111100 
0.44504812359809875  -> 56.96615982055664   :     00111000 
0.04181835800409317  -> 5.352749824523926   :     00000101 
0.11059321463108063  -> 14.15593147277832   :     00001110 
-0.013222397305071354 -> -1.6924668550491333 :     11111111 
0.11174140125513077  -> 14.302899360656738  :     00001110 
0.3972642719745636   -> 50.84982681274414   :     00110010 
0.012952711433172226 -> 1.657947063446045   :     00000001 
0.06392073631286621  -> 8.181854248046875   :     00001000 
0.4542492926120758   -> 58.1439094543457    :     00111010 
0.16364851593971252  -> 20.947010040283203  :     00010100 
0.07929054647684097  -> 10.149189949035645  :     00001010 
0.011845667846500874 -> 1.5162454843521118  :     00000001 
0.07067801803350449  -> 9.046786308288574   :     00001001 
0.2104143351316452   -> 26.933034896850586  :     00011010 
-0.44074440002441406 -> -56.415283203125    :     11001000 
0.20472794771194458  -> 26.205177307128906  :     00011010 
-0.12813927233219147 -> -16.401826858520508 :     11110000 
0.24856653809547424  -> 31.816516876220703  :     00011111 
0.05983899161219597  -> 7.659390926361084   :     00000111 
0.26294049620628357  -> 33.6563835144043    :     00100001 
0.07576923817396164  -> 9.69846248626709    :     00001001 
-0.014265953563153744 -> -1.8260420560836792 :     11111111 
-0.16484692692756653 -> -21.100406646728516 :     11101011 
0.41333115100860596  -> 52.90638732910156   :     00110100 
0.302686870098114    -> 38.743919372558594  :     00100110 
0.04137708246707916  -> 5.296266555786133   :     00000101 
0.08307971805334091  -> 10.634203910827637  :     00001010 
-0.07734950631856918 -> -9.900736808776855  :     11110111 
-0.03315956890583038 -> -4.244424819946289  :     11111100 
-0.07755541801452637 -> -9.927093505859375  :     11110111 
-0.03845282644033432 -> -4.921961784362793  :     11111100 
0.2741968631744385   -> 35.097198486328125  :     00100011 
0.07881765812635422  -> 10.08866024017334   :     00001010 
-0.07007861882448196 -> -8.970063209533691  :     11111000 
0.09341955184936523  -> 11.95770263671875   :     00001011 
0.17614965           -> 22.547155380249023  :     00010110 

 ===================== NEURON LEVEL l ===================== 
 ----------------------- layer2_model ----------------------- 
0                    -> 0                   :     00000000 
0                    -> 0                   :     00000000 
0                    -> 0                   :     00000000 
0                    -> 0                   :     00000000 
 ----------------------- layer5_n2 ----------------------- 
-0.2818881869316101  -> -36.081687927246094 :     11011100 
-0.8260225653648376  -> -105.73088836669922 :     10010111 
-0.10879242420196533 -> -13.925430297851562 :     11110011 
0.038311365991830826 -> 4.903854846954346   :     00000100 
0.025634281          -> 3.2811880111694336  :     00000011 
 ----------------------- layer4_n2 ----------------------- 
0.5893573760986328   -> 75.437744140625     :     01001011 
-0.2341780662536621  -> -29.97479248046875  :     11100011 
-0.8642446994781494  -> -110.62332153320312 :     10010010 
0.0060660695         -> 0.776456892490387   :     00000000 
 ----------------------- layer3_n2 ----------------------- 
-0.8668729066848755  -> -110.95973205566406 :     10010010 
-0.6671809554100037  -> -85.39916229248047  :     10101011 
0.0                  -> 0.0                 :     00000000 
 ----------------------- layer1_n2 ----------------------- 
0.5712699890136719   -> 73.12255859375      :     01001001 
0.1322391778230667   -> 16.92661476135254   :     00010000 
-1.0                 -> -128.0              :     10000000 
-0.2856987714767456  -> -36.56944274902344  :     11011100 
0.14208536           -> 18.186925888061523  :     00010010 
 ----------------------- layer0_n2 ----------------------- 
0.16981171071529388  -> 21.735898971557617  :     00010101 
-0.2356344312429428  -> -30.16120719909668  :     11100010 
-0.04250214993953705 -> -5.440275192260742  :     11111011 
-0.13736318051815033 -> -17.582487106323242 :     11101111 
-0.00546077499166131 -> -0.6989791989326477 :     00000000 
-0.0005401745438575745 -> -0.06914234161376953:     00000000 
-0.017104201018810272 -> -2.189337730407715  :     11111110 
0.013142404146492481 -> 1.6822277307510376  :     00000001 
0.055664271116256714 -> 7.125026702880859   :     00000111 
-0.05186363309621811 -> -6.638545036315918  :     11111010 
-0.12924088537693024 -> -16.54283332824707  :     11110000 
-0.2273796945810318  -> -29.10460090637207  :     11100011 
-0.0014758908655494452 -> -0.18891403079032898:     00000000 
-0.1484304815530777  -> -18.999101638793945 :     11101110 
-0.17068305611610413 -> -21.847431182861328 :     11101011 
-0.07198652625083923 -> -9.214275360107422  :     11110111 
0.025874057784676552 -> 3.3118793964385986  :     00000011 
-0.006910158786922693 -> -0.8845003247261047 :     00000000 
-0.29752689599990845 -> -38.08344268798828  :     11011010 
-0.2502179741859436  -> -32.02790069580078  :     11100000 
0.2940855324268341   -> 37.642948150634766  :     00100101 
-0.15693248808383942 -> -20.087358474731445 :     11101100 
-0.240492582321167   -> -30.783050537109375 :     11100010 
0.018057968467473984 -> 2.31141996383667    :     00000010 
0.1046161875128746   -> 13.39087200164795   :     00001101 
-0.1879984438419342  -> -24.063800811767578 :     11101000 
-0.34514182806015015 -> -44.17815399169922  :     11010100 
-0.05189133435487747 -> -6.642090797424316  :     11111010 
0.3666864335536957   -> 46.93586349487305   :     00101110 
-0.30343303084373474 -> -38.83942794799805  :     11011010 
-0.02566361613571644 -> -3.284942865371704  :     11111101 
-0.030297085642814636 -> -3.8780269622802734 :     11111101 
0.09113936871290207  -> 11.665839195251465  :     00001011 
-0.1799866408109665  -> -23.03829002380371  :     11101001 
-0.276701420545578   -> -35.417781829833984 :     11011101 
0.013137555681169033 -> 1.6816071271896362  :     00000001 
0.18822278082370758  -> 24.09251594543457   :     00011000 
-0.2945571541786194  -> -37.70331573486328  :     11011011 
-0.039374347776174545 -> -5.039916515350342  :     11111011 
0.05676008760929108  -> 7.265291213989258   :     00000111 
0.03544006496667862  -> 4.536328315734863   :     00000100 
-0.06822292506694794 -> -8.732534408569336  :     11111000 
-0.10263717174530029 -> -13.137557983398438 :     11110011 
0.28631362318992615  -> 36.64814376831055   :     00100100 
0.013876424171030521 -> 1.7761822938919067  :     00000001 
0.05442902818322182  -> 6.966915607452393   :     00000110 
-0.3445601761341095  -> -44.103702545166016 :     11010100 
-0.07061692327260971 -> -9.038966178894043  :     11110111 
-0.23969033360481262 -> -30.680362701416016 :     11100010 
-0.24360613524913788 -> -31.18158531188965  :     11100001 
-0.10539087653160095 -> -13.490032196044922 :     11110011 
0.10282091796398163  -> 13.161077499389648  :     00001101 
-0.18486283719539642 -> -23.662443161010742 :     11101001 
-0.3130546808242798  -> -40.07099914550781  :     11011000 
-0.14763745665550232 -> -18.897594451904297 :     11101110 
-0.04994243383407593 -> -6.392631530761719  :     11111010 
0.009001290425658226 -> 1.152165174484253   :     00000001 
-0.042818956077098846 -> -5.480826377868652  :     11111011 
0.029692573472857475 -> 3.800649404525757   :     00000011 
0.004771006293594837 -> 0.6106888055801392  :     00000000 
-0.08272859454154968 -> -10.58926010131836  :     11110110 
-0.004516777116805315 -> -0.5781474709510803 :     00000000 
-0.019014528021216393 -> -2.4338595867156982 :     11111110 
-0.06271597743034363 -> -8.027645111083984  :     11111000 
0.8049891            -> 103.03860473632812  :     01100111 

 ===================== NEURON LEVEL l ===================== 
 ----------------------- layer3_model ----------------------- 
0                    -> 0                   :     00000000 
0                    -> 0                   :     00000000 
0                    -> 0                   :     00000000 
 ----------------------- layer2_model ----------------------- 
0                    -> 0                   :     00000000 
0                    -> 0                   :     00000000 
0                    -> 0                   :     00000000 
0                    -> 0                   :     00000000 
 ----------------------- layer1_model ----------------------- 
0                    -> 0                   :     00000000 
0                    -> 0                   :     00000000 
0                    -> 0                   :     00000000 
0                    -> 0                   :     00000000 
0                    -> 0                   :     00000000 
 ----------------------- layer5_n3 ----------------------- 
0.5218489766120911   -> 66.79666900634766   :     01000010 
-0.1491198092699051  -> -19.08733558654785  :     11101101 
0.6117727160453796   -> 78.3069076538086    :     01001110 
0.3932032287120819   -> 50.330013275146484  :     00110010 
-0.32864702          -> -42.06681823730469  :     11010110 
 ----------------------- layer4_n3 ----------------------- 
0.8159894347190857   -> 104.44664764404297  :     01101000 
0.5305619239807129   -> 67.91192626953125   :     01000011 
0.9931879043579102   -> 127.1280517578125   :     01111111 
0.0048549036         -> 0.6214276552200317  :     00000000 
 ----------------------- layer0_n3 ----------------------- 
0.019760113209486008 -> 2.529294490814209   :     00000010 
0.0983249694108963   -> 12.585596084594727  :     00001100 
0.024966124445199966 -> 3.1956639289855957  :     00000011 
-0.027070607990026474 -> -3.4650378227233887 :     11111101 
-0.018807101994752884 -> -2.407309055328369  :     11111110 
0.00706548010930419  -> 0.9043814539909363  :     00000000 
0.015035632066428661 -> 1.9245609045028687  :     00000001 
-0.011640609242022038 -> -1.4899979829788208 :     11111111 
-0.00194310094229877 -> -0.24871692061424255:     00000000 
-0.0019196805078536272 -> -0.24571910500526428:     00000000 
-0.019210277125239372 -> -2.4589154720306396 :     11111110 
-0.019771233201026917 -> -2.5307178497314453 :     11111110 
-0.013330294750630856 -> -1.7062777280807495 :     11111111 
-0.01798625849187374 -> -2.302241086959839  :     11111110 
-0.01389862596988678 -> -1.7790241241455078 :     11111111 
0.010972646996378899 -> 1.404498815536499   :     00000001 
-0.0010883861687034369 -> -0.13931342959403992:     00000000 
-0.002099232980981469 -> -0.26870182156562805:     00000000 
-0.017250651493668556 -> -2.208083391189575  :     11111110 
0.0032296928111463785 -> 0.41340067982673645 :     00000000 
0.005747177638113499 -> 0.7356387376785278  :     00000000 
0.019115231931209564 -> 2.446749687194824   :     00000010 
-0.013052511028945446 -> -1.670721411705017  :     11111111 
0.028696121647953987 -> 3.6731035709381104  :     00000011 
-0.0011995156528428197 -> -0.15353800356388092:     00000000 
-0.020393768325448036 -> -2.6104023456573486 :     11111110 
-0.013032229617238045 -> -1.6681253910064697 :     11111111 
-0.017947062849998474 -> -2.2972240447998047 :     11111110 
0.023595867678523064 -> 3.020271062850952   :     00000011 
-0.009598521515727043 -> -1.2286107540130615 :     11111111 
-0.010878519155085087 -> -1.3924504518508911 :     11111111 
0.038088686764240265 -> 4.875351905822754   :     00000100 
-0.006399230565875769 -> -0.8191015124320984 :     00000000 
-0.02764589712023735 -> -3.538674831390381  :     11111101 
-0.010471467860043049 -> -1.3403478860855103 :     11111111 
-0.0038764430209994316 -> -0.49618470668792725:     00000000 
0.0226762518286705   -> 2.902560234069824   :     00000010 
0.0036440365947782993 -> 0.4664366841316223  :     00000000 
0.005033169873058796 -> 0.6442457437515259  :     00000000 
0.00250054313801229  -> 0.3200695216655731  :     00000000 
-0.002453884109854698 -> -0.31409716606140137:     00000000 
-0.06434756517410278 -> -8.236488342285156  :     11111000 
-0.02418304793536663 -> -3.0954301357269287 :     11111101 
0.011543719097971916 -> 1.4775960445404053  :     00000001 
0.018151305615901947 -> 2.323367118835449   :     00000010 
0.016794949769973755 -> 2.1497535705566406  :     00000010 
-0.12064085155725479 -> -15.442028999328613 :     11110001 
-0.0059445695951581  -> -0.7609049081802368 :     00000000 
-0.04394089803099632 -> -5.624434947967529  :     11111011 
-0.085452601313591   -> -10.937932968139648 :     11110110 
-0.08171814680099487 -> -10.459922790527344 :     11110110 
-0.004055234603583813 -> -0.519070029258728  :     00000000 
-0.01926371082663536 -> -2.465754985809326  :     11111110 
-0.06665933132171631 -> -8.532394409179688  :     11111000 
-0.05173420533537865 -> -6.621978282928467  :     11111010 
-0.07002551108598709 -> -8.963265419006348  :     11111000 
0.013886039145290852 -> 1.777413010597229   :     00000001 
0.00878175813704729  -> 1.1240650415420532  :     00000001 
-0.026280980557203293 -> -3.3639655113220215 :     11111101 
-0.004008064977824688 -> -0.5130323171615601 :     00000000 
-0.005527256056666374 -> -0.7074887752532959 :     00000000 
0.012940377928316593 -> 1.656368374824524   :     00000001 
0.016629602760076523 -> 2.128589153289795   :     00000010 
-0.008765321224927902 -> -1.1219611167907715 :     11111111 
0.38902378           -> 49.7950439453125    :     00110001 

 ===================== NEURON LEVEL l ===================== 
 ----------------------- layer4_model ----------------------- 
0                    -> 0                   :     00000000 
0                    -> 0                   :     00000000 
0                    -> 0                   :     00000000 
0                    -> 0                   :     00000000 
 ----------------------- layer3_model ----------------------- 
0                    -> 0                   :     00000000 
0                    -> 0                   :     00000000 
0                    -> 0                   :     00000000 
 ----------------------- layer2_model ----------------------- 
0                    -> 0                   :     00000000 
0                    -> 0                   :     00000000 
0                    -> 0                   :     00000000 
0                    -> 0                   :     00000000 
 ----------------------- layer1_model ----------------------- 
0                    -> 0                   :     00000000 
0                    -> 0                   :     00000000 
0                    -> 0                   :     00000000 
0                    -> 0                   :     00000000 
0                    -> 0                   :     00000000 
 ----------------------- layer0_model ----------------------- 
0                    -> 0                   :     00000000 
0                    -> 0                   :     00000000 
0                    -> 0                   :     00000000 
0                    -> 0                   :     00000000 
0                    -> 0                   :     00000000 
0                    -> 0                   :     00000000 
0                    -> 0                   :     00000000 
0                    -> 0                   :     00000000 
0                    -> 0                   :     00000000 
0                    -> 0                   :     00000000 
0                    -> 0                   :     00000000 
0                    -> 0                   :     00000000 
0                    -> 0                   :     00000000 
0                    -> 0                   :     00000000 
0                    -> 0                   :     00000000 
0                    -> 0                   :     00000000 
0                    -> 0                   :     00000000 
0                    -> 0                   :     00000000 
0                    -> 0                   :     00000000 
0                    -> 0                   :     00000000 
0                    -> 0                   :     00000000 
0                    -> 0                   :     00000000 
0                    -> 0                   :     00000000 
0                    -> 0                   :     00000000 
0                    -> 0                   :     00000000 
0                    -> 0                   :     00000000 
0                    -> 0                   :     00000000 
0                    -> 0                   :     00000000 
0                    -> 0                   :     00000000 
0                    -> 0                   :     00000000 
0                    -> 0                   :     00000000 
0                    -> 0                   :     00000000 
0                    -> 0                   :     00000000 
0                    -> 0                   :     00000000 
0                    -> 0                   :     00000000 
0                    -> 0                   :     00000000 
0                    -> 0                   :     00000000 
0                    -> 0                   :     00000000 
0                    -> 0                   :     00000000 
0                    -> 0                   :     00000000 
0                    -> 0                   :     00000000 
0                    -> 0                   :     00000000 
0                    -> 0                   :     00000000 
0                    -> 0                   :     00000000 
0                    -> 0                   :     00000000 
0                    -> 0                   :     00000000 
0                    -> 0                   :     00000000 
0                    -> 0                   :     00000000 
0                    -> 0                   :     00000000 
0                    -> 0                   :     00000000 
0                    -> 0                   :     00000000 
0                    -> 0                   :     00000000 
0                    -> 0                   :     00000000 
0                    -> 0                   :     00000000 
0                    -> 0                   :     00000000 
0                    -> 0                   :     00000000 
0                    -> 0                   :     00000000 
0                    -> 0                   :     00000000 
0                    -> 0                   :     00000000 
0                    -> 0                   :     00000000 
0                    -> 0                   :     00000000 
0                    -> 0                   :     00000000 
0                    -> 0                   :     00000000 
0                    -> 0                   :     00000000 
0                    -> 0                   :     00000000 
 ----------------------- layer5_n4 ----------------------- 
-0.3961840867996216  -> -50.71156311035156  :     11001110 
1.0                  -> 128.0               :     01111111 
-0.03380223736166954 -> -4.326686382293701  :     11111100 
-0.22926683723926544 -> -29.346155166625977 :     11100011 
0.18965776           -> 24.276193618774414  :     00011000 

 ===================== NEURON LEVEL l ===================== 
 ----------------------- layer4_model ----------------------- 
0                    -> 0                   :     00000000 
0                    -> 0                   :     00000000 
0                    -> 0                   :     00000000 
0                    -> 0                   :     00000000 
 ----------------------- layer3_model ----------------------- 
0                    -> 0                   :     00000000 
0                    -> 0                   :     00000000 
0                    -> 0                   :     00000000 
 ----------------------- layer2_model ----------------------- 
0                    -> 0                   :     00000000 
0                    -> 0                   :     00000000 
0                    -> 0                   :     00000000 
0                    -> 0                   :     00000000 
 ----------------------- layer1_model ----------------------- 
0                    -> 0                   :     00000000 
0                    -> 0                   :     00000000 
0                    -> 0                   :     00000000 
0                    -> 0                   :     00000000 
0                    -> 0                   :     00000000 
 ----------------------- layer0_model ----------------------- 
0                    -> 0                   :     00000000 
0                    -> 0                   :     00000000 
0                    -> 0                   :     00000000 
0                    -> 0                   :     00000000 
0                    -> 0                   :     00000000 
0                    -> 0                   :     00000000 
0                    -> 0                   :     00000000 
0                    -> 0                   :     00000000 
0                    -> 0                   :     00000000 
0                    -> 0                   :     00000000 
0                    -> 0                   :     00000000 
0                    -> 0                   :     00000000 
0                    -> 0                   :     00000000 
0                    -> 0                   :     00000000 
0                    -> 0                   :     00000000 
0                    -> 0                   :     00000000 
0                    -> 0                   :     00000000 
0                    -> 0                   :     00000000 
0                    -> 0                   :     00000000 
0                    -> 0                   :     00000000 
0                    -> 0                   :     00000000 
0                    -> 0                   :     00000000 
0                    -> 0                   :     00000000 
0                    -> 0                   :     00000000 
0                    -> 0                   :     00000000 
0                    -> 0                   :     00000000 
0                    -> 0                   :     00000000 
0                    -> 0                   :     00000000 
0                    -> 0                   :     00000000 
0                    -> 0                   :     00000000 
0                    -> 0                   :     00000000 
0                    -> 0                   :     00000000 
0                    -> 0                   :     00000000 
0                    -> 0                   :     00000000 
0                    -> 0                   :     00000000 
0                    -> 0                   :     00000000 
0                    -> 0                   :     00000000 
0                    -> 0                   :     00000000 
0                    -> 0                   :     00000000 
0                    -> 0                   :     00000000 
0                    -> 0                   :     00000000 
0                    -> 0                   :     00000000 
0                    -> 0                   :     00000000 
0                    -> 0                   :     00000000 
0                    -> 0                   :     00000000 
0                    -> 0                   :     00000000 
0                    -> 0                   :     00000000 
0                    -> 0                   :     00000000 
0                    -> 0                   :     00000000 
0                    -> 0                   :     00000000 
0                    -> 0                   :     00000000 
0                    -> 0                   :     00000000 
0                    -> 0                   :     00000000 
0                    -> 0                   :     00000000 
0                    -> 0                   :     00000000 
0                    -> 0                   :     00000000 
0                    -> 0                   :     00000000 
0                    -> 0                   :     00000000 
0                    -> 0                   :     00000000 
0                    -> 0                   :     00000000 
0                    -> 0                   :     00000000 
0                    -> 0                   :     00000000 
0                    -> 0                   :     00000000 
0                    -> 0                   :     00000000 
0                    -> 0                   :     00000000 
 ----------------------- layer5_n5 ----------------------- 
0.7366110682487488   -> 94.28621673583984   :     01011110 
-0.14619404077529907 -> -18.71283721923828  :     11101110 
-0.22783654928207397 -> -29.16307830810547  :     11100011 
-0.12452167272567749 -> -15.938774108886719 :     11110001 
0.0                  -> 0.0                 :     00000000 

 ===================== NEURON LEVEL l ===================== 
 ----------------------- layer4_model ----------------------- 
0                    -> 0                   :     00000000 
0                    -> 0                   :     00000000 
0                    -> 0                   :     00000000 
0                    -> 0                   :     00000000 
 ----------------------- layer3_model ----------------------- 
0                    -> 0                   :     00000000 
0                    -> 0                   :     00000000 
0                    -> 0                   :     00000000 
 ----------------------- layer2_model ----------------------- 
0                    -> 0                   :     00000000 
0                    -> 0                   :     00000000 
0                    -> 0                   :     00000000 
0                    -> 0                   :     00000000 
 ----------------------- layer1_model ----------------------- 
0                    -> 0                   :     00000000 
0                    -> 0                   :     00000000 
0                    -> 0                   :     00000000 
0                    -> 0                   :     00000000 
0                    -> 0                   :     00000000 
 ----------------------- layer0_model ----------------------- 
0                    -> 0                   :     00000000 
0                    -> 0                   :     00000000 
0                    -> 0                   :     00000000 
0                    -> 0                   :     00000000 
0                    -> 0                   :     00000000 
0                    -> 0                   :     00000000 
0                    -> 0                   :     00000000 
0                    -> 0                   :     00000000 
0                    -> 0                   :     00000000 
0                    -> 0                   :     00000000 
0                    -> 0                   :     00000000 
0                    -> 0                   :     00000000 
0                    -> 0                   :     00000000 
0                    -> 0                   :     00000000 
0                    -> 0                   :     00000000 
0                    -> 0                   :     00000000 
0                    -> 0                   :     00000000 
0                    -> 0                   :     00000000 
0                    -> 0                   :     00000000 
0                    -> 0                   :     00000000 
0                    -> 0                   :     00000000 
0                    -> 0                   :     00000000 
0                    -> 0                   :     00000000 
0                    -> 0                   :     00000000 
0                    -> 0                   :     00000000 
0                    -> 0                   :     00000000 
0                    -> 0                   :     00000000 
0                    -> 0                   :     00000000 
0                    -> 0                   :     00000000 
0                    -> 0                   :     00000000 
0                    -> 0                   :     00000000 
0                    -> 0                   :     00000000 
0                    -> 0                   :     00000000 
0                    -> 0                   :     00000000 
0                    -> 0                   :     00000000 
0                    -> 0                   :     00000000 
0                    -> 0                   :     00000000 
0                    -> 0                   :     00000000 
0                    -> 0                   :     00000000 
0                    -> 0                   :     00000000 
0                    -> 0                   :     00000000 
0                    -> 0                   :     00000000 
0                    -> 0                   :     00000000 
0                    -> 0                   :     00000000 
0                    -> 0                   :     00000000 
0                    -> 0                   :     00000000 
0                    -> 0                   :     00000000 
0                    -> 0                   :     00000000 
0                    -> 0                   :     00000000 
0                    -> 0                   :     00000000 
0                    -> 0                   :     00000000 
0                    -> 0                   :     00000000 
0                    -> 0                   :     00000000 
0                    -> 0                   :     00000000 
0                    -> 0                   :     00000000 
0                    -> 0                   :     00000000 
0                    -> 0                   :     00000000 
0                    -> 0                   :     00000000 
0                    -> 0                   :     00000000 
0                    -> 0                   :     00000000 
0                    -> 0                   :     00000000 
0                    -> 0                   :     00000000 
0                    -> 0                   :     00000000 
0                    -> 0                   :     00000000 
0                    -> 0                   :     00000000 
 ----------------------- layer5_n6 ----------------------- 
-0.09963899850845337 -> -12.753791809082031 :     11110100 
0.2963882386684418   -> 37.93769454956055   :     00100101 
-0.5394608974456787  -> -69.05099487304688  :     10111011 
0.29908183217048645  -> 38.282474517822266  :     00100110 
0.067653             -> 8.659584045410156   :     00001000 

 ===================== NEURON LEVEL l ===================== 
 ----------------------- layer4_model ----------------------- 
0                    -> 0                   :     00000000 
0                    -> 0                   :     00000000 
0                    -> 0                   :     00000000 
0                    -> 0                   :     00000000 
 ----------------------- layer3_model ----------------------- 
0                    -> 0                   :     00000000 
0                    -> 0                   :     00000000 
0                    -> 0                   :     00000000 
 ----------------------- layer2_model ----------------------- 
0                    -> 0                   :     00000000 
0                    -> 0                   :     00000000 
0                    -> 0                   :     00000000 
0                    -> 0                   :     00000000 
 ----------------------- layer1_model ----------------------- 
0                    -> 0                   :     00000000 
0                    -> 0                   :     00000000 
0                    -> 0                   :     00000000 
0                    -> 0                   :     00000000 
0                    -> 0                   :     00000000 
 ----------------------- layer0_model ----------------------- 
0                    -> 0                   :     00000000 
0                    -> 0                   :     00000000 
0                    -> 0                   :     00000000 
0                    -> 0                   :     00000000 
0                    -> 0                   :     00000000 
0                    -> 0                   :     00000000 
0                    -> 0                   :     00000000 
0                    -> 0                   :     00000000 
0                    -> 0                   :     00000000 
0                    -> 0                   :     00000000 
0                    -> 0                   :     00000000 
0                    -> 0                   :     00000000 
0                    -> 0                   :     00000000 
0                    -> 0                   :     00000000 
0                    -> 0                   :     00000000 
0                    -> 0                   :     00000000 
0                    -> 0                   :     00000000 
0                    -> 0                   :     00000000 
0                    -> 0                   :     00000000 
0                    -> 0                   :     00000000 
0                    -> 0                   :     00000000 
0                    -> 0                   :     00000000 
0                    -> 0                   :     00000000 
0                    -> 0                   :     00000000 
0                    -> 0                   :     00000000 
0                    -> 0                   :     00000000 
0                    -> 0                   :     00000000 
0                    -> 0                   :     00000000 
0                    -> 0                   :     00000000 
0                    -> 0                   :     00000000 
0                    -> 0                   :     00000000 
0                    -> 0                   :     00000000 
0                    -> 0                   :     00000000 
0                    -> 0                   :     00000000 
0                    -> 0                   :     00000000 
0                    -> 0                   :     00000000 
0                    -> 0                   :     00000000 
0                    -> 0                   :     00000000 
0                    -> 0                   :     00000000 
0                    -> 0                   :     00000000 
0                    -> 0                   :     00000000 
0                    -> 0                   :     00000000 
0                    -> 0                   :     00000000 
0                    -> 0                   :     00000000 
0                    -> 0                   :     00000000 
0                    -> 0                   :     00000000 
0                    -> 0                   :     00000000 
0                    -> 0                   :     00000000 
0                    -> 0                   :     00000000 
0                    -> 0                   :     00000000 
0                    -> 0                   :     00000000 
0                    -> 0                   :     00000000 
0                    -> 0                   :     00000000 
0                    -> 0                   :     00000000 
0                    -> 0                   :     00000000 
0                    -> 0                   :     00000000 
0                    -> 0                   :     00000000 
0                    -> 0                   :     00000000 
0                    -> 0                   :     00000000 
0                    -> 0                   :     00000000 
0                    -> 0                   :     00000000 
0                    -> 0                   :     00000000 
0                    -> 0                   :     00000000 
0                    -> 0                   :     00000000 
0                    -> 0                   :     00000000 
 ----------------------- layer5_n7 ----------------------- 
-0.7980301976203918  -> -102.14786529541016 :     10011010 
-0.4371184706687927  -> -55.95116424560547  :     11001001 
-0.3472028970718384  -> -44.44197082519531  :     11010100 
-0.5974382162094116  -> -76.47209167480469  :     10110100 
0.0                  -> 0.0                 :     00000000 

 ===================== NEURON LEVEL l ===================== 
 ----------------------- layer4_model ----------------------- 
0                    -> 0                   :     00000000 
0                    -> 0                   :     00000000 
0                    -> 0                   :     00000000 
0                    -> 0                   :     00000000 
 ----------------------- layer3_model ----------------------- 
0                    -> 0                   :     00000000 
0                    -> 0                   :     00000000 
0                    -> 0                   :     00000000 
 ----------------------- layer2_model ----------------------- 
0                    -> 0                   :     00000000 
0                    -> 0                   :     00000000 
0                    -> 0                   :     00000000 
0                    -> 0                   :     00000000 
 ----------------------- layer1_model ----------------------- 
0                    -> 0                   :     00000000 
0                    -> 0                   :     00000000 
0                    -> 0                   :     00000000 
0                    -> 0                   :     00000000 
0                    -> 0                   :     00000000 
 ----------------------- layer0_model ----------------------- 
0                    -> 0                   :     00000000 
0                    -> 0                   :     00000000 
0                    -> 0                   :     00000000 
0                    -> 0                   :     00000000 
0                    -> 0                   :     00000000 
0                    -> 0                   :     00000000 
0                    -> 0                   :     00000000 
0                    -> 0                   :     00000000 
0                    -> 0                   :     00000000 
0                    -> 0                   :     00000000 
0                    -> 0                   :     00000000 
0                    -> 0                   :     00000000 
0                    -> 0                   :     00000000 
0                    -> 0                   :     00000000 
0                    -> 0                   :     00000000 
0                    -> 0                   :     00000000 
0                    -> 0                   :     00000000 
0                    -> 0                   :     00000000 
0                    -> 0                   :     00000000 
0                    -> 0                   :     00000000 
0                    -> 0                   :     00000000 
0                    -> 0                   :     00000000 
0                    -> 0                   :     00000000 
0                    -> 0                   :     00000000 
0                    -> 0                   :     00000000 
0                    -> 0                   :     00000000 
0                    -> 0                   :     00000000 
0                    -> 0                   :     00000000 
0                    -> 0                   :     00000000 
0                    -> 0                   :     00000000 
0                    -> 0                   :     00000000 
0                    -> 0                   :     00000000 
0                    -> 0                   :     00000000 
0                    -> 0                   :     00000000 
0                    -> 0                   :     00000000 
0                    -> 0                   :     00000000 
0                    -> 0                   :     00000000 
0                    -> 0                   :     00000000 
0                    -> 0                   :     00000000 
0                    -> 0                   :     00000000 
0                    -> 0                   :     00000000 
0                    -> 0                   :     00000000 
0                    -> 0                   :     00000000 
0                    -> 0                   :     00000000 
0                    -> 0                   :     00000000 
0                    -> 0                   :     00000000 
0                    -> 0                   :     00000000 
0                    -> 0                   :     00000000 
0                    -> 0                   :     00000000 
0                    -> 0                   :     00000000 
0                    -> 0                   :     00000000 
0                    -> 0                   :     00000000 
0                    -> 0                   :     00000000 
0                    -> 0                   :     00000000 
0                    -> 0                   :     00000000 
0                    -> 0                   :     00000000 
0                    -> 0                   :     00000000 
0                    -> 0                   :     00000000 
0                    -> 0                   :     00000000 
0                    -> 0                   :     00000000 
0                    -> 0                   :     00000000 
0                    -> 0                   :     00000000 
0                    -> 0                   :     00000000 
0                    -> 0                   :     00000000 
0                    -> 0                   :     00000000 
 ----------------------- layer5_n8 ----------------------- 
-0.3776344358921051  -> -48.33720779418945  :     11010000 
0.6691060662269592   -> 85.64557647705078   :     01010101 
-0.9449328780174255  -> -120.95140838623047 :     10001000 
-0.467831015586853   -> -59.88236999511719  :     11000101 
-0.07825983          -> -10.017258644104004 :     11110110 

 ===================== NEURON LEVEL l ===================== 
 ----------------------- layer4_model ----------------------- 
0                    -> 0                   :     00000000 
0                    -> 0                   :     00000000 
0                    -> 0                   :     00000000 
0                    -> 0                   :     00000000 
 ----------------------- layer3_model ----------------------- 
0                    -> 0                   :     00000000 
0                    -> 0                   :     00000000 
0                    -> 0                   :     00000000 
 ----------------------- layer2_model ----------------------- 
0                    -> 0                   :     00000000 
0                    -> 0                   :     00000000 
0                    -> 0                   :     00000000 
0                    -> 0                   :     00000000 
 ----------------------- layer1_model ----------------------- 
0                    -> 0                   :     00000000 
0                    -> 0                   :     00000000 
0                    -> 0                   :     00000000 
0                    -> 0                   :     00000000 
0                    -> 0                   :     00000000 
 ----------------------- layer0_model ----------------------- 
0                    -> 0                   :     00000000 
0                    -> 0                   :     00000000 
0                    -> 0                   :     00000000 
0                    -> 0                   :     00000000 
0                    -> 0                   :     00000000 
0                    -> 0                   :     00000000 
0                    -> 0                   :     00000000 
0                    -> 0                   :     00000000 
0                    -> 0                   :     00000000 
0                    -> 0                   :     00000000 
0                    -> 0                   :     00000000 
0                    -> 0                   :     00000000 
0                    -> 0                   :     00000000 
0                    -> 0                   :     00000000 
0                    -> 0                   :     00000000 
0                    -> 0                   :     00000000 
0                    -> 0                   :     00000000 
0                    -> 0                   :     00000000 
0                    -> 0                   :     00000000 
0                    -> 0                   :     00000000 
0                    -> 0                   :     00000000 
0                    -> 0                   :     00000000 
0                    -> 0                   :     00000000 
0                    -> 0                   :     00000000 
0                    -> 0                   :     00000000 
0                    -> 0                   :     00000000 
0                    -> 0                   :     00000000 
0                    -> 0                   :     00000000 
0                    -> 0                   :     00000000 
0                    -> 0                   :     00000000 
0                    -> 0                   :     00000000 
0                    -> 0                   :     00000000 
0                    -> 0                   :     00000000 
0                    -> 0                   :     00000000 
0                    -> 0                   :     00000000 
0                    -> 0                   :     00000000 
0                    -> 0                   :     00000000 
0                    -> 0                   :     00000000 
0                    -> 0                   :     00000000 
0                    -> 0                   :     00000000 
0                    -> 0                   :     00000000 
0                    -> 0                   :     00000000 
0                    -> 0                   :     00000000 
0                    -> 0                   :     00000000 
0                    -> 0                   :     00000000 
0                    -> 0                   :     00000000 
0                    -> 0                   :     00000000 
0                    -> 0                   :     00000000 
0                    -> 0                   :     00000000 
0                    -> 0                   :     00000000 
0                    -> 0                   :     00000000 
0                    -> 0                   :     00000000 
0                    -> 0                   :     00000000 
0                    -> 0                   :     00000000 
0                    -> 0                   :     00000000 
0                    -> 0                   :     00000000 
0                    -> 0                   :     00000000 
0                    -> 0                   :     00000000 
0                    -> 0                   :     00000000 
0                    -> 0                   :     00000000 
0                    -> 0                   :     00000000 
0                    -> 0                   :     00000000 
0                    -> 0                   :     00000000 
0                    -> 0                   :     00000000 
0                    -> 0                   :     00000000 
 ----------------------- layer5_n9 ----------------------- 
0.43899351358413696  -> 56.19116973876953   :     00111000 
-0.3163199722766876  -> -40.488956451416016 :     11011000 
0.15801474452018738  -> 20.225887298583984  :     00010100 
-0.8176433444023132  -> -104.6583480834961  :     10011000 
-0.033790436         -> -4.325175762176514  :     11111100 

 ===================== NEURON LEVEL l ===================== 
 ----------------------- layer4_model ----------------------- 
0                    -> 0                   :     00000000 
0                    -> 0                   :     00000000 
0                    -> 0                   :     00000000 
0                    -> 0                   :     00000000 
 ----------------------- layer3_model ----------------------- 
0                    -> 0                   :     00000000 
0                    -> 0                   :     00000000 
0                    -> 0                   :     00000000 
 ----------------------- layer2_model ----------------------- 
0                    -> 0                   :     00000000 
0                    -> 0                   :     00000000 
0                    -> 0                   :     00000000 
0                    -> 0                   :     00000000 
 ----------------------- layer1_model ----------------------- 
0                    -> 0                   :     00000000 
0                    -> 0                   :     00000000 
0                    -> 0                   :     00000000 
0                    -> 0                   :     00000000 
0                    -> 0                   :     00000000 
 ----------------------- layer0_model ----------------------- 
0                    -> 0                   :     00000000 
0                    -> 0                   :     00000000 
0                    -> 0                   :     00000000 
0                    -> 0                   :     00000000 
0                    -> 0                   :     00000000 
0                    -> 0                   :     00000000 
0                    -> 0                   :     00000000 
0                    -> 0                   :     00000000 
0                    -> 0                   :     00000000 
0                    -> 0                   :     00000000 
0                    -> 0                   :     00000000 
0                    -> 0                   :     00000000 
0                    -> 0                   :     00000000 
0                    -> 0                   :     00000000 
0                    -> 0                   :     00000000 
0                    -> 0                   :     00000000 
0                    -> 0                   :     00000000 
0                    -> 0                   :     00000000 
0                    -> 0                   :     00000000 
0                    -> 0                   :     00000000 
0                    -> 0                   :     00000000 
0                    -> 0                   :     00000000 
0                    -> 0                   :     00000000 
0                    -> 0                   :     00000000 
0                    -> 0                   :     00000000 
0                    -> 0                   :     00000000 
0                    -> 0                   :     00000000 
0                    -> 0                   :     00000000 
0                    -> 0                   :     00000000 
0                    -> 0                   :     00000000 
0                    -> 0                   :     00000000 
0                    -> 0                   :     00000000 
0                    -> 0                   :     00000000 
0                    -> 0                   :     00000000 
0                    -> 0                   :     00000000 
0                    -> 0                   :     00000000 
0                    -> 0                   :     00000000 
0                    -> 0                   :     00000000 
0                    -> 0                   :     00000000 
0                    -> 0                   :     00000000 
0                    -> 0                   :     00000000 
0                    -> 0                   :     00000000 
0                    -> 0                   :     00000000 
0                    -> 0                   :     00000000 
0                    -> 0                   :     00000000 
0                    -> 0                   :     00000000 
0                    -> 0                   :     00000000 
0                    -> 0                   :     00000000 
0                    -> 0                   :     00000000 
0                    -> 0                   :     00000000 
0                    -> 0                   :     00000000 
0                    -> 0                   :     00000000 
0                    -> 0                   :     00000000 
0                    -> 0                   :     00000000 
0                    -> 0                   :     00000000 
0                    -> 0                   :     00000000 
0                    -> 0                   :     00000000 
0                    -> 0                   :     00000000 
0                    -> 0                   :     00000000 
0                    -> 0                   :     00000000 
0                    -> 0                   :     00000000 
0                    -> 0                   :     00000000 
0                    -> 0                   :     00000000 
0                    -> 0                   :     00000000 
0                    -> 0                   :     00000000 
 ----------------------- layer5_n10 ----------------------- 
0.14176779985427856  -> 18.146278381347656  :     00010010 
0.4171444773674011   -> 53.394493103027344  :     00110101 
-0.051996760070323944 -> -6.655585289001465  :     11111010 
0.30034688115119934  -> 38.444400787353516  :     00100110 
0.06127861           -> 7.843662261962891   :     00000111 

 ===================== NEURON LEVEL l ===================== 
 ----------------------- layer4_model ----------------------- 
0                    -> 0                   :     00000000 
0                    -> 0                   :     00000000 
0                    -> 0                   :     00000000 
0                    -> 0                   :     00000000 
 ----------------------- layer3_model ----------------------- 
0                    -> 0                   :     00000000 
0                    -> 0                   :     00000000 
0                    -> 0                   :     00000000 
 ----------------------- layer2_model ----------------------- 
0                    -> 0                   :     00000000 
0                    -> 0                   :     00000000 
0                    -> 0                   :     00000000 
0                    -> 0                   :     00000000 
 ----------------------- layer1_model ----------------------- 
0                    -> 0                   :     00000000 
0                    -> 0                   :     00000000 
0                    -> 0                   :     00000000 
0                    -> 0                   :     00000000 
0                    -> 0                   :     00000000 
 ----------------------- layer0_model ----------------------- 
0                    -> 0                   :     00000000 
0                    -> 0                   :     00000000 
0                    -> 0                   :     00000000 
0                    -> 0                   :     00000000 
0                    -> 0                   :     00000000 
0                    -> 0                   :     00000000 
0                    -> 0                   :     00000000 
0                    -> 0                   :     00000000 
0                    -> 0                   :     00000000 
0                    -> 0                   :     00000000 
0                    -> 0                   :     00000000 
0                    -> 0                   :     00000000 
0                    -> 0                   :     00000000 
0                    -> 0                   :     00000000 
0                    -> 0                   :     00000000 
0                    -> 0                   :     00000000 
0                    -> 0                   :     00000000 
0                    -> 0                   :     00000000 
0                    -> 0                   :     00000000 
0                    -> 0                   :     00000000 
0                    -> 0                   :     00000000 
0                    -> 0                   :     00000000 
0                    -> 0                   :     00000000 
0                    -> 0                   :     00000000 
0                    -> 0                   :     00000000 
0                    -> 0                   :     00000000 
0                    -> 0                   :     00000000 
0                    -> 0                   :     00000000 
0                    -> 0                   :     00000000 
0                    -> 0                   :     00000000 
0                    -> 0                   :     00000000 
0                    -> 0                   :     00000000 
0                    -> 0                   :     00000000 
0                    -> 0                   :     00000000 
0                    -> 0                   :     00000000 
0                    -> 0                   :     00000000 
0                    -> 0                   :     00000000 
0                    -> 0                   :     00000000 
0                    -> 0                   :     00000000 
0                    -> 0                   :     00000000 
0                    -> 0                   :     00000000 
0                    -> 0                   :     00000000 
0                    -> 0                   :     00000000 
0                    -> 0                   :     00000000 
0                    -> 0                   :     00000000 
0                    -> 0                   :     00000000 
0                    -> 0                   :     00000000 
0                    -> 0                   :     00000000 
0                    -> 0                   :     00000000 
0                    -> 0                   :     00000000 
0                    -> 0                   :     00000000 
0                    -> 0                   :     00000000 
0                    -> 0                   :     00000000 
0                    -> 0                   :     00000000 
0                    -> 0                   :     00000000 
0                    -> 0                   :     00000000 
0                    -> 0                   :     00000000 
0                    -> 0                   :     00000000 
0                    -> 0                   :     00000000 
0                    -> 0                   :     00000000 
0                    -> 0                   :     00000000 
0                    -> 0                   :     00000000 
0                    -> 0                   :     00000000 
0                    -> 0                   :     00000000 
0                    -> 0                   :     00000000 
 ----------------------- layer5_n11 ----------------------- 
-0.17101293802261353 -> -21.88965606689453  :     11101011 
0.5777036547660828   -> 73.9460678100586    :     01001001 
-0.33963653445243835 -> -43.47347640991211  :     11010101 
0.750344455242157    -> 96.0440902709961    :     01100000 
0.12710594           -> 16.269559860229492  :     00010000 

 ===================== NEURON LEVEL l ===================== 
 ----------------------- layer4_model ----------------------- 
0                    -> 0                   :     00000000 
0                    -> 0                   :     00000000 
0                    -> 0                   :     00000000 
0                    -> 0                   :     00000000 
 ----------------------- layer3_model ----------------------- 
0                    -> 0                   :     00000000 
0                    -> 0                   :     00000000 
0                    -> 0                   :     00000000 
 ----------------------- layer2_model ----------------------- 
0                    -> 0                   :     00000000 
0                    -> 0                   :     00000000 
0                    -> 0                   :     00000000 
0                    -> 0                   :     00000000 
 ----------------------- layer1_model ----------------------- 
0                    -> 0                   :     00000000 
0                    -> 0                   :     00000000 
0                    -> 0                   :     00000000 
0                    -> 0                   :     00000000 
0                    -> 0                   :     00000000 
 ----------------------- layer0_model ----------------------- 
0                    -> 0                   :     00000000 
0                    -> 0                   :     00000000 
0                    -> 0                   :     00000000 
0                    -> 0                   :     00000000 
0                    -> 0                   :     00000000 
0                    -> 0                   :     00000000 
0                    -> 0                   :     00000000 
0                    -> 0                   :     00000000 
0                    -> 0                   :     00000000 
0                    -> 0                   :     00000000 
0                    -> 0                   :     00000000 
0                    -> 0                   :     00000000 
0                    -> 0                   :     00000000 
0                    -> 0                   :     00000000 
0                    -> 0                   :     00000000 
0                    -> 0                   :     00000000 
0                    -> 0                   :     00000000 
0                    -> 0                   :     00000000 
0                    -> 0                   :     00000000 
0                    -> 0                   :     00000000 
0                    -> 0                   :     00000000 
0                    -> 0                   :     00000000 
0                    -> 0                   :     00000000 
0                    -> 0                   :     00000000 
0                    -> 0                   :     00000000 
0                    -> 0                   :     00000000 
0                    -> 0                   :     00000000 
0                    -> 0                   :     00000000 
0                    -> 0                   :     00000000 
0                    -> 0                   :     00000000 
0                    -> 0                   :     00000000 
0                    -> 0                   :     00000000 
0                    -> 0                   :     00000000 
0                    -> 0                   :     00000000 
0                    -> 0                   :     00000000 
0                    -> 0                   :     00000000 
0                    -> 0                   :     00000000 
0                    -> 0                   :     00000000 
0                    -> 0                   :     00000000 
0                    -> 0                   :     00000000 
0                    -> 0                   :     00000000 
0                    -> 0                   :     00000000 
0                    -> 0                   :     00000000 
0                    -> 0                   :     00000000 
0                    -> 0                   :     00000000 
0                    -> 0                   :     00000000 
0                    -> 0                   :     00000000 
0                    -> 0                   :     00000000 
0                    -> 0                   :     00000000 
0                    -> 0                   :     00000000 
0                    -> 0                   :     00000000 
0                    -> 0                   :     00000000 
0                    -> 0                   :     00000000 
0                    -> 0                   :     00000000 
0                    -> 0                   :     00000000 
0                    -> 0                   :     00000000 
0                    -> 0                   :     00000000 
0                    -> 0                   :     00000000 
0                    -> 0                   :     00000000 
0                    -> 0                   :     00000000 
0                    -> 0                   :     00000000 
0                    -> 0                   :     00000000 
0                    -> 0                   :     00000000 
0                    -> 0                   :     00000000 
0                    -> 0                   :     00000000 
 ----------------------- layer5_n12 ----------------------- 
0.8307051062583923   -> 106.33025360107422  :     01101010 
1.0                  -> 128.0               :     01111111 
0.3201265037059784   -> 40.976192474365234  :     00101000 
-0.43023839592933655 -> -55.07051467895508  :     11001001 
0.4951824            -> 63.38334655761719   :     00111111 

 ===================== NEURON LEVEL l ===================== 
 ----------------------- layer4_model ----------------------- 
0                    -> 0                   :     00000000 
0                    -> 0                   :     00000000 
0                    -> 0                   :     00000000 
0                    -> 0                   :     00000000 
 ----------------------- layer3_model ----------------------- 
0                    -> 0                   :     00000000 
0                    -> 0                   :     00000000 
0                    -> 0                   :     00000000 
 ----------------------- layer2_model ----------------------- 
0                    -> 0                   :     00000000 
0                    -> 0                   :     00000000 
0                    -> 0                   :     00000000 
0                    -> 0                   :     00000000 
 ----------------------- layer1_model ----------------------- 
0                    -> 0                   :     00000000 
0                    -> 0                   :     00000000 
0                    -> 0                   :     00000000 
0                    -> 0                   :     00000000 
0                    -> 0                   :     00000000 
 ----------------------- layer0_model ----------------------- 
0                    -> 0                   :     00000000 
0                    -> 0                   :     00000000 
0                    -> 0                   :     00000000 
0                    -> 0                   :     00000000 
0                    -> 0                   :     00000000 
0                    -> 0                   :     00000000 
0                    -> 0                   :     00000000 
0                    -> 0                   :     00000000 
0                    -> 0                   :     00000000 
0                    -> 0                   :     00000000 
0                    -> 0                   :     00000000 
0                    -> 0                   :     00000000 
0                    -> 0                   :     00000000 
0                    -> 0                   :     00000000 
0                    -> 0                   :     00000000 
0                    -> 0                   :     00000000 
0                    -> 0                   :     00000000 
0                    -> 0                   :     00000000 
0                    -> 0                   :     00000000 
0                    -> 0                   :     00000000 
0                    -> 0                   :     00000000 
0                    -> 0                   :     00000000 
0                    -> 0                   :     00000000 
0                    -> 0                   :     00000000 
0                    -> 0                   :     00000000 
0                    -> 0                   :     00000000 
0                    -> 0                   :     00000000 
0                    -> 0                   :     00000000 
0                    -> 0                   :     00000000 
0                    -> 0                   :     00000000 
0                    -> 0                   :     00000000 
0                    -> 0                   :     00000000 
0                    -> 0                   :     00000000 
0                    -> 0                   :     00000000 
0                    -> 0                   :     00000000 
0                    -> 0                   :     00000000 
0                    -> 0                   :     00000000 
0                    -> 0                   :     00000000 
0                    -> 0                   :     00000000 
0                    -> 0                   :     00000000 
0                    -> 0                   :     00000000 
0                    -> 0                   :     00000000 
0                    -> 0                   :     00000000 
0                    -> 0                   :     00000000 
0                    -> 0                   :     00000000 
0                    -> 0                   :     00000000 
0                    -> 0                   :     00000000 
0                    -> 0                   :     00000000 
0                    -> 0                   :     00000000 
0                    -> 0                   :     00000000 
0                    -> 0                   :     00000000 
0                    -> 0                   :     00000000 
0                    -> 0                   :     00000000 
0                    -> 0                   :     00000000 
0                    -> 0                   :     00000000 
0                    -> 0                   :     00000000 
0                    -> 0                   :     00000000 
0                    -> 0                   :     00000000 
0                    -> 0                   :     00000000 
0                    -> 0                   :     00000000 
0                    -> 0                   :     00000000 
0                    -> 0                   :     00000000 
0                    -> 0                   :     00000000 
0                    -> 0                   :     00000000 
0                    -> 0                   :     00000000 
 ----------------------- layer5_n13 ----------------------- 
0.3026246428489685   -> 38.73595428466797   :     00100110 
1.0                  -> 128.0               :     01111111 
-0.09475737065076828 -> -12.12894344329834  :     11110100 
0.04844292625784874  -> 6.200694561004639   :     00000110 
0.36082685           -> 46.18583679199219   :     00101110 

 ===================== NEURON LEVEL l ===================== 
 ----------------------- layer4_model ----------------------- 
0                    -> 0                   :     00000000 
0                    -> 0                   :     00000000 
0                    -> 0                   :     00000000 
0                    -> 0                   :     00000000 
 ----------------------- layer3_model ----------------------- 
0                    -> 0                   :     00000000 
0                    -> 0                   :     00000000 
0                    -> 0                   :     00000000 
 ----------------------- layer2_model ----------------------- 
0                    -> 0                   :     00000000 
0                    -> 0                   :     00000000 
0                    -> 0                   :     00000000 
0                    -> 0                   :     00000000 
 ----------------------- layer1_model ----------------------- 
0                    -> 0                   :     00000000 
0                    -> 0                   :     00000000 
0                    -> 0                   :     00000000 
0                    -> 0                   :     00000000 
0                    -> 0                   :     00000000 
 ----------------------- layer0_model ----------------------- 
0                    -> 0                   :     00000000 
0                    -> 0                   :     00000000 
0                    -> 0                   :     00000000 
0                    -> 0                   :     00000000 
0                    -> 0                   :     00000000 
0                    -> 0                   :     00000000 
0                    -> 0                   :     00000000 
0                    -> 0                   :     00000000 
0                    -> 0                   :     00000000 
0                    -> 0                   :     00000000 
0                    -> 0                   :     00000000 
0                    -> 0                   :     00000000 
0                    -> 0                   :     00000000 
0                    -> 0                   :     00000000 
0                    -> 0                   :     00000000 
0                    -> 0                   :     00000000 
0                    -> 0                   :     00000000 
0                    -> 0                   :     00000000 
0                    -> 0                   :     00000000 
0                    -> 0                   :     00000000 
0                    -> 0                   :     00000000 
0                    -> 0                   :     00000000 
0                    -> 0                   :     00000000 
0                    -> 0                   :     00000000 
0                    -> 0                   :     00000000 
0                    -> 0                   :     00000000 
0                    -> 0                   :     00000000 
0                    -> 0                   :     00000000 
0                    -> 0                   :     00000000 
0                    -> 0                   :     00000000 
0                    -> 0                   :     00000000 
0                    -> 0                   :     00000000 
0                    -> 0                   :     00000000 
0                    -> 0                   :     00000000 
0                    -> 0                   :     00000000 
0                    -> 0                   :     00000000 
0                    -> 0                   :     00000000 
0                    -> 0                   :     00000000 
0                    -> 0                   :     00000000 
0                    -> 0                   :     00000000 
0                    -> 0                   :     00000000 
0                    -> 0                   :     00000000 
0                    -> 0                   :     00000000 
0                    -> 0                   :     00000000 
0                    -> 0                   :     00000000 
0                    -> 0                   :     00000000 
0                    -> 0                   :     00000000 
0                    -> 0                   :     00000000 
0                    -> 0                   :     00000000 
0                    -> 0                   :     00000000 
0                    -> 0                   :     00000000 
0                    -> 0                   :     00000000 
0                    -> 0                   :     00000000 
0                    -> 0                   :     00000000 
0                    -> 0                   :     00000000 
0                    -> 0                   :     00000000 
0                    -> 0                   :     00000000 
0                    -> 0                   :     00000000 
0                    -> 0                   :     00000000 
0                    -> 0                   :     00000000 
0                    -> 0                   :     00000000 
0                    -> 0                   :     00000000 
0                    -> 0                   :     00000000 
0                    -> 0                   :     00000000 
0                    -> 0                   :     00000000 
 ----------------------- layer5_n14 ----------------------- 
0.49498623609542847  -> 63.358238220214844  :     00111111 
0.753689169883728    -> 96.47221374511719   :     01100000 
0.7122625112533569   -> 91.16960144042969   :     01011011 
-0.3499426245689392  -> -44.79265594482422  :     11010100 
0.075903244          -> 9.715615272521973   :     00001001 

 ===================== NEURON LEVEL l ===================== 
 ----------------------- layer4_model ----------------------- 
0                    -> 0                   :     00000000 
0                    -> 0                   :     00000000 
0                    -> 0                   :     00000000 
0                    -> 0                   :     00000000 
 ----------------------- layer3_model ----------------------- 
0                    -> 0                   :     00000000 
0                    -> 0                   :     00000000 
0                    -> 0                   :     00000000 
 ----------------------- layer2_model ----------------------- 
0                    -> 0                   :     00000000 
0                    -> 0                   :     00000000 
0                    -> 0                   :     00000000 
0                    -> 0                   :     00000000 
 ----------------------- layer1_model ----------------------- 
0                    -> 0                   :     00000000 
0                    -> 0                   :     00000000 
0                    -> 0                   :     00000000 
0                    -> 0                   :     00000000 
0                    -> 0                   :     00000000 
 ----------------------- layer0_model ----------------------- 
0                    -> 0                   :     00000000 
0                    -> 0                   :     00000000 
0                    -> 0                   :     00000000 
0                    -> 0                   :     00000000 
0                    -> 0                   :     00000000 
0                    -> 0                   :     00000000 
0                    -> 0                   :     00000000 
0                    -> 0                   :     00000000 
0                    -> 0                   :     00000000 
0                    -> 0                   :     00000000 
0                    -> 0                   :     00000000 
0                    -> 0                   :     00000000 
0                    -> 0                   :     00000000 
0                    -> 0                   :     00000000 
0                    -> 0                   :     00000000 
0                    -> 0                   :     00000000 
0                    -> 0                   :     00000000 
0                    -> 0                   :     00000000 
0                    -> 0                   :     00000000 
0                    -> 0                   :     00000000 
0                    -> 0                   :     00000000 
0                    -> 0                   :     00000000 
0                    -> 0                   :     00000000 
0                    -> 0                   :     00000000 
0                    -> 0                   :     00000000 
0                    -> 0                   :     00000000 
0                    -> 0                   :     00000000 
0                    -> 0                   :     00000000 
0                    -> 0                   :     00000000 
0                    -> 0                   :     00000000 
0                    -> 0                   :     00000000 
0                    -> 0                   :     00000000 
0                    -> 0                   :     00000000 
0                    -> 0                   :     00000000 
0                    -> 0                   :     00000000 
0                    -> 0                   :     00000000 
0                    -> 0                   :     00000000 
0                    -> 0                   :     00000000 
0                    -> 0                   :     00000000 
0                    -> 0                   :     00000000 
0                    -> 0                   :     00000000 
0                    -> 0                   :     00000000 
0                    -> 0                   :     00000000 
0                    -> 0                   :     00000000 
0                    -> 0                   :     00000000 
0                    -> 0                   :     00000000 
0                    -> 0                   :     00000000 
0                    -> 0                   :     00000000 
0                    -> 0                   :     00000000 
0                    -> 0                   :     00000000 
0                    -> 0                   :     00000000 
0                    -> 0                   :     00000000 
0                    -> 0                   :     00000000 
0                    -> 0                   :     00000000 
0                    -> 0                   :     00000000 
0                    -> 0                   :     00000000 
0                    -> 0                   :     00000000 
0                    -> 0                   :     00000000 
0                    -> 0                   :     00000000 
0                    -> 0                   :     00000000 
0                    -> 0                   :     00000000 
0                    -> 0                   :     00000000 
0                    -> 0                   :     00000000 
0                    -> 0                   :     00000000 
0                    -> 0                   :     00000000 
 ----------------------- layer5_n15 ----------------------- 
0.013917326927185059 -> 1.7814178466796875  :     00000001 
-0.4333278238773346  -> -55.46596145629883  :     11001001 
0.7622166275978088   -> 97.56372833251953   :     01100001 
0.018223430961370468 -> 2.33259916305542    :     00000010 
-0.2014507           -> -25.785690307617188 :     11100111 

 ===================== NEURON LEVEL l ===================== 
 ----------------------- layer4_model ----------------------- 
0                    -> 0                   :     00000000 
0                    -> 0                   :     00000000 
0                    -> 0                   :     00000000 
0                    -> 0                   :     00000000 
 ----------------------- layer3_model ----------------------- 
0                    -> 0                   :     00000000 
0                    -> 0                   :     00000000 
0                    -> 0                   :     00000000 
 ----------------------- layer2_model ----------------------- 
0                    -> 0                   :     00000000 
0                    -> 0                   :     00000000 
0                    -> 0                   :     00000000 
0                    -> 0                   :     00000000 
 ----------------------- layer1_model ----------------------- 
0                    -> 0                   :     00000000 
0                    -> 0                   :     00000000 
0                    -> 0                   :     00000000 
0                    -> 0                   :     00000000 
0                    -> 0                   :     00000000 
 ----------------------- layer0_model ----------------------- 
0                    -> 0                   :     00000000 
0                    -> 0                   :     00000000 
0                    -> 0                   :     00000000 
0                    -> 0                   :     00000000 
0                    -> 0                   :     00000000 
0                    -> 0                   :     00000000 
0                    -> 0                   :     00000000 
0                    -> 0                   :     00000000 
0                    -> 0                   :     00000000 
0                    -> 0                   :     00000000 
0                    -> 0                   :     00000000 
0                    -> 0                   :     00000000 
0                    -> 0                   :     00000000 
0                    -> 0                   :     00000000 
0                    -> 0                   :     00000000 
0                    -> 0                   :     00000000 
0                    -> 0                   :     00000000 
0                    -> 0                   :     00000000 
0                    -> 0                   :     00000000 
0                    -> 0                   :     00000000 
0                    -> 0                   :     00000000 
0                    -> 0                   :     00000000 
0                    -> 0                   :     00000000 
0                    -> 0                   :     00000000 
0                    -> 0                   :     00000000 
0                    -> 0                   :     00000000 
0                    -> 0                   :     00000000 
0                    -> 0                   :     00000000 
0                    -> 0                   :     00000000 
0                    -> 0                   :     00000000 
0                    -> 0                   :     00000000 
0                    -> 0                   :     00000000 
0                    -> 0                   :     00000000 
0                    -> 0                   :     00000000 
0                    -> 0                   :     00000000 
0                    -> 0                   :     00000000 
0                    -> 0                   :     00000000 
0                    -> 0                   :     00000000 
0                    -> 0                   :     00000000 
0                    -> 0                   :     00000000 
0                    -> 0                   :     00000000 
0                    -> 0                   :     00000000 
0                    -> 0                   :     00000000 
0                    -> 0                   :     00000000 
0                    -> 0                   :     00000000 
0                    -> 0                   :     00000000 
0                    -> 0                   :     00000000 
0                    -> 0                   :     00000000 
0                    -> 0                   :     00000000 
0                    -> 0                   :     00000000 
0                    -> 0                   :     00000000 
0                    -> 0                   :     00000000 
0                    -> 0                   :     00000000 
0                    -> 0                   :     00000000 
0                    -> 0                   :     00000000 
0                    -> 0                   :     00000000 
0                    -> 0                   :     00000000 
0                    -> 0                   :     00000000 
0                    -> 0                   :     00000000 
0                    -> 0                   :     00000000 
0                    -> 0                   :     00000000 
0                    -> 0                   :     00000000 
0                    -> 0                   :     00000000 
0                    -> 0                   :     00000000 
0                    -> 0                   :     00000000 
 ----------------------- layer5_n16 ----------------------- 
-0.3230036497116089  -> -41.34446716308594  :     11010111 
0.2614166736602783   -> 33.461334228515625  :     00100001 
-0.033674899488687515 -> -4.310387134552002  :     11111100 
-0.3733132481575012  -> -47.784095764160156 :     11010001 
-0.07252881          -> -9.283687591552734  :     11110111 

 ===================== NEURON LEVEL l ===================== 
 ----------------------- layer4_model ----------------------- 
0                    -> 0                   :     00000000 
0                    -> 0                   :     00000000 
0                    -> 0                   :     00000000 
0                    -> 0                   :     00000000 
 ----------------------- layer3_model ----------------------- 
0                    -> 0                   :     00000000 
0                    -> 0                   :     00000000 
0                    -> 0                   :     00000000 
 ----------------------- layer2_model ----------------------- 
0                    -> 0                   :     00000000 
0                    -> 0                   :     00000000 
0                    -> 0                   :     00000000 
0                    -> 0                   :     00000000 
 ----------------------- layer1_model ----------------------- 
0                    -> 0                   :     00000000 
0                    -> 0                   :     00000000 
0                    -> 0                   :     00000000 
0                    -> 0                   :     00000000 
0                    -> 0                   :     00000000 
 ----------------------- layer0_model ----------------------- 
0                    -> 0                   :     00000000 
0                    -> 0                   :     00000000 
0                    -> 0                   :     00000000 
0                    -> 0                   :     00000000 
0                    -> 0                   :     00000000 
0                    -> 0                   :     00000000 
0                    -> 0                   :     00000000 
0                    -> 0                   :     00000000 
0                    -> 0                   :     00000000 
0                    -> 0                   :     00000000 
0                    -> 0                   :     00000000 
0                    -> 0                   :     00000000 
0                    -> 0                   :     00000000 
0                    -> 0                   :     00000000 
0                    -> 0                   :     00000000 
0                    -> 0                   :     00000000 
0                    -> 0                   :     00000000 
0                    -> 0                   :     00000000 
0                    -> 0                   :     00000000 
0                    -> 0                   :     00000000 
0                    -> 0                   :     00000000 
0                    -> 0                   :     00000000 
0                    -> 0                   :     00000000 
0                    -> 0                   :     00000000 
0                    -> 0                   :     00000000 
0                    -> 0                   :     00000000 
0                    -> 0                   :     00000000 
0                    -> 0                   :     00000000 
0                    -> 0                   :     00000000 
0                    -> 0                   :     00000000 
0                    -> 0                   :     00000000 
0                    -> 0                   :     00000000 
0                    -> 0                   :     00000000 
0                    -> 0                   :     00000000 
0                    -> 0                   :     00000000 
0                    -> 0                   :     00000000 
0                    -> 0                   :     00000000 
0                    -> 0                   :     00000000 
0                    -> 0                   :     00000000 
0                    -> 0                   :     00000000 
0                    -> 0                   :     00000000 
0                    -> 0                   :     00000000 
0                    -> 0                   :     00000000 
0                    -> 0                   :     00000000 
0                    -> 0                   :     00000000 
0                    -> 0                   :     00000000 
0                    -> 0                   :     00000000 
0                    -> 0                   :     00000000 
0                    -> 0                   :     00000000 
0                    -> 0                   :     00000000 
0                    -> 0                   :     00000000 
0                    -> 0                   :     00000000 
0                    -> 0                   :     00000000 
0                    -> 0                   :     00000000 
0                    -> 0                   :     00000000 
0                    -> 0                   :     00000000 
0                    -> 0                   :     00000000 
