 ===================== NEURON LEVEL 0 ===================== 
 ----------------------- layer3_n0 ----------------------- 
-20                       -> -2560                    :     11101100 = -20   
-62                       -> -7936                    :     11000010 = -62   
0                         -> 0                        :     00000000 = 0     
1                         -> 128                      :     00000001 = 1     
2                         -> 256                      :     00000010 = 2     
2                         -> 256                      :     00000010 = 2     
-32                       -> -4096                    :     11100000 = -32   
1                         -> 128                      :     00000001 = 1     
1                         -> 128                      :     00000001 = 1     
0                         -> 0                        :     00000000 = 0     
0                         -> 0                        :     00000000 = 0     
1                         -> 128                      :     00000001 = 1     
2                         -> 256                      :     00000010 = 2     
1                         -> 128                      :     00000001 = 1     
1                         -> 128                      :     00000001 = 1     
0.008751305               -> 1.1201670169830322       :     00000000 = 0     
 ----------------------- layer2_n0 ----------------------- 
-109                      -> -13952                   :     10010011 = -109  
-117                      -> -14976                   :     10001011 = -117  
0.0                       -> 0.0                      :     00000000 = 0     
 ----------------------- layer1_n0 ----------------------- 
-156                      -> -19968                   :     10000000 = -128  
-48                       -> -6144                    :     11010000 = -48   
319                       -> 40832                    :     01111111 = 127   
-147                      -> -18816                   :     10000000 = -128  
151                       -> 19328                    :     01111111 = 127   
-140                      -> -17920                   :     10000000 = -128  
-733                      -> -93824                   :     10000000 = -128  
-193                      -> -24704                   :     10000000 = -128  
152                       -> 19456                    :     01111111 = 127   
1320                      -> 168960                   :     01111111 = 127   
-28                       -> -3584                    :     11100100 = -28   
142                       -> 18176                    :     01111111 = 127   
99                        -> 12672                    :     01100011 = 99    
104                       -> 13312                    :     01101000 = 104   
67                        -> 8576                     :     01000011 = 67    
0.58355266                -> 74.69474029541016        :     00000000 = 0     
 ----------------------- layer0_n0 ----------------------- 
24                        -> 3072                     :     00011000 = 24    
-104                      -> -13312                   :     10011000 = -104  
-106                      -> -13568                   :     10010110 = -106  
-49                       -> -6272                    :     11001111 = -49   
-3                        -> -384                     :     11111101 = -3    
-51                       -> -6528                    :     11001101 = -51   
13                        -> 1664                     :     00001101 = 13    
9                         -> 1152                     :     00001001 = 9     
25                        -> 3200                     :     00011001 = 25    
12                        -> 1536                     :     00001100 = 12    
-7                        -> -896                     :     11111001 = -7    
16                        -> 2048                     :     00010000 = 16    
17                        -> 2176                     :     00010001 = 17    
18                        -> 2304                     :     00010010 = 18    
-33                       -> -4224                    :     11011111 = -33   
-49                       -> -6272                    :     11001111 = -49   
22                        -> 2816                     :     00010110 = 22    
21                        -> 2688                     :     00010101 = 21    
16                        -> 2048                     :     00010000 = 16    
2                         -> 256                      :     00000010 = 2     
56                        -> 7168                     :     00111000 = 56    
16                        -> 2048                     :     00010000 = 16    
-9                        -> -1152                    :     11110111 = -9    
-26                       -> -3328                    :     11100110 = -26   
-5                        -> -640                     :     11111011 = -5    
-8                        -> -1024                    :     11111000 = -8    
-4                        -> -512                     :     11111100 = -4    
-56                       -> -7168                    :     11001000 = -56   
39                        -> 4992                     :     00100111 = 39    
-10                       -> -1280                    :     11110110 = -10   
30                        -> 3840                     :     00011110 = 30    
-38                       -> -4864                    :     11011010 = -38   
84                        -> 10752                    :     01010100 = 84    
30                        -> 3840                     :     00011110 = 30    
-4                        -> -512                     :     11111100 = -4    
14                        -> 1792                     :     00001110 = 14    
5                         -> 640                      :     00000101 = 5     
23                        -> 2944                     :     00010111 = 23    
-8                        -> -1024                    :     11111000 = -8    
25                        -> 3200                     :     00011001 = 25    
102                       -> 13056                    :     01100110 = 102   
32                        -> 4096                     :     00100000 = 32    
-48                       -> -6144                    :     11010000 = -48   
-49                       -> -6272                    :     11001111 = -49   
61                        -> 7808                     :     00111101 = 61    
-52                       -> -6656                    :     11001100 = -52   
-27                       -> -3456                    :     11100101 = -27   
-135                      -> -17280                   :     10000000 = -128  
-46                       -> -5888                    :     11010010 = -46   
-150                      -> -19200                   :     10000000 = -128  
-635                      -> -81280                   :     10000000 = -128  
-187                      -> -23936                   :     10000000 = -128  
135                       -> 17280                    :     01111111 = 127   
-102                      -> -13056                   :     10011010 = -102  
-55                       -> -7040                    :     11001001 = -55   
-95                       -> -12160                   :     10100001 = -95   
-573                      -> -73344                   :     10000000 = -128  
-423                      -> -54144                   :     10000000 = -128  
-319                      -> -40832                   :     10000000 = -128  
13                        -> 1664                     :     00001101 = 13    
208                       -> 26624                    :     01111111 = 127   
83                        -> 10624                    :     01010011 = 83    
-22                       -> -2816                    :     11101010 = -22   
35                        -> 4480                     :     00100011 = 35    
0.1956181                 -> 25.03911590576172        :     00000000 = 0     

 ===================== NEURON LEVEL 1 ===================== 
 ----------------------- layer3_n1 ----------------------- 
-11                       -> -1408                    :     11110101 = -11   
-37                       -> -4736                    :     11011011 = -37   
-6                        -> -768                     :     11111010 = -6    
6                         -> 768                      :     00000110 = 6     
11                        -> 1408                     :     00001011 = 11    
-2                        -> -256                     :     11111110 = -2    
-28                       -> -3584                    :     11100100 = -28   
-1                        -> -128                     :     11111111 = -1    
-7                        -> -896                     :     11111001 = -7    
6                         -> 768                      :     00000110 = 6     
5                         -> 640                      :     00000101 = 5     
-1                        -> -128                     :     11111111 = -1    
2                         -> 256                      :     00000010 = 2     
-2                        -> -256                     :     11111110 = -2    
-11                       -> -1408                    :     11110101 = -11   
0.011589719               -> 1.4834840297698975       :     00000000 = 0     
 ----------------------- layer2_n1 ----------------------- 
-105                      -> -13440                   :     10010111 = -105  
-104                      -> -13312                   :     10011000 = -104  
0.0                       -> 0.0                      :     00000000 = 0     
 ----------------------- layer1_n1 ----------------------- 
57                        -> 7296                     :     00111001 = 57    
-104                      -> -13312                   :     10011000 = -104  
-15                       -> -1920                    :     11110001 = -15   
-228                      -> -29184                   :     10000000 = -128  
13                        -> 1664                     :     00001101 = 13    
229                       -> 29312                    :     01111111 = 127   
-122                      -> -15616                   :     10000110 = -122  
-277                      -> -35456                   :     10000000 = -128  
141                       -> 18048                    :     01111111 = 127   
-239                      -> -30592                   :     10000000 = -128  
234                       -> 29952                    :     01111111 = 127   
-32                       -> -4096                    :     11100000 = -32   
157                       -> 20096                    :     01111111 = 127   
-25                       -> -3200                    :     11100111 = -25   
152                       -> 19456                    :     01111111 = 127   
0.5648271                 -> 72.29786682128906        :     00000000 = 0     
 ----------------------- layer0_n1 ----------------------- 
38                        -> 4864                     :     00100110 = 38    
37                        -> 4736                     :     00100101 = 37    
42                        -> 5376                     :     00101010 = 42    
-23                       -> -2944                    :     11101001 = -23   
-36                       -> -4608                    :     11011100 = -36   
-45                       -> -5760                    :     11010011 = -45   
29                        -> 3712                     :     00011101 = 29    
24                        -> 3072                     :     00011000 = 24    
10                        -> 1280                     :     00001010 = 10    
31                        -> 3968                     :     00011111 = 31    
-4                        -> -512                     :     11111100 = -4    
-43                       -> -5504                    :     11010101 = -43   
-77                       -> -9856                    :     10110011 = -77   
-43                       -> -5504                    :     11010101 = -43   
-75                       -> -9600                    :     10110101 = -75   
-51                       -> -6528                    :     11001101 = -51   
7                         -> 896                      :     00000111 = 7     
-12                       -> -1536                    :     11110100 = -12   
-39                       -> -4992                    :     11011001 = -39   
3                         -> 384                      :     00000011 = 3     
-27                       -> -3456                    :     11100101 = -27   
-19                       -> -2432                    :     11101101 = -19   
22                        -> 2816                     :     00010110 = 22    
34                        -> 4352                     :     00100010 = 34    
26                        -> 3328                     :     00011010 = 26    
-50                       -> -6400                    :     11001110 = -50   
-54                       -> -6912                    :     11001010 = -54   
-71                       -> -9088                    :     10111001 = -71   
-15                       -> -1920                    :     11110001 = -15   
-67                       -> -8576                    :     10111101 = -67   
-23                       -> -2944                    :     11101001 = -23   
-24                       -> -3072                    :     11101000 = -24   
-20                       -> -2560                    :     11101100 = -20   
-76                       -> -9728                    :     10110100 = -76   
36                        -> 4608                     :     00100100 = 36    
-63                       -> -8064                    :     11000001 = -63   
11                        -> 1408                     :     00001011 = 11    
8                         -> 1024                     :     00001000 = 8     
-30                       -> -3840                    :     11100010 = -30   
-5                        -> -640                     :     11111011 = -5    
25                        -> 3200                     :     00011001 = 25    
-55                       -> -7040                    :     11001001 = -55   
38                        -> 4864                     :     00100110 = 38    
-24                       -> -3072                    :     11101000 = -24   
-42                       -> -5376                    :     11010110 = -42   
-56                       -> -7168                    :     11001000 = -56   
23                        -> 2944                     :     00010111 = 23    
3                         -> 384                      :     00000011 = 3     
-27                       -> -3456                    :     11100101 = -27   
20                        -> 2560                     :     00010100 = 20    
-57                       -> -7296                    :     11000111 = -57   
-8                        -> -1024                    :     11111000 = -8    
-44                       -> -5632                    :     11010100 = -44   
12                        -> 1536                     :     00001100 = 12    
-71                       -> -9088                    :     10111001 = -71   
-49                       -> -6272                    :     11001111 = -49   
-43                       -> -5504                    :     11010101 = -43   
46                        -> 5888                     :     00101110 = 46    
-26                       -> -3328                    :     11100110 = -26   
-47                       -> -6016                    :     11010001 = -47   
-25                       -> -3200                    :     11100111 = -25   
3                         -> 384                      :     00000011 = 3     
-36                       -> -4608                    :     11011100 = -36   
70                        -> 8960                     :     01000110 = 70    
-0.12518504               -> -16.023685455322266      :     00000000 = 0     

 ===================== NEURON LEVEL l ===================== 
 ----------------------- layer1_model ----------------------- 
0                         -> 0                        :     00000000 = 0     
0                         -> 0                        :     00000000 = 0     
0                         -> 0                        :     00000000 = 0     
0                         -> 0                        :     00000000 = 0     
0                         -> 0                        :     00000000 = 0     
0                         -> 0                        :     00000000 = 0     
0                         -> 0                        :     00000000 = 0     
0                         -> 0                        :     00000000 = 0     
0                         -> 0                        :     00000000 = 0     
0                         -> 0                        :     00000000 = 0     
0                         -> 0                        :     00000000 = 0     
0                         -> 0                        :     00000000 = 0     
0                         -> 0                        :     00000000 = 0     
0                         -> 0                        :     00000000 = 0     
0                         -> 0                        :     00000000 = 0     
0                         -> 0                        :     00000000 = 0     
 ----------------------- layer3_n2 ----------------------- 
-32                       -> -4096                    :     11100000 = -32   
23                        -> 2944                     :     00010111 = 23    
-1                        -> -128                     :     11111111 = -1    
41                        -> 5248                     :     00101001 = 41    
46                        -> 5888                     :     00101110 = 46    
-16                       -> -2048                    :     11110000 = -16   
-66                       -> -8448                    :     10111110 = -66   
8                         -> 1024                     :     00001000 = 8     
-33                       -> -4224                    :     11011111 = -33   
36                        -> 4608                     :     00100100 = 36    
9                         -> 1152                     :     00001001 = 9     
5                         -> 640                      :     00000101 = 5     
-1                        -> -128                     :     11111111 = -1    
-11                       -> -1408                    :     11110101 = -11   
-63                       -> -8064                    :     11000001 = -63   
0.050846793               -> 6.508389472961426        :     00000000 = 0     
 ----------------------- layer2_n2 ----------------------- 
-142                      -> -18176                   :     10000000 = -128  
153                       -> 19584                    :     01111111 = 127   
-0.7395666                -> -94.6645278930664        :     00000000 = 0     
 ----------------------- layer0_n2 ----------------------- 
-4                        -> -512                     :     11111100 = -4    
3                         -> 384                      :     00000011 = 3     
-50                       -> -6400                    :     11001110 = -50   
-46                       -> -5888                    :     11010010 = -46   
7                         -> 896                      :     00000111 = 7     
51                        -> 6528                     :     00110011 = 51    
42                        -> 5376                     :     00101010 = 42    
-12                       -> -1536                    :     11110100 = -12   
-56                       -> -7168                    :     11001000 = -56   
-22                       -> -2816                    :     11101010 = -22   
-12                       -> -1536                    :     11110100 = -12   
60                        -> 7680                     :     00111100 = 60    
99                        -> 12672                    :     01100011 = 99    
90                        -> 11520                    :     01011010 = 90    
83                        -> 10624                    :     01010011 = 83    
-8                        -> -1024                    :     11111000 = -8    
-104                      -> -13312                   :     10011000 = -104  
-48                       -> -6144                    :     11010000 = -48   
-49                       -> -6272                    :     11001111 = -49   
-25                       -> -3200                    :     11100111 = -25   
-43                       -> -5504                    :     11010101 = -43   
-50                       -> -6400                    :     11001110 = -50   
-10                       -> -1280                    :     11110110 = -10   
23                        -> 2944                     :     00010111 = 23    
-70                       -> -8960                    :     10111010 = -70   
-64                       -> -8192                    :     11000000 = -64   
14                        -> 1792                     :     00001110 = 14    
60                        -> 7680                     :     00111100 = 60    
-30                       -> -3840                    :     11100010 = -30   
-70                       -> -8960                    :     10111010 = -70   
-28                       -> -3584                    :     11100100 = -28   
88                        -> 11264                    :     01011000 = 88    
15                        -> 1920                     :     00001111 = 15    
8                         -> 1024                     :     00001000 = 8     
-54                       -> -6912                    :     11001010 = -54   
-3                        -> -384                     :     11111101 = -3    
-115                      -> -14720                   :     10001101 = -115  
-130                      -> -16640                   :     10000000 = -128  
9                         -> 1152                     :     00001001 = 9     
111                       -> 14208                    :     01101111 = 111   
43                        -> 5504                     :     00101011 = 43    
148                       -> 18944                    :     01111111 = 127   
-17                       -> -2176                    :     11101111 = -17   
-76                       -> -9728                    :     10110100 = -76   
-152                      -> -19456                   :     10000000 = -128  
55                        -> 7040                     :     00110111 = 55    
65                        -> 8320                     :     01000001 = 65    
-10                       -> -1280                    :     11110110 = -10   
103                       -> 13184                    :     01100111 = 103   
263                       -> 33664                    :     01111111 = 127   
244                       -> 31232                    :     01111111 = 127   
-63                       -> -8064                    :     11000001 = -63   
43                        -> 5504                     :     00101011 = 43    
98                        -> 12544                    :     01100010 = 98    
60                        -> 7680                     :     00111100 = 60    
30                        -> 3840                     :     00011110 = 30    
81                        -> 10368                    :     01010001 = 81    
162                       -> 20736                    :     01111111 = 127   
196                       -> 25088                    :     01111111 = 127   
168                       -> 21504                    :     01111111 = 127   
120                       -> 15360                    :     01111000 = 120   
131                       -> 16768                    :     01111111 = 127   
4                         -> 512                      :     00000100 = 4     
12                        -> 1536                     :     00001100 = 12    
-0.54841936               -> -70.19767761230469       :     00000000 = 0     

 ===================== NEURON LEVEL l ===================== 
 ----------------------- layer1_model ----------------------- 
0                         -> 0                        :     00000000 = 0     
0                         -> 0                        :     00000000 = 0     
0                         -> 0                        :     00000000 = 0     
0                         -> 0                        :     00000000 = 0     
0                         -> 0                        :     00000000 = 0     
0                         -> 0                        :     00000000 = 0     
0                         -> 0                        :     00000000 = 0     
0                         -> 0                        :     00000000 = 0     
0                         -> 0                        :     00000000 = 0     
0                         -> 0                        :     00000000 = 0     
0                         -> 0                        :     00000000 = 0     
0                         -> 0                        :     00000000 = 0     
0                         -> 0                        :     00000000 = 0     
0                         -> 0                        :     00000000 = 0     
0                         -> 0                        :     00000000 = 0     
0                         -> 0                        :     00000000 = 0     
 ----------------------- layer3_n3 ----------------------- 
-41                       -> -5248                    :     11010111 = -41   
-54                       -> -6912                    :     11001010 = -54   
17                        -> 2176                     :     00010001 = 17    
135                       -> 17280                    :     01111111 = 127   
99                        -> 12672                    :     01100011 = 99    
-34                       -> -4352                    :     11011110 = -34   
30                        -> 3840                     :     00011110 = 30    
20                        -> 2560                     :     00010100 = 20    
-75                       -> -9600                    :     10110101 = -75   
68                        -> 8704                     :     01000100 = 68    
-41                       -> -5248                    :     11010111 = -41   
2                         -> 256                      :     00000010 = 2     
-19                       -> -2432                    :     11101101 = -19   
-37                       -> -4736                    :     11011011 = -37   
-141                      -> -18048                   :     10000000 = -128  
0.15497074                -> 19.836254119873047       :     00000000 = 0     
 ----------------------- layer2_n3 ----------------------- 
-298                      -> -38144                   :     10000000 = -128  
168                       -> 21504                    :     01111111 = 127   
0.21452819                -> 27.45960807800293        :     00000000 = 0     
 ----------------------- layer0_n3 ----------------------- 
50                        -> 6400                     :     00110010 = 50    
7                         -> 896                      :     00000111 = 7     
-58                       -> -7424                    :     11000110 = -58   
-19                       -> -2432                    :     11101101 = -19   
48                        -> 6144                     :     00110000 = 48    
76                        -> 9728                     :     01001100 = 76    
30                        -> 3840                     :     00011110 = 30    
-6                        -> -768                     :     11111010 = -6    
21                        -> 2688                     :     00010101 = 21    
29                        -> 3712                     :     00011101 = 29    
22                        -> 2816                     :     00010110 = 22    
1                         -> 128                      :     00000001 = 1     
67                        -> 8576                     :     01000011 = 67    
84                        -> 10752                    :     01010100 = 84    
117                       -> 14976                    :     01110101 = 117   
14                        -> 1792                     :     00001110 = 14    
-20                       -> -2560                    :     11101100 = -20   
-6                        -> -768                     :     11111010 = -6    
-100                      -> -12800                   :     10011100 = -100  
-101                      -> -12928                   :     10011011 = -101  
-3                        -> -384                     :     11111101 = -3    
-23                       -> -2944                    :     11101001 = -23   
-50                       -> -6400                    :     11001110 = -50   
-12                       -> -1536                    :     11110100 = -12   
-45                       -> -5760                    :     11010011 = -45   
-81                       -> -10368                   :     10101111 = -81   
3                         -> 384                      :     00000011 = 3     
44                        -> 5632                     :     00101100 = 44    
96                        -> 12288                    :     01100000 = 96    
-59                       -> -7552                    :     11000101 = -59   
-63                       -> -8064                    :     11000001 = -63   
-17                       -> -2176                    :     11101111 = -17   
-41                       -> -5248                    :     11010111 = -41   
-86                       -> -11008                   :     10101010 = -86   
-56                       -> -7168                    :     11001000 = -56   
56                        -> 7168                     :     00111000 = 56    
-20                       -> -2560                    :     11101100 = -20   
-104                      -> -13312                   :     10011000 = -104  
-28                       -> -3584                    :     11100100 = -28   
17                        -> 2176                     :     00010001 = 17    
77                        -> 9856                     :     01001101 = 77    
48                        -> 6144                     :     00110000 = 48    
-10                       -> -1280                    :     11110110 = -10   
43                        -> 5504                     :     00101011 = 43    
-208                      -> -26624                   :     10000000 = -128  
-5                        -> -640                     :     11111011 = -5    
31                        -> 3968                     :     00011111 = 31    
0                         -> 0                        :     00000000 = 0     
152                       -> 19456                    :     01111111 = 127   
149                       -> 19072                    :     01111111 = 127   
148                       -> 18944                    :     01111111 = 127   
22                        -> 2816                     :     00010110 = 22    
-19                       -> -2432                    :     11101101 = -19   
44                        -> 5632                     :     00101100 = 44    
72                        -> 9216                     :     01001000 = 72    
17                        -> 2176                     :     00010001 = 17    
93                        -> 11904                    :     01011101 = 93    
180                       -> 23040                    :     01111111 = 127   
256                       -> 32768                    :     01111111 = 127   
380                       -> 48640                    :     01111111 = 127   
248                       -> 31744                    :     01111111 = 127   
130                       -> 16640                    :     01111111 = 127   
50                        -> 6400                     :     00110010 = 50    
-24                       -> -3072                    :     11101000 = -24   
-0.3576894                -> -45.784244537353516      :     00000000 = 0     

 ===================== NEURON LEVEL l ===================== 
 ----------------------- layer1_model ----------------------- 
0                         -> 0                        :     00000000 = 0     
0                         -> 0                        :     00000000 = 0     
0                         -> 0                        :     00000000 = 0     
0                         -> 0                        :     00000000 = 0     
0                         -> 0                        :     00000000 = 0     
0                         -> 0                        :     00000000 = 0     
0                         -> 0                        :     00000000 = 0     
0                         -> 0                        :     00000000 = 0     
0                         -> 0                        :     00000000 = 0     
0                         -> 0                        :     00000000 = 0     
0                         -> 0                        :     00000000 = 0     
0                         -> 0                        :     00000000 = 0     
0                         -> 0                        :     00000000 = 0     
0                         -> 0                        :     00000000 = 0     
0                         -> 0                        :     00000000 = 0     
0                         -> 0                        :     00000000 = 0     
 ----------------------- layer3_n4 ----------------------- 
-55                       -> -7040                    :     11001001 = -55   
69                        -> 8832                     :     01000101 = 69    
11                        -> 1408                     :     00001011 = 11    
195                       -> 24960                    :     01111111 = 127   
118                       -> 15104                    :     01110110 = 118   
103                       -> 13184                    :     01100111 = 103   
50                        -> 6400                     :     00110010 = 50    
-77                       -> -9856                    :     10110011 = -77   
-63                       -> -8064                    :     11000001 = -63   
-85                       -> -10880                   :     10101011 = -85   
45                        -> 5760                     :     00101101 = 45    
-15                       -> -1920                    :     11110001 = -15   
51                        -> 6528                     :     00110011 = 51    
-53                       -> -6784                    :     11001011 = -53   
-244                      -> -31232                   :     10000000 = -128  
0.3355557                 -> 42.95112991333008        :     00000000 = 0     
 ----------------------- layer2_n4 ----------------------- 
-175                      -> -22400                   :     10000000 = -128  
175                       -> 22400                    :     01111111 = 127   
-0.062732816              -> -8.029800415039062       :     00000000 = 0     
 ----------------------- layer0_n4 ----------------------- 
-28                       -> -3584                    :     11100100 = -28   
6                         -> 768                      :     00000110 = 6     
60                        -> 7680                     :     00111100 = 60    
77                        -> 9856                     :     01001101 = 77    
23                        -> 2944                     :     00010111 = 23    
62                        -> 7936                     :     00111110 = 62    
-7                        -> -896                     :     11111001 = -7    
-32                       -> -4096                    :     11100000 = -32   
-55                       -> -7040                    :     11001001 = -55   
-10                       -> -1280                    :     11110110 = -10   
17                        -> 2176                     :     00010001 = 17    
-6                        -> -768                     :     11111010 = -6    
-28                       -> -3584                    :     11100100 = -28   
-30                       -> -3840                    :     11100010 = -30   
14                        -> 1792                     :     00001110 = 14    
149                       -> 19072                    :     01111111 = 127   
-17                       -> -2176                    :     11101111 = -17   
-32                       -> -4096                    :     11100000 = -32   
1                         -> 128                      :     00000001 = 1     
-17                       -> -2176                    :     11101111 = -17   
-105                      -> -13440                   :     10010111 = -105  
-32                       -> -4096                    :     11100000 = -32   
-36                       -> -4608                    :     11011100 = -36   
50                        -> 6400                     :     00110010 = 50    
5                         -> 640                      :     00000101 = 5     
-1                        -> -128                     :     11111111 = -1    
19                        -> 2432                     :     00010011 = 19    
79                        -> 10112                    :     01001111 = 79    
-68                       -> -8704                    :     10111100 = -68   
4                         -> 512                      :     00000100 = 4     
-59                       -> -7552                    :     11000101 = -59   
49                        -> 6272                     :     00110001 = 49    
-108                      -> -13824                   :     10010100 = -108  
-55                       -> -7040                    :     11001001 = -55   
61                        -> 7808                     :     00111101 = 61    
-8                        -> -1024                    :     11111000 = -8    
-41                       -> -5248                    :     11010111 = -41   
6                         -> 768                      :     00000110 = 6     
41                        -> 5248                     :     00101001 = 41    
-28                       -> -3584                    :     11100100 = -28   
43                        -> 5504                     :     00101011 = 43    
-13                       -> -1664                    :     11110011 = -13   
128                       -> 16384                    :     01111111 = 127   
54                        -> 6912                     :     00110110 = 54    
-134                      -> -17152                   :     10000000 = -128  
151                       -> 19328                    :     01111111 = 127   
96                        -> 12288                    :     01100000 = 96    
97                        -> 12416                    :     01100001 = 97    
44                        -> 5632                     :     00101100 = 44    
-6                        -> -768                     :     11111010 = -6    
31                        -> 3968                     :     00011111 = 31    
191                       -> 24448                    :     01111111 = 127   
-76                       -> -9728                    :     10110100 = -76   
178                       -> 22784                    :     01111111 = 127   
10                        -> 1280                     :     00001010 = 10    
-29                       -> -3712                    :     11100011 = -29   
-11                       -> -1408                    :     11110101 = -11   
22                        -> 2816                     :     00010110 = 22    
273                       -> 34944                    :     01111111 = 127   
-102                      -> -13056                   :     10011010 = -102  
-208                      -> -26624                   :     10000000 = -128  
-47                       -> -6016                    :     11010001 = -47   
63                        -> 8064                     :     00111111 = 63    
-51                       -> -6528                    :     11001101 = -51   
0.58522093                -> 74.90827941894531        :     00000000 = 0     

 ===================== NEURON LEVEL l ===================== 
 ----------------------- layer1_model ----------------------- 
0                         -> 0                        :     00000000 = 0     
0                         -> 0                        :     00000000 = 0     
0                         -> 0                        :     00000000 = 0     
0                         -> 0                        :     00000000 = 0     
0                         -> 0                        :     00000000 = 0     
0                         -> 0                        :     00000000 = 0     
0                         -> 0                        :     00000000 = 0     
0                         -> 0                        :     00000000 = 0     
0                         -> 0                        :     00000000 = 0     
0                         -> 0                        :     00000000 = 0     
0                         -> 0                        :     00000000 = 0     
0                         -> 0                        :     00000000 = 0     
0                         -> 0                        :     00000000 = 0     
0                         -> 0                        :     00000000 = 0     
0                         -> 0                        :     00000000 = 0     
0                         -> 0                        :     00000000 = 0     
 ----------------------- layer3_n5 ----------------------- 
52                        -> 6656                     :     00110100 = 52    
68                        -> 8704                     :     01000100 = 68    
-130                      -> -16640                   :     10000000 = -128  
76                        -> 9728                     :     01001100 = 76    
75                        -> 9600                     :     01001011 = 75    
34                        -> 4352                     :     00100010 = 34    
27                        -> 3456                     :     00011011 = 27    
-7                        -> -896                     :     11111001 = -7    
10                        -> 1280                     :     00001010 = 10    
-97                       -> -12416                   :     10011111 = -97   
226                       -> 28928                    :     01111111 = 127   
19                        -> 2432                     :     00010011 = 19    
-5                        -> -640                     :     11111011 = -5    
-33                       -> -4224                    :     11011111 = -33   
-195                      -> -24960                   :     10000000 = -128  
0.086682856               -> 11.095405578613281       :     00000000 = 0     
 ----------------------- layer2_n5 ----------------------- 
18                        -> 2304                     :     00010010 = 18    
86                        -> 11008                    :     01010110 = 86    
-1.0931677                -> -139.9254608154297       :     11111111 = -1    
 ----------------------- layer0_n5 ----------------------- 
-15                       -> -1920                    :     11110001 = -15   
-6                        -> -768                     :     11111010 = -6    
56                        -> 7168                     :     00111000 = 56    
50                        -> 6400                     :     00110010 = 50    
-29                       -> -3712                    :     11100011 = -29   
-76                       -> -9728                    :     10110100 = -76   
-52                       -> -6656                    :     11001100 = -52   
11                        -> 1408                     :     00001011 = 11    
50                        -> 6400                     :     00110010 = 50    
23                        -> 2944                     :     00010111 = 23    
10                        -> 1280                     :     00001010 = 10    
-54                       -> -6912                    :     11001010 = -54   
-90                       -> -11520                   :     10100110 = -90   
-82                       -> -10496                   :     10101110 = -82   
-62                       -> -7936                    :     11000010 = -62   
10                        -> 1280                     :     00001010 = 10    
97                        -> 12416                    :     01100001 = 97    
55                        -> 7040                     :     00110111 = 55    
78                        -> 9984                     :     01001110 = 78    
60                        -> 7680                     :     00111100 = 60    
50                        -> 6400                     :     00110010 = 50    
58                        -> 7424                     :     00111010 = 58    
57                        -> 7296                     :     00111001 = 57    
-19                       -> -2432                    :     11101101 = -19   
88                        -> 11264                    :     01011000 = 88    
129                       -> 16512                    :     01111111 = 127   
8                         -> 1024                     :     00001000 = 8     
-75                       -> -9600                    :     10110101 = -75   
8                         -> 1024                     :     00001000 = 8     
80                        -> 10240                    :     01010000 = 80    
58                        -> 7424                     :     00111010 = 58    
-39                       -> -4992                    :     11011001 = -39   
9                         -> 1152                     :     00001001 = 9     
38                        -> 4864                     :     00100110 = 38    
54                        -> 6912                     :     00110110 = 54    
-17                       -> -2176                    :     11101111 = -17   
112                       -> 14336                    :     01110000 = 112   
142                       -> 18176                    :     01111111 = 127   
2                         -> 256                      :     00000010 = 2     
-107                      -> -13696                   :     10010101 = -107  
-81                       -> -10368                   :     10101111 = -81   
-156                      -> -19968                   :     10000000 = -128  
-4                        -> -512                     :     11111100 = -4    
43                        -> 5504                     :     00101011 = 43    
188                       -> 24064                    :     01111111 = 127   
-51                       -> -6528                    :     11001101 = -51   
-80                       -> -10240                   :     10110000 = -80   
2                         -> 256                      :     00000010 = 2     
-228                      -> -29184                   :     10000000 = -128  
-297                      -> -38016                   :     10000000 = -128  
-296                      -> -37888                   :     10000000 = -128  
51                        -> 6528                     :     00110011 = 51    
-37                       -> -4736                    :     11011011 = -37   
-109                      -> -13952                   :     10010011 = -109  
-75                       -> -9600                    :     10110101 = -75   
-28                       -> -3584                    :     11100100 = -28   
-91                       -> -11648                   :     10100101 = -91   
-171                      -> -21888                   :     10000000 = -128  
-177                      -> -22656                   :     10000000 = -128  
-119                      -> -15232                   :     10001001 = -119  
-119                      -> -15232                   :     10001001 = -119  
-156                      -> -19968                   :     10000000 = -128  
-17                       -> -2176                    :     11101111 = -17   
-10                       -> -1280                    :     11110110 = -10   
0.8190947                 -> 104.84412384033203       :     00000000 = 0     

 ===================== NEURON LEVEL l ===================== 
 ----------------------- layer1_model ----------------------- 
0                         -> 0                        :     00000000 = 0     
0                         -> 0                        :     00000000 = 0     
0                         -> 0                        :     00000000 = 0     
0                         -> 0                        :     00000000 = 0     
0                         -> 0                        :     00000000 = 0     
0                         -> 0                        :     00000000 = 0     
0                         -> 0                        :     00000000 = 0     
0                         -> 0                        :     00000000 = 0     
0                         -> 0                        :     00000000 = 0     
0                         -> 0                        :     00000000 = 0     
0                         -> 0                        :     00000000 = 0     
0                         -> 0                        :     00000000 = 0     
0                         -> 0                        :     00000000 = 0     
0                         -> 0                        :     00000000 = 0     
0                         -> 0                        :     00000000 = 0     
0                         -> 0                        :     00000000 = 0     
 ----------------------- layer3_n6 ----------------------- 
-65                       -> -8320                    :     10111111 = -65   
-47                       -> -6016                    :     11010001 = -47   
-94                       -> -12032                   :     10100010 = -94   
11                        -> 1408                     :     00001011 = 11    
24                        -> 3072                     :     00011000 = 24    
-2                        -> -256                     :     11111110 = -2    
-6                        -> -768                     :     11111010 = -6    
10                        -> 1280                     :     00001010 = 10    
20                        -> 2560                     :     00010100 = 20    
-7                        -> -896                     :     11111001 = -7    
102                       -> 13056                    :     01100110 = 102   
-7                        -> -896                     :     11111001 = -7    
-10                       -> -1280                    :     11110110 = -10   
-13                       -> -1664                    :     11110011 = -13   
-43                       -> -5504                    :     11010101 = -43   
0.0063803736              -> 0.816687822341919        :     00000000 = 0     
 ----------------------- layer2_n6 ----------------------- 
-115                      -> -14720                   :     10001101 = -115  
-125                      -> -16000                   :     10000011 = -125  
0.0                       -> 0.0                      :     00000000 = 0     
 ----------------------- layer0_n6 ----------------------- 
254                       -> 32512                    :     01111111 = 127   
80                        -> 10240                    :     01010000 = 80    
5                         -> 640                      :     00000101 = 5     
-149                      -> -19072                   :     10000000 = -128  
-63                       -> -8064                    :     11000001 = -63   
27                        -> 3456                     :     00011011 = 27    
6                         -> 768                      :     00000110 = 6     
39                        -> 4992                     :     00100111 = 39    
12                        -> 1536                     :     00001100 = 12    
-7                        -> -896                     :     11111001 = -7    
10                        -> 1280                     :     00001010 = 10    
-1                        -> -128                     :     11111111 = -1    
3                         -> 384                      :     00000011 = 3     
-3                        -> -384                     :     11111101 = -3    
8                         -> 1024                     :     00001000 = 8     
11                        -> 1408                     :     00001011 = 11    
-5                        -> -640                     :     11111011 = -5    
11                        -> 1408                     :     00001011 = 11    
-14                       -> -1792                    :     11110010 = -14   
-30                       -> -3840                    :     11100010 = -30   
-19                       -> -2432                    :     11101101 = -19   
-22                       -> -2816                    :     11101010 = -22   
-19                       -> -2432                    :     11101101 = -19   
20                        -> 2560                     :     00010100 = 20    
4                         -> 512                      :     00000100 = 4     
17                        -> 2176                     :     00010001 = 17    
-2                        -> -256                     :     11111110 = -2    
10                        -> 1280                     :     00001010 = 10    
-25                       -> -3200                    :     11100111 = -25   
-3                        -> -384                     :     11111101 = -3    
-5                        -> -640                     :     11111011 = -5    
9                         -> 1152                     :     00001001 = 9     
-24                       -> -3072                    :     11101000 = -24   
-1                        -> -128                     :     11111111 = -1    
18                        -> 2304                     :     00010010 = 18    
-6                        -> -768                     :     11111010 = -6    
-23                       -> -2944                    :     11101001 = -23   
-4                        -> -512                     :     11111100 = -4    
14                        -> 1792                     :     00001110 = 14    
17                        -> 2176                     :     00010001 = 17    
-2                        -> -256                     :     11111110 = -2    
22                        -> 2816                     :     00010110 = 22    
61                        -> 7808                     :     00111101 = 61    
-16                       -> -2048                    :     11110000 = -16   
-57                       -> -7296                    :     11000111 = -57   
40                        -> 5120                     :     00101000 = 40    
31                        -> 3968                     :     00011111 = 31    
-363                      -> -46464                   :     10000000 = -128  
-181                      -> -23168                   :     10000000 = -128  
-611                      -> -78208                   :     10000000 = -128  
-845                      -> -108160                  :     10000000 = -128  
-746                      -> -95488                   :     10000000 = -128  
-106                      -> -13568                   :     10010110 = -106  
61                        -> 7808                     :     00111101 = 61    
9                         -> 1152                     :     00001001 = 9     
5                         -> 640                      :     00000101 = 5     
-370                      -> -47360                   :     10000000 = -128  
-321                      -> -41088                   :     10000000 = -128  
-507                      -> -64896                   :     10000000 = -128  
-377                      -> -48256                   :     10000000 = -128  
-63                       -> -8064                    :     11000001 = -63   
42                        -> 5376                     :     00101010 = 42    
53                        -> 6784                     :     00110101 = 53    
19                        -> 2432                     :     00010011 = 19    
0.8315774                 -> 106.44190979003906       :     00000000 = 0     

 ===================== NEURON LEVEL l ===================== 
 ----------------------- layer1_model ----------------------- 
0                         -> 0                        :     00000000 = 0     
0                         -> 0                        :     00000000 = 0     
0                         -> 0                        :     00000000 = 0     
0                         -> 0                        :     00000000 = 0     
0                         -> 0                        :     00000000 = 0     
0                         -> 0                        :     00000000 = 0     
0                         -> 0                        :     00000000 = 0     
0                         -> 0                        :     00000000 = 0     
0                         -> 0                        :     00000000 = 0     
0                         -> 0                        :     00000000 = 0     
0                         -> 0                        :     00000000 = 0     
0                         -> 0                        :     00000000 = 0     
0                         -> 0                        :     00000000 = 0     
0                         -> 0                        :     00000000 = 0     
0                         -> 0                        :     00000000 = 0     
0                         -> 0                        :     00000000 = 0     
 ----------------------- layer3_n7 ----------------------- 
-37                       -> -4736                    :     11011011 = -37   
-51                       -> -6528                    :     11001101 = -51   
-15                       -> -1920                    :     11110001 = -15   
-2                        -> -256                     :     11111110 = -2    
-2                        -> -256                     :     11111110 = -2    
4                         -> 512                      :     00000100 = 4     
-22                       -> -2816                    :     11101010 = -22   
-2                        -> -256                     :     11111110 = -2    
10                        -> 1280                     :     00001010 = 10    
4                         -> 512                      :     00000100 = 4     
8                         -> 1024                     :     00001000 = 8     
-10                       -> -1280                    :     11110110 = -10   
2                         -> 256                      :     00000010 = 2     
3                         -> 384                      :     00000011 = 3     
4                         -> 512                      :     00000100 = 4     
0.021851879               -> 2.7970404624938965       :     00000000 = 0     
 ----------------------- layer2_n7 ----------------------- 
36                        -> 4608                     :     00100100 = 36    
62                        -> 7936                     :     00111110 = 62    
-0.16628937               -> -21.2850399017334        :     00000000 = 0     
 ----------------------- layer0_n7 ----------------------- 
28                        -> 3584                     :     00011100 = 28    
-108                      -> -13824                   :     10010100 = -108  
11                        -> 1408                     :     00001011 = 11    
-1                        -> -128                     :     11111111 = -1    
45                        -> 5760                     :     00101101 = 45    
-66                       -> -8448                    :     10111110 = -66   
-36                       -> -4608                    :     11011100 = -36   
68                        -> 8704                     :     01000100 = 68    
97                        -> 12416                    :     01100001 = 97    
28                        -> 3584                     :     00011100 = 28    
-5                        -> -640                     :     11111011 = -5    
-18                       -> -2304                    :     11101110 = -18   
56                        -> 7168                     :     00111000 = 56    
-70                       -> -8960                    :     10111010 = -70   
-22                       -> -2816                    :     11101010 = -22   
-167                      -> -21376                   :     10000000 = -128  
23                        -> 2944                     :     00010111 = 23    
8                         -> 1024                     :     00001000 = 8     
-45                       -> -5760                    :     11010011 = -45   
-74                       -> -9472                    :     10110110 = -74   
132                       -> 16896                    :     01111111 = 127   
-117                      -> -14976                   :     10001011 = -117  
-41                       -> -5248                    :     11010111 = -41   
23                        -> 2944                     :     00010111 = 23    
68                        -> 8704                     :     01000100 = 68    
42                        -> 5376                     :     00101010 = 42    
-49                       -> -6272                    :     11001111 = -49   
-53                       -> -6784                    :     11001011 = -53   
118                       -> 15104                    :     01110110 = 118   
-143                      -> -18304                   :     10000000 = -128  
-123                      -> -15744                   :     10000101 = -123  
-91                       -> -11648                   :     10100101 = -91   
4                         -> 512                      :     00000100 = 4     
10                        -> 1280                     :     00001010 = 10    
-69                       -> -8832                    :     10111011 = -69   
-58                       -> -7424                    :     11000110 = -58   
53                        -> 6784                     :     00110101 = 53    
-108                      -> -13824                   :     10010100 = -108  
-68                       -> -8704                    :     10111100 = -68   
27                        -> 3456                     :     00011011 = 27    
-16                       -> -2048                    :     11110000 = -16   
69                        -> 8832                     :     01000101 = 69    
-90                       -> -11520                   :     10100110 = -90   
11                        -> 1408                     :     00001011 = 11    
66                        -> 8448                     :     01000010 = 66    
-187                      -> -23936                   :     10000000 = -128  
-51                       -> -6528                    :     11001101 = -51   
-114                      -> -14592                   :     10001110 = -114  
-25                       -> -3200                    :     11100111 = -25   
-470                      -> -60160                   :     10000000 = -128  
-370                      -> -47360                   :     10000000 = -128  
-10                       -> -1280                    :     11110110 = -10   
16                        -> 2048                     :     00010000 = 16    
-121                      -> -15488                   :     10000111 = -121  
-80                       -> -10240                   :     10110000 = -80   
-21                       -> -2688                    :     11101011 = -21   
-288                      -> -36864                   :     10000000 = -128  
-232                      -> -29696                   :     10000000 = -128  
-143                      -> -18304                   :     10000000 = -128  
-33                       -> -4224                    :     11011111 = -33   
55                        -> 7040                     :     00110111 = 55    
22                        -> 2816                     :     00010110 = 22    
-14                       -> -1792                    :     11110010 = -14   
75                        -> 9600                     :     01001011 = 75    
1.4684597                 -> 187.9628448486328        :     00000001 = 1     

 ===================== NEURON LEVEL l ===================== 
 ----------------------- layer1_model ----------------------- 
0                         -> 0                        :     00000000 = 0     
0                         -> 0                        :     00000000 = 0     
0                         -> 0                        :     00000000 = 0     
0                         -> 0                        :     00000000 = 0     
0                         -> 0                        :     00000000 = 0     
0                         -> 0                        :     00000000 = 0     
0                         -> 0                        :     00000000 = 0     
0                         -> 0                        :     00000000 = 0     
0                         -> 0                        :     00000000 = 0     
0                         -> 0                        :     00000000 = 0     
0                         -> 0                        :     00000000 = 0     
0                         -> 0                        :     00000000 = 0     
0                         -> 0                        :     00000000 = 0     
0                         -> 0                        :     00000000 = 0     
0                         -> 0                        :     00000000 = 0     
0                         -> 0                        :     00000000 = 0     
 ----------------------- layer3_n8 ----------------------- 
52                        -> 6656                     :     00110100 = 52    
30                        -> 3840                     :     00011110 = 30    
0                         -> 0                        :     00000000 = 0     
2                         -> 256                      :     00000010 = 2     
2                         -> 256                      :     00000010 = 2     
1                         -> 128                      :     00000001 = 1     
-68                       -> -8704                    :     10111100 = -68   
-2                        -> -256                     :     11111110 = -2    
8                         -> 1024                     :     00001000 = 8     
-2                        -> -256                     :     11111110 = -2    
2                         -> 256                      :     00000010 = 2     
-8                        -> -1024                    :     11111000 = -8    
16                        -> 2048                     :     00010000 = 16    
-1                        -> -128                     :     11111111 = -1    
2                         -> 256                      :     00000010 = 2     
-0.030938458              -> -3.960122585296631       :     00000000 = 0     
 ----------------------- layer2_n8 ----------------------- 
-89                       -> -11392                   :     10100111 = -89   
76                        -> 9728                     :     01001100 = 76    
0.5975948                 -> 76.49213409423828        :     00000000 = 0     
 ----------------------- layer0_n8 ----------------------- 
21                        -> 2688                     :     00010101 = 21    
-9                        -> -1152                    :     11110111 = -9    
-40                       -> -5120                    :     11011000 = -40   
-67                       -> -8576                    :     10111101 = -67   
-37                       -> -4736                    :     11011011 = -37   
-63                       -> -8064                    :     11000001 = -63   
-62                       -> -7936                    :     11000010 = -62   
-6                        -> -768                     :     11111010 = -6    
69                        -> 8832                     :     01000101 = 69    
22                        -> 2816                     :     00010110 = 22    
-37                       -> -4736                    :     11011011 = -37   
-63                       -> -8064                    :     11000001 = -63   
-58                       -> -7424                    :     11000110 = -58   
13                        -> 1664                     :     00001101 = 13    
49                        -> 6272                     :     00110001 = 49    
-95                       -> -12160                   :     10100001 = -95   
31                        -> 3968                     :     00011111 = 31    
87                        -> 11136                    :     01010111 = 87    
10                        -> 1280                     :     00001010 = 10    
-69                       -> -8832                    :     10111011 = -69   
-19                       -> -2432                    :     11101101 = -19   
-4                        -> -512                     :     11111100 = -4    
96                        -> 12288                    :     01100000 = 96    
-79                       -> -10112                   :     10110001 = -79   
-11                       -> -1408                    :     11110101 = -11   
70                        -> 8960                     :     01000110 = 70    
0                         -> 0                        :     00000000 = 0     
-118                      -> -15104                   :     10001010 = -118  
12                        -> 1536                     :     00001100 = 12    
-48                       -> -6144                    :     11010000 = -48   
117                       -> 14976                    :     01110101 = 117   
-2                        -> -256                     :     11111110 = -2    
18                        -> 2304                     :     00010010 = 18    
153                       -> 19584                    :     01111111 = 127   
-30                       -> -3840                    :     11100010 = -30   
-3                        -> -384                     :     11111101 = -3    
-12                       -> -1536                    :     11110100 = -12   
-23                       -> -2944                    :     11101001 = -23   
65                        -> 8320                     :     01000001 = 65    
42                        -> 5376                     :     00101010 = 42    
27                        -> 3456                     :     00011011 = 27    
64                        -> 8192                     :     01000000 = 64    
-65                       -> -8320                    :     10111111 = -65   
-52                       -> -6656                    :     11001100 = -52   
20                        -> 2560                     :     00010100 = 20    
-64                       -> -8192                    :     11000000 = -64   
-3                        -> -384                     :     11111101 = -3    
-56                       -> -7168                    :     11001000 = -56   
-29                       -> -3712                    :     11100011 = -29   
-135                      -> -17280                   :     10000000 = -128  
-124                      -> -15872                   :     10000100 = -124  
-10                       -> -1280                    :     11110110 = -10   
-4                        -> -512                     :     11111100 = -4    
-152                      -> -19456                   :     10000000 = -128  
40                        -> 5120                     :     00101000 = 40    
43                        -> 5504                     :     00101011 = 43    
-50                       -> -6400                    :     11001110 = -50   
-40                       -> -5120                    :     11011000 = -40   
-125                      -> -16000                   :     10000011 = -125  
153                       -> 19584                    :     01111111 = 127   
154                       -> 19712                    :     01111111 = 127   
22                        -> 2816                     :     00010110 = 22    
1                         -> 128                      :     00000001 = 1     
29                        -> 3712                     :     00011101 = 29    
2.5595126                 -> 327.61761474609375       :     00000010 = 2     

 ===================== NEURON LEVEL l ===================== 
 ----------------------- layer1_model ----------------------- 
0                         -> 0                        :     00000000 = 0     
0                         -> 0                        :     00000000 = 0     
0                         -> 0                        :     00000000 = 0     
0                         -> 0                        :     00000000 = 0     
0                         -> 0                        :     00000000 = 0     
0                         -> 0                        :     00000000 = 0     
0                         -> 0                        :     00000000 = 0     
0                         -> 0                        :     00000000 = 0     
0                         -> 0                        :     00000000 = 0     
0                         -> 0                        :     00000000 = 0     
0                         -> 0                        :     00000000 = 0     
0                         -> 0                        :     00000000 = 0     
0                         -> 0                        :     00000000 = 0     
0                         -> 0                        :     00000000 = 0     
0                         -> 0                        :     00000000 = 0     
0                         -> 0                        :     00000000 = 0     
 ----------------------- layer3_n9 ----------------------- 
-64                       -> -8192                    :     11000000 = -64   
-51                       -> -6528                    :     11001101 = -51   
-24                       -> -3072                    :     11101000 = -24   
11                        -> 1408                     :     00001011 = 11    
34                        -> 4352                     :     00100010 = 34    
-2                        -> -256                     :     11111110 = -2    
-45                       -> -5760                    :     11010011 = -45   
-3                        -> -384                     :     11111101 = -3    
-2                        -> -256                     :     11111110 = -2    
39                        -> 4992                     :     00100111 = 39    
-1                        -> -128                     :     11111111 = -1    
-48                       -> -6144                    :     11010000 = -48   
91                        -> 11648                    :     01011011 = 91    
10                        -> 1280                     :     00001010 = 10    
-2                        -> -256                     :     11111110 = -2    
-0.093715236              -> -11.995550155639648      :     00000000 = 0     
 ----------------------- layer2_n9 ----------------------- 
-36                       -> -4608                    :     11011100 = -36   
83                        -> 10624                    :     01010011 = 83    
-1.3144996                -> -168.25595092773438      :     11111111 = -1    
 ----------------------- layer0_n9 ----------------------- 
132                       -> 16896                    :     01111111 = 127   
33                        -> 4224                     :     00100001 = 33    
11                        -> 1408                     :     00001011 = 11    
46                        -> 5888                     :     00101110 = 46    
69                        -> 8832                     :     01000101 = 69    
-33                       -> -4224                    :     11011111 = -33   
29                        -> 3712                     :     00011101 = 29    
-50                       -> -6400                    :     11001110 = -50   
55                        -> 7040                     :     00110111 = 55    
76                        -> 9728                     :     01001100 = 76    
96                        -> 12288                    :     01100000 = 96    
57                        -> 7296                     :     00111001 = 57    
20                        -> 2560                     :     00010100 = 20    
7                         -> 896                      :     00000111 = 7     
-70                       -> -8960                    :     10111010 = -70   
-59                       -> -7552                    :     11000101 = -59   
-6                        -> -768                     :     11111010 = -6    
13                        -> 1664                     :     00001101 = 13    
-2                        -> -256                     :     11111110 = -2    
-90                       -> -11520                   :     10100110 = -90   
-40                       -> -5120                    :     11011000 = -40   
-40                       -> -5120                    :     11011000 = -40   
-42                       -> -5376                    :     11010110 = -42   
43                        -> 5504                     :     00101011 = 43    
-89                       -> -11392                   :     10100111 = -89   
11                        -> 1408                     :     00001011 = 11    
36                        -> 4608                     :     00100100 = 36    
78                        -> 9984                     :     01001110 = 78    
-11                       -> -1408                    :     11110101 = -11   
-34                       -> -4352                    :     11011110 = -34   
-50                       -> -6400                    :     11001110 = -50   
-74                       -> -9472                    :     10110110 = -74   
-1                        -> -128                     :     11111111 = -1    
-95                       -> -12160                   :     10100001 = -95   
-2                        -> -256                     :     11111110 = -2    
2                         -> 256                      :     00000010 = 2     
-69                       -> -8832                    :     10111011 = -69   
-50                       -> -6400                    :     11001110 = -50   
24                        -> 3072                     :     00011000 = 24    
49                        -> 6272                     :     00110001 = 49    
-82                       -> -10496                   :     10101110 = -82   
19                        -> 2432                     :     00010011 = 19    
-51                       -> -6528                    :     11001101 = -51   
-72                       -> -9216                    :     10111000 = -72   
-219                      -> -28032                   :     10000000 = -128  
-39                       -> -4992                    :     11011001 = -39   
148                       -> 18944                    :     01111111 = 127   
63                        -> 8064                     :     00111111 = 63    
-27                       -> -3456                    :     11100101 = -27   
-68                       -> -8704                    :     10111100 = -68   
-3                        -> -384                     :     11111101 = -3    
16                        -> 2048                     :     00010000 = 16    
-159                      -> -20352                   :     10000000 = -128  
-15                       -> -1920                    :     11110001 = -15   
134                       -> 17152                    :     01111111 = 127   
-18                       -> -2304                    :     11101110 = -18   
169                       -> 21632                    :     01111111 = 127   
-86                       -> -11008                   :     10101010 = -86   
-56                       -> -7168                    :     11001000 = -56   
342                       -> 43776                    :     01111111 = 127   
330                       -> 42240                    :     01111111 = 127   
206                       -> 26368                    :     01111111 = 127   
28                        -> 3584                     :     00011100 = 28    
-7                        -> -896                     :     11111001 = -7    
-1.3445498                -> -172.1023712158203       :     11111111 = -1    

 ===================== NEURON LEVEL l ===================== 
 ----------------------- layer1_model ----------------------- 
0                         -> 0                        :     00000000 = 0     
0                         -> 0                        :     00000000 = 0     
0                         -> 0                        :     00000000 = 0     
0                         -> 0                        :     00000000 = 0     
0                         -> 0                        :     00000000 = 0     
0                         -> 0                        :     00000000 = 0     
0                         -> 0                        :     00000000 = 0     
0                         -> 0                        :     00000000 = 0     
0                         -> 0                        :     00000000 = 0     
0                         -> 0                        :     00000000 = 0     
0                         -> 0                        :     00000000 = 0     
0                         -> 0                        :     00000000 = 0     
0                         -> 0                        :     00000000 = 0     
0                         -> 0                        :     00000000 = 0     
0                         -> 0                        :     00000000 = 0     
0                         -> 0                        :     00000000 = 0     
 ----------------------- layer3_n10 ----------------------- 
18                        -> 2304                     :     00010010 = 18    
42                        -> 5376                     :     00101010 = 42    
46                        -> 5888                     :     00101110 = 46    
70                        -> 8960                     :     01000110 = 70    
65                        -> 8320                     :     01000001 = 65    
-69                       -> -8832                    :     10111011 = -69   
-21                       -> -2688                    :     11101011 = -21   
54                        -> 6912                     :     00110110 = 54    
-102                      -> -13056                   :     10011010 = -102  
126                       -> 16128                    :     01111110 = 126   
-64                       -> -8192                    :     11000000 = -64   
-29                       -> -3712                    :     11100011 = -29   
70                        -> 8960                     :     01000110 = 70    
2                         -> 256                      :     00000010 = 2     
-31                       -> -3968                    :     11100001 = -31   
0.089060865               -> 11.39979076385498        :     00000000 = 0     
 ----------------------- layer2_n10 ----------------------- 
-201                      -> -25728                   :     10000000 = -128  
175                       -> 22400                    :     01111111 = 127   
-0.80002034               -> -102.40260314941406      :     00000000 = 0     
 ----------------------- layer0_n10 ----------------------- 
-10                       -> -1280                    :     11110110 = -10   
9                         -> 1152                     :     00001001 = 9     
-23                       -> -2944                    :     11101001 = -23   
-19                       -> -2432                    :     11101101 = -19   
37                        -> 4736                     :     00100101 = 37    
76                        -> 9728                     :     01001100 = 76    
81                        -> 10368                    :     01010001 = 81    
26                        -> 3328                     :     00011010 = 26    
-6                        -> -768                     :     11111010 = -6    
10                        -> 1280                     :     00001010 = 10    
39                        -> 4992                     :     00100111 = 39    
10                        -> 1280                     :     00001010 = 10    
115                       -> 14720                    :     01110011 = 115   
124                       -> 15872                    :     01111100 = 124   
153                       -> 19584                    :     01111111 = 127   
68                        -> 8704                     :     01000100 = 68    
-63                       -> -8064                    :     11000001 = -63   
-42                       -> -5376                    :     11010110 = -42   
-27                       -> -3456                    :     11100101 = -27   
-6                        -> -768                     :     11111010 = -6    
-45                       -> -5760                    :     11010011 = -45   
-42                       -> -5376                    :     11010110 = -42   
32                        -> 4096                     :     00100000 = 32    
70                        -> 8960                     :     01000110 = 70    
-29                       -> -3712                    :     11100011 = -29   
26                        -> 3328                     :     00011010 = 26    
42                        -> 5376                     :     00101010 = 42    
49                        -> 6272                     :     00110001 = 49    
17                        -> 2176                     :     00010001 = 17    
-70                       -> -8960                    :     10111010 = -70   
36                        -> 4608                     :     00100100 = 36    
98                        -> 12544                    :     01100010 = 98    
-7                        -> -896                     :     11111001 = -7    
55                        -> 7040                     :     00110111 = 55    
-8                        -> -1024                    :     11111000 = -8    
-23                       -> -2944                    :     11101001 = -23   
-89                       -> -11392                   :     10100111 = -89   
-52                       -> -6656                    :     11001100 = -52   
60                        -> 7680                     :     00111100 = 60    
67                        -> 8576                     :     01000011 = 67    
83                        -> 10624                    :     01010011 = 83    
161                       -> 20608                    :     01111111 = 127   
43                        -> 5504                     :     00101011 = 43    
-14                       -> -1792                    :     11110010 = -14   
-143                      -> -18304                   :     10000000 = -128  
61                        -> 7808                     :     00111101 = 61    
91                        -> 11648                    :     01011011 = 91    
69                        -> 8832                     :     01000101 = 69    
83                        -> 10624                    :     01010011 = 83    
161                       -> 20608                    :     01111111 = 127   
194                       -> 24832                    :     01111111 = 127   
38                        -> 4864                     :     00100110 = 38    
58                        -> 7424                     :     00111010 = 58    
119                       -> 15232                    :     01110111 = 119   
90                        -> 11520                    :     01011010 = 90    
-17                       -> -2176                    :     11101111 = -17   
62                        -> 7936                     :     00111110 = 62    
149                       -> 19072                    :     01111111 = 127   
265                       -> 33920                    :     01111111 = 127   
207                       -> 26496                    :     01111111 = 127   
97                        -> 12416                    :     01100001 = 97    
111                       -> 14208                    :     01101111 = 111   
5                         -> 640                      :     00000101 = 5     
-2                        -> -256                     :     11111110 = -2    
1.1302224                 -> 144.66847229003906       :     00000001 = 1     

 ===================== NEURON LEVEL l ===================== 
 ----------------------- layer1_model ----------------------- 
0                         -> 0                        :     00000000 = 0     
0                         -> 0                        :     00000000 = 0     
0                         -> 0                        :     00000000 = 0     
0                         -> 0                        :     00000000 = 0     
0                         -> 0                        :     00000000 = 0     
0                         -> 0                        :     00000000 = 0     
0                         -> 0                        :     00000000 = 0     
0                         -> 0                        :     00000000 = 0     
0                         -> 0                        :     00000000 = 0     
0                         -> 0                        :     00000000 = 0     
0                         -> 0                        :     00000000 = 0     
0                         -> 0                        :     00000000 = 0     
0                         -> 0                        :     00000000 = 0     
0                         -> 0                        :     00000000 = 0     
0                         -> 0                        :     00000000 = 0     
0                         -> 0                        :     00000000 = 0     
 ----------------------- layer3_n11 ----------------------- 
37                        -> 4736                     :     00100101 = 37    
-44                       -> -5632                    :     11010100 = -44   
130                       -> 16640                    :     01111111 = 127   
168                       -> 21504                    :     01111111 = 127   
-59                       -> -7552                    :     11000101 = -59   
-101                      -> -12928                   :     10011011 = -101  
56                        -> 7168                     :     00111000 = 56    
95                        -> 12160                    :     01011111 = 95    
-63                       -> -8064                    :     11000001 = -63   
72                        -> 9216                     :     01001000 = 72    
-234                      -> -29952                   :     10000000 = -128  
-78                       -> -9984                    :     10110010 = -78   
-59                       -> -7552                    :     11000101 = -59   
-68                       -> -8704                    :     10111100 = -68   
52                        -> 6656                     :     00110100 = 52    
0.4903373                 -> 62.76317596435547        :     00000000 = 0     
 ----------------------- layer2_n11 ----------------------- 
-100                      -> -12800                   :     10011100 = -100  
22                        -> 2816                     :     00010110 = 22    
1.0873519                 -> 139.18104553222656       :     00000001 = 1     
 ----------------------- layer0_n11 ----------------------- 
12                        -> 1536                     :     00001100 = 12    
-32                       -> -4096                    :     11100000 = -32   
-2                        -> -256                     :     11111110 = -2    
47                        -> 6016                     :     00101111 = 47    
9                         -> 1152                     :     00001001 = 9     
-24                       -> -3072                    :     11101000 = -24   
22                        -> 2816                     :     00010110 = 22    
57                        -> 7296                     :     00111001 = 57    
47                        -> 6016                     :     00101111 = 47    
23                        -> 2944                     :     00010111 = 23    
38                        -> 4864                     :     00100110 = 38    
-33                       -> -4224                    :     11011111 = -33   
12                        -> 1536                     :     00001100 = 12    
14                        -> 1792                     :     00001110 = 14    
24                        -> 3072                     :     00011000 = 24    
8                         -> 1024                     :     00001000 = 8     
31                        -> 3968                     :     00011111 = 31    
-6                        -> -768                     :     11111010 = -6    
46                        -> 5888                     :     00101110 = 46    
77                        -> 9856                     :     01001101 = 77    
93                        -> 11904                    :     01011101 = 93    
66                        -> 8448                     :     01000010 = 66    
51                        -> 6528                     :     00110011 = 51    
32                        -> 4096                     :     00100000 = 32    
37                        -> 4736                     :     00100101 = 37    
96                        -> 12288                    :     01100000 = 96    
23                        -> 2944                     :     00010111 = 23    
-48                       -> -6144                    :     11010000 = -48   
43                        -> 5504                     :     00101011 = 43    
62                        -> 7936                     :     00111110 = 62    
81                        -> 10368                    :     01010001 = 81    
-1                        -> -128                     :     11111111 = -1    
31                        -> 3968                     :     00011111 = 31    
107                       -> 13696                    :     01101011 = 107   
30                        -> 3840                     :     00011110 = 30    
-39                       -> -4992                    :     11011001 = -39   
82                        -> 10496                    :     01010010 = 82    
120                       -> 15360                    :     01111000 = 120   
40                        -> 5120                     :     00101000 = 40    
-42                       -> -5376                    :     11010110 = -42   
-20                       -> -2560                    :     11101100 = -20   
-64                       -> -8192                    :     11000000 = -64   
-7                        -> -896                     :     11111001 = -7    
42                        -> 5376                     :     00101010 = 42    
141                       -> 18048                    :     01111111 = 127   
-87                       -> -11136                   :     10101001 = -87   
-59                       -> -7552                    :     11000101 = -59   
23                        -> 2944                     :     00010111 = 23    
-61                       -> -7808                    :     11000011 = -61   
-130                      -> -16640                   :     10000000 = -128  
-137                      -> -17536                   :     10000000 = -128  
-53                       -> -6784                    :     11001011 = -53   
63                        -> 8064                     :     00111111 = 63    
-67                       -> -8576                    :     10111101 = -67   
-28                       -> -3584                    :     11100100 = -28   
-29                       -> -3712                    :     11100011 = -29   
-60                       -> -7680                    :     11000100 = -60   
-76                       -> -9728                    :     10110100 = -76   
-157                      -> -20096                   :     10000000 = -128  
-9                        -> -1152                    :     11110111 = -9    
11                        -> 1408                     :     00001011 = 11    
-37                       -> -4736                    :     11011011 = -37   
-72                       -> -9216                    :     10111000 = -72   
4                         -> 512                      :     00000100 = 4     
0.89356583                -> 114.37642669677734       :     00000000 = 0     

 ===================== NEURON LEVEL l ===================== 
 ----------------------- layer1_model ----------------------- 
0                         -> 0                        :     00000000 = 0     
0                         -> 0                        :     00000000 = 0     
0                         -> 0                        :     00000000 = 0     
0                         -> 0                        :     00000000 = 0     
0                         -> 0                        :     00000000 = 0     
0                         -> 0                        :     00000000 = 0     
0                         -> 0                        :     00000000 = 0     
0                         -> 0                        :     00000000 = 0     
0                         -> 0                        :     00000000 = 0     
0                         -> 0                        :     00000000 = 0     
0                         -> 0                        :     00000000 = 0     
0                         -> 0                        :     00000000 = 0     
0                         -> 0                        :     00000000 = 0     
0                         -> 0                        :     00000000 = 0     
0                         -> 0                        :     00000000 = 0     
0                         -> 0                        :     00000000 = 0     
 ----------------------- layer3_n12 ----------------------- 
52                        -> 6656                     :     00110100 = 52    
11                        -> 1408                     :     00001011 = 11    
-64                       -> -8192                    :     11000000 = -64   
51                        -> 6528                     :     00110011 = 51    
-124                      -> -15872                   :     10000100 = -124  
178                       -> 22784                    :     01111111 = 127   
-36                       -> -4608                    :     11011100 = -36   
-115                      -> -14720                   :     10001101 = -115  
84                        -> 10752                    :     01010100 = 84    
-122                      -> -15616                   :     10000110 = -122  
2                         -> 256                      :     00000010 = 2     
-129                      -> -16512                   :     10000000 = -128  
132                       -> 16896                    :     01111111 = 127   
-40                       -> -5120                    :     11011000 = -40   
107                       -> 13696                    :     01101011 = 107   
0.6545103                 -> 83.7773208618164         :     00000000 = 0     
