{
    "encoder_input": {
        "class_name": "InputLayer",
        "config": {
            "batch_input_shape": [
                null,
                64
            ],
            "dtype": "float32",
            "sparse": false,
            "ragged": false,
            "name": "encoder_input"
        }
    },
    "fc1": {
        "class_name": "QDense",
        "config": {
            "name": "fc1",
            "trainable": true,
            "dtype": "float32",
            "units": 15,
            "activation": "linear",
            "use_bias": true,
            "kernel_initializer": {
                "class_name": "QInitializer",
                "config": {
                    "initializer": {
                        "class_name": "LecunUniform",
                        "config": {
                            "seed": null
                        },
                        "__passive_serialization__": true
                    },
                    "use_scale": true,
                    "quantizer": {
                        "class_name": "quantized_bits",
                        "config": {
                            "bits": 8,
                            "integer": 0,
                            "symmetric": 0,
                            "alpha": 1,
                            "keep_negative": true,
                            "use_stochastic_rounding": false,
                            "qnoise_factor": 1.0
                        },
                        "__passive_serialization__": true
                    }
                }
            },
            "bias_initializer": {
                "class_name": "Zeros",
                "config": {}
            },
            "kernel_regularizer": null,
            "bias_regularizer": null,
            "activity_regularizer": null,
            "kernel_constraint": {
                "class_name": "Clip",
                "config": {
                    "min_value": -1,
                    "max_value": 1
                }
            },
            "bias_constraint": {
                "class_name": "Clip",
                "config": {
                    "min_value": -1,
                    "max_value": 1
                }
            },
            "kernel_quantizer": {
                "class_name": "quantized_bits",
                "config": {
                    "bits": 8,
                    "integer": 0,
                    "symmetric": 0,
                    "alpha": 1,
                    "keep_negative": true,
                    "use_stochastic_rounding": false,
                    "qnoise_factor": 1.0
                }
            },
            "bias_quantizer": {
                "class_name": "quantized_bits",
                "config": {
                    "bits": 8,
                    "integer": 0,
                    "symmetric": 0,
                    "alpha": 1,
                    "keep_negative": true,
                    "use_stochastic_rounding": false,
                    "qnoise_factor": 1.0
                }
            },
            "kernel_range": null,
            "bias_range": null
        },
        "weights_and_biases": [
            [
                [
                    -0.16976501047611237,
                    0.03916629031300545,
                    0.0045850551687181,
                    -0.013209902681410313,
                    0.1062544658780098,
                    0.15528327226638794,
                    0.3044912815093994,
                    -0.15414705872535706,
                    -0.47590169310569763,
                    -0.028636127710342407,
                    0.20723176002502441,
                    0.31914037466049194,
                    0.00018107815412804484,
                    0.002600173931568861,
                    0.1277143657207489
                ],
                [
                    0.052241139113903046,
                    0.041254427284002304,
                    0.03251688927412033,
                    0.13221390545368195,
                    -0.259170800447464,
                    -0.4128110706806183,
                    -0.1763104796409607,
                    0.19855867326259613,
                    -0.27150437235832214,
                    -0.008157816715538502,
                    -0.2980813682079315,
                    0.5439509153366089,
                    -0.07068350911140442,
                    -0.06149093061685562,
                    -0.1106906458735466
                ],
                [
                    -0.06685874611139297,
                    0.00373203051276505,
                    0.021677160635590553,
                    0.08207076787948608,
                    0.17879538238048553,
                    0.07337689399719238,
                    -0.13378340005874634,
                    0.4100240468978882,
                    -0.13624052703380585,
                    -0.007130298297852278,
                    -0.3837081491947174,
                    0.36911165714263916,
                    0.0016053718281909823,
                    0.03115866705775261,
                    0.0588613897562027
                ],
                [
                    0.01726028509438038,
                    0.03657827153801918,
                    0.03531148284673691,
                    -0.011625542305409908,
                    0.2348795384168625,
                    -0.01596425101161003,
                    -0.29367610812187195,
                    0.5162846446037292,
                    -0.40890824794769287,
                    0.00361736211925745,
                    0.05730723589658737,
                    0.22915346920490265,
                    -0.014912341721355915,
                    -0.009088742546737194,
                    -0.031907711178064346
                ],
                [
                    -0.183285653591156,
                    -0.023296458646655083,
                    0.2942008376121521,
                    -0.04418061301112175,
                    0.48266103863716125,
                    0.07315515726804733,
                    0.12236251682043076,
                    0.7334414124488831,
                    0.16168484091758728,
                    -0.18239770829677582,
                    0.05382193624973297,
                    0.14308510720729828,
                    0.1458536982536316,
                    0.062209710478782654,
                    0.17785592377185822
                ],
                [
                    -0.0677720308303833,
                    -0.011906377039849758,
                    0.13489043712615967,
                    -0.05494942143559456,
                    0.34148117899894714,
                    0.017547355964779854,
                    0.012511702254414558,
                    0.6831088662147522,
                    -0.0006618078914470971,
                    -0.06583717465400696,
                    -0.08569540828466415,
                    0.18819405138492584,
                    0.1330052763223648,
                    0.18765060603618622,
                    0.17327654361724854
                ],
                [
                    0.015685658901929855,
                    0.01826024428009987,
                    0.004146595019847155,
                    -0.0047935307957232,
                    0.03592047095298767,
                    0.06472197920084,
                    0.09492560476064682,
                    0.04539832845330238,
                    0.11502733081579208,
                    0.05658994987607002,
                    0.12136883288621902,
                    -0.0351388119161129,
                    0.041413597762584686,
                    0.05772208422422409,
                    -0.007913479581475258
                ],
                [
                    -0.014069478027522564,
                    -0.04450824111700058,
                    -0.039415810257196426,
                    0.009500717744231224,
                    -0.004107480403035879,
                    0.17286181449890137,
                    0.17079132795333862,
                    -0.22123800218105316,
                    0.17251254618167877,
                    0.06832394003868103,
                    -0.10876339673995972,
                    -0.06485807150602341,
                    -0.02514130063354969,
                    0.05009056627750397,
                    -0.07050815224647522
                ],
                [
                    0.055282216519117355,
                    0.05174173414707184,
                    -0.011447615921497345,
                    -0.37963223457336426,
                    -0.14165867865085602,
                    -0.6791884303092957,
                    0.017955578863620758,
                    0.4122292399406433,
                    -0.27600932121276855,
                    -0.07951600104570389,
                    0.05188176408410072,
                    -0.2100357711315155,
                    0.01896967738866806,
                    0.0009467912022955716,
                    -0.06129266694188118
                ],
                [
                    -0.0706571638584137,
                    -0.031273938715457916,
                    0.05643051117658615,
                    -0.056689050048589706,
                    -0.043289463967084885,
                    -0.4328785240650177,
                    -0.07637560367584229,
                    0.1690378040075302,
                    -0.011891422793269157,
                    -0.03951600566506386,
                    -0.03857246786355972,
                    -0.017812326550483704,
                    -0.08888403326272964,
                    -0.007528124377131462,
                    0.06621784716844559
                ],
                [
                    -0.004448979161679745,
                    0.023432906717061996,
                    0.02462414652109146,
                    0.03688793256878853,
                    0.08745382726192474,
                    -0.15048332512378693,
                    -0.1437738835811615,
                    0.39263299107551575,
                    -0.19484782218933105,
                    -0.013145373202860355,
                    -0.04131756350398064,
                    0.174873486161232,
                    -0.07536876201629639,
                    -0.12446337193250656,
                    0.024428395554423332
                ],
                [
                    0.07266335189342499,
                    -0.06111209839582443,
                    0.05431104823946953,
                    -0.032480623573064804,
                    0.027349412441253662,
                    0.0548432320356369,
                    -0.14121238887310028,
                    0.27206099033355713,
                    -0.09823231399059296,
                    0.04231250286102295,
                    0.010095536708831787,
                    0.13912467658519745,
                    -0.03191424533724785,
                    -0.12328365445137024,
                    -0.06601367890834808
                ],
                [
                    0.004024777561426163,
                    -0.13330009579658508,
                    0.15692175924777985,
                    -0.04501980543136597,
                    0.008514554239809513,
                    0.13566230237483978,
                    -0.05748807638883591,
                    0.2518594563007355,
                    -0.1306958645582199,
                    0.020041579380631447,
                    -0.019954102113842964,
                    0.06525177508592606,
                    -0.008403168059885502,
                    0.10444213449954987,
                    0.04388247802853584
                ],
                [
                    0.08933224529027939,
                    -0.018416602164506912,
                    0.04281668737530708,
                    0.04383673518896103,
                    -0.03286987915635109,
                    0.1625199019908905,
                    -0.034913789480924606,
                    0.10767318308353424,
                    -0.13857010006904602,
                    0.11093178391456604,
                    -0.08839636296033859,
                    0.003441339358687401,
                    -0.12775860726833344,
                    0.12514068186283112,
                    -0.05370015650987625
                ],
                [
                    0.20144438743591309,
                    0.12402284145355225,
                    0.05416640639305115,
                    0.09003013372421265,
                    -0.17967748641967773,
                    -0.025686755776405334,
                    -0.07183588296175003,
                    -0.20549647510051727,
                    -0.20875269174575806,
                    0.20193380117416382,
                    -0.20367580652236938,
                    0.042416200041770935,
                    -0.19596503674983978,
                    0.1485666036605835,
                    -0.2563258707523346
                ],
                [
                    0.21362565457820892,
                    0.1220320612192154,
                    0.040497951209545135,
                    -0.03266386687755585,
                    -0.3900218904018402,
                    -0.2561141550540924,
                    -0.019297903403639793,
                    -0.47471854090690613,
                    -0.05991989001631737,
                    0.06049905717372894,
                    -0.27843350172042847,
                    0.06703300774097443,
                    -0.3905317783355713,
                    0.1252886950969696,
                    -0.4067249298095703
                ],
                [
                    -0.05852007493376732,
                    0.19056709110736847,
                    -0.031188540160655975,
                    0.03826596587896347,
                    -0.19967353343963623,
                    -0.3837226629257202,
                    0.03208189085125923,
                    0.0759466141462326,
                    0.21327044069766998,
                    -0.04772171005606651,
                    0.1188628152012825,
                    -0.3481314480304718,
                    -0.05633258447051048,
                    -0.14168515801429749,
                    0.06569573283195496
                ],
                [
                    -0.058636706322431564,
                    0.11608946323394775,
                    -0.05590632185339928,
                    0.07677283138036728,
                    -0.13378432393074036,
                    -0.10144984722137451,
                    -0.13746164739131927,
                    0.32371893525123596,
                    0.0651933029294014,
                    0.020957356318831444,
                    0.15963494777679443,
                    -0.11511975526809692,
                    -0.07919789105653763,
                    -0.22208236157894135,
                    0.07111245393753052
                ],
                [
                    -0.01393351424485445,
                    -0.013270363211631775,
                    -0.14002688229084015,
                    -0.03984742984175682,
                    -0.24504241347312927,
                    -0.012444011867046356,
                    -0.4265405535697937,
                    0.19998086988925934,
                    -0.35825735330581665,
                    0.13513442873954773,
                    -0.12028094381093979,
                    0.011653099209070206,
                    -0.044858016073703766,
                    -0.13853193819522858,
                    0.029886113479733467
                ],
                [
                    0.00529465451836586,
                    -0.016612743958830833,
                    -0.027454515919089317,
                    -0.030251240357756615,
                    -0.09411592036485672,
                    0.07080082595348358,
                    -0.3693000376224518,
                    -0.31568360328674316,
                    -0.45604208111763,
                    0.1434262990951538,
                    0.14838162064552307,
                    -0.11816514283418655,
                    0.04680664837360382,
                    0.0697970986366272,
                    -0.03818093612790108
                ],
                [
                    -0.0801592543721199,
                    0.061395663768053055,
                    -0.0038756518624722958,
                    -0.009029081091284752,
                    -0.1918303668498993,
                    -0.07672518491744995,
                    0.15251851081848145,
                    -0.11122172325849533,
                    0.13706077635288239,
                    -0.0931047722697258,
                    0.17499691247940063,
                    -0.25022730231285095,
                    -0.08660401403903961,
                    0.010948487557470798,
                    0.12941454350948334
                ],
                [
                    0.05549050495028496,
                    0.09970568120479584,
                    -0.10491640120744705,
                    -0.05862081050872803,
                    -0.08214747905731201,
                    -0.19679982960224152,
                    0.01028463151305914,
                    -0.24378149211406708,
                    -0.011200868524610996,
                    0.008930174633860588,
                    0.02753268927335739,
                    -0.18681474030017853,
                    -0.1863952875137329,
                    0.031116582453250885,
                    -0.02032821998000145
                ],
                [
                    0.1436755210161209,
                    0.1908055692911148,
                    -0.051168281584978104,
                    0.01120767556130886,
                    -0.09816496074199677,
                    0.10949046909809113,
                    -0.22525060176849365,
                    -0.5002943277359009,
                    -0.27017971873283386,
                    0.17097599804401398,
                    -0.21177512407302856,
                    -0.03269447386264801,
                    -0.13810136914253235,
                    0.06637537479400635,
                    -0.19052813947200775
                ],
                [
                    0.3013243079185486,
                    0.18885192275047302,
                    0.035433024168014526,
                    0.23452073335647583,
                    -0.39039692282676697,
                    -0.17179083824157715,
                    -0.20951810479164124,
                    -0.46743765473365784,
                    -0.20903827250003815,
                    0.02513270266354084,
                    -0.17955619096755981,
                    -0.05025597661733627,
                    -0.2960604131221771,
                    0.19285863637924194,
                    -0.1693241149187088
                ],
                [
                    0.007606090046465397,
                    0.0172580573707819,
                    -0.05466621369123459,
                    -0.05808890238404274,
                    -0.0577457994222641,
                    -0.5333043932914734,
                    0.04518289119005203,
                    0.509066104888916,
                    0.33185094594955444,
                    -0.003556199138984084,
                    0.03383733332157135,
                    0.06753329932689667,
                    0.10507956147193909,
                    -0.26786160469055176,
                    0.06486093997955322
                ],
                [
                    -0.0795096606016159,
                    0.015356596559286118,
                    -0.07212097942829132,
                    0.18219196796417236,
                    -0.08785092085599899,
                    0.08866512775421143,
                    0.055942434817552567,
                    0.10137423872947693,
                    0.00016378516738768667,
                    0.021060410887002945,
                    -0.2855263650417328,
                    0.12935015559196472,
                    -0.08911840617656708,
                    -0.20327319204807281,
                    0.1698131114244461
                ],
                [
                    0.09326232224702835,
                    -0.10545337945222855,
                    -0.06246877834200859,
                    -0.14438529312610626,
                    -0.21540503203868866,
                    0.26976945996284485,
                    -0.14486919343471527,
                    -0.07914172857999802,
                    -0.21582262217998505,
                    0.14636771380901337,
                    -0.09260459244251251,
                    0.0591922253370285,
                    0.033227115869522095,
                    -0.0655316486954689,
                    -0.0913923904299736
                ],
                [
                    -0.0197492316365242,
                    -0.04368630796670914,
                    0.04530329629778862,
                    0.010265969671308994,
                    -0.015437333844602108,
                    -0.23734508454799652,
                    0.013025416992604733,
                    -0.005368900019675493,
                    0.01502335723489523,
                    0.002504595322534442,
                    -0.0003727607545442879,
                    0.1439737230539322,
                    0.005900342483073473,
                    0.05410296842455864,
                    0.02894560620188713
                ],
                [
                    0.0019629942253232002,
                    -0.07079831510782242,
                    0.10986838489770889,
                    -0.02996477484703064,
                    -0.11591542512178421,
                    -0.58451908826828,
                    0.30855387449264526,
                    -0.034475233405828476,
                    0.3015235662460327,
                    -0.05650483816862106,
                    0.0854111760854721,
                    0.03431009128689766,
                    -0.1056756004691124,
                    -0.036961108446121216,
                    -0.028650440275669098
                ],
                [
                    0.0024307428393512964,
                    0.018815193325281143,
                    -0.0562664270401001,
                    -0.049113158136606216,
                    -0.1579659879207611,
                    -0.16707178950309753,
                    0.01894393004477024,
                    0.034323159605264664,
                    -0.050265856087207794,
                    0.026722608134150505,
                    -0.00840787123888731,
                    -0.0476313978433609,
                    -0.042055778205394745,
                    -0.041832976043224335,
                    -0.059841807931661606
                ],
                [
                    0.03332429379224777,
                    0.12005577236413956,
                    -0.10066014528274536,
                    0.002965650986880064,
                    0.3172991871833801,
                    0.6324350237846375,
                    -0.04853752627968788,
                    -0.1502235382795334,
                    0.01248206291347742,
                    0.2342381477355957,
                    -0.19414973258972168,
                    -0.15388327836990356,
                    0.1461874544620514,
                    -0.07111658900976181,
                    -0.0718049481511116
                ],
                [
                    -0.05770765617489815,
                    0.020901799201965332,
                    -0.03644923120737076,
                    0.27187666296958923,
                    0.2563396692276001,
                    0.5098668336868286,
                    0.2487187534570694,
                    -0.026758423075079918,
                    0.3259243369102478,
                    0.030345667153596878,
                    -0.142011359333992,
                    0.03207080438733101,
                    0.10052897781133652,
                    0.042497340589761734,
                    0.17916159331798553
                ],
                [
                    -0.04123155400156975,
                    -0.05819178372621536,
                    -0.032982196658849716,
                    -0.06479506194591522,
                    0.03083798848092556,
                    -0.2618041932582855,
                    0.002171524800360203,
                    0.242503821849823,
                    -0.18404754996299744,
                    -0.02452520839869976,
                    -0.187471404671669,
                    -0.020504234358668327,
                    -0.16565486788749695,
                    -0.0458359569311142,
                    0.007177887484431267
                ],
                [
                    0.008950851857662201,
                    0.05728330835700035,
                    -0.12875166535377502,
                    0.1678205132484436,
                    0.08607399463653564,
                    0.37167027592658997,
                    0.039904799312353134,
                    -0.013159015215933323,
                    0.07222501933574677,
                    0.06711672246456146,
                    -0.17282848060131073,
                    -0.045593973249197006,
                    -0.08188163489103317,
                    -0.049322932958602905,
                    -0.05902230367064476
                ],
                [
                    0.0919644832611084,
                    -0.06401439011096954,
                    -0.08136101812124252,
                    -0.10484909266233444,
                    0.09967151284217834,
                    0.24118241667747498,
                    -0.1561221480369568,
                    0.2808394730091095,
                    -0.16213291883468628,
                    0.07774441689252853,
                    -0.14447392523288727,
                    0.23021674156188965,
                    0.16778334975242615,
                    -0.03394634649157524,
                    -0.12066920101642609
                ],
                [
                    0.11131428927183151,
                    0.02667517401278019,
                    -0.000862597138620913,
                    -0.17554014921188354,
                    -0.3252693712711334,
                    -0.8242184519767761,
                    0.11673638969659805,
                    -0.20503371953964233,
                    -0.06735148280858994,
                    0.05353380739688873,
                    -0.026858115568757057,
                    0.180315300822258,
                    -0.07678039371967316,
                    -0.03141562640666962,
                    -0.17800772190093994
                ],
                [
                    0.06650547683238983,
                    -0.049273982644081116,
                    -0.020520104095339775,
                    -0.11495571583509445,
                    -0.1988617330789566,
                    -0.6949953436851501,
                    0.06266667693853378,
                    -0.14043372869491577,
                    0.03504253923892975,
                    -0.002543455921113491,
                    0.0357256717979908,
                    -0.02412419393658638,
                    0.041686978191137314,
                    0.024805624037981033,
                    -0.12689846754074097
                ],
                [
                    0.015830568969249725,
                    0.08382003009319305,
                    -0.050884220749139786,
                    -0.304668128490448,
                    -0.1451883763074875,
                    -0.6463839411735535,
                    -0.22179961204528809,
                    0.36539673805236816,
                    -0.3242848217487335,
                    0.037657931447029114,
                    -0.05767527222633362,
                    0.04454939067363739,
                    -0.04486355185508728,
                    -0.007628273218870163,
                    -0.02391311712563038
                ],
                [
                    -0.04811980947852135,
                    -0.048298630863428116,
                    0.047365788370370865,
                    -0.11983056366443634,
                    0.21682067215442657,
                    0.34509608149528503,
                    -0.019999049603939056,
                    0.4051467180252075,
                    -0.17602689564228058,
                    0.05863112211227417,
                    -0.2296566218137741,
                    0.003704207483679056,
                    0.1295945644378662,
                    -0.0579368881881237,
                    0.13336022198200226
                ],
                [
                    -0.034283190965652466,
                    -0.032836560159921646,
                    -0.1367010474205017,
                    0.2638542652130127,
                    0.3064895272254944,
                    0.7756098508834839,
                    0.08798927068710327,
                    0.07638447731733322,
                    0.05712386593222618,
                    0.08059803396463394,
                    -0.0012116774450987577,
                    0.1445571780204773,
                    0.03890351951122284,
                    -0.15401656925678253,
                    -0.042453404515981674
                ],
                [
                    0.030614376068115234,
                    0.07487060874700546,
                    0.16940255463123322,
                    0.0967075526714325,
                    0.2603220045566559,
                    0.12130727618932724,
                    -0.05408310145139694,
                    0.4821561872959137,
                    0.0444738008081913,
                    0.06242796778678894,
                    -0.10848730802536011,
                    0.16546407341957092,
                    0.01193094439804554,
                    0.14266903698444366,
                    -0.03778945282101631
                ],
                [
                    0.03124724142253399,
                    0.14200617372989655,
                    -0.017273494973778725,
                    0.10307693481445312,
                    0.3491009771823883,
                    0.533454954624176,
                    -0.11203768849372864,
                    0.19458289444446564,
                    -0.020838940516114235,
                    -0.0069493986666202545,
                    -0.29109498858451843,
                    0.0636635348200798,
                    0.0215531587600708,
                    0.04664276912808418,
                    0.0761595368385315
                ],
                [
                    0.02184520661830902,
                    0.009497970342636108,
                    -0.011477037332952023,
                    -0.06614178419113159,
                    0.27599215507507324,
                    0.21184903383255005,
                    -0.0586148239672184,
                    0.2108987420797348,
                    -0.09392209351062775,
                    0.024840092286467552,
                    -0.08939558267593384,
                    0.23862598836421967,
                    0.22599901258945465,
                    0.01890423148870468,
                    -0.16420120000839233
                ],
                [
                    0.061074234545230865,
                    0.058455608785152435,
                    -0.021137835457921028,
                    -0.1256595104932785,
                    0.08692467957735062,
                    -0.5089132189750671,
                    0.3951297998428345,
                    -0.31460797786712646,
                    0.3897765278816223,
                    -0.06947525590658188,
                    0.03775816038250923,
                    0.008241917006671429,
                    0.15307512879371643,
                    0.0031857499852776527,
                    -0.09634412080049515
                ],
                [
                    0.15286952257156372,
                    0.09000299870967865,
                    -0.07740398496389389,
                    -0.06729591637849808,
                    -0.2593967616558075,
                    -0.36222976446151733,
                    -0.1491893082857132,
                    -0.49873217940330505,
                    -0.269741952419281,
                    0.0822870284318924,
                    0.2523009777069092,
                    -0.3152325451374054,
                    0.03421596437692642,
                    0.06727476418018341,
                    -0.33704328536987305
                ],
                [
                    -0.06664273142814636,
                    0.05332615226507187,
                    -0.06771328300237656,
                    -0.1083117127418518,
                    0.37540507316589355,
                    -0.03485992178320885,
                    -0.4362413287162781,
                    0.9993503093719482,
                    -0.4888794422149658,
                    -0.046578921377658844,
                    -0.4746038615703583,
                    0.30946582555770874,
                    0.010636585764586926,
                    0.01867612451314926,
                    0.28920257091522217
                ],
                [
                    -0.10274143517017365,
                    -0.027605457231402397,
                    0.1222752258181572,
                    0.04528985172510147,
                    0.5344651937484741,
                    0.11176200211048126,
                    -0.4386114776134491,
                    0.637628436088562,
                    -0.2987014651298523,
                    0.030831612646579742,
                    -0.21590633690357208,
                    0.3364920914173126,
                    0.03746645525097847,
                    -0.10205765813589096,
                    0.14136795699596405
                ],
                [
                    -0.031995050609111786,
                    0.0529579222202301,
                    -0.016417503356933594,
                    0.20560629665851593,
                    0.5912913680076599,
                    0.46184802055358887,
                    -0.1850607842206955,
                    0.9352152347564697,
                    -0.246548131108284,
                    -0.047403134405612946,
                    -0.13038179278373718,
                    0.8530398607254028,
                    0.007735089398920536,
                    -0.11674793809652328,
                    0.00365261803381145
                ],
                [
                    0.3292657136917114,
                    0.06324338912963867,
                    0.2413538694381714,
                    -0.046091072261333466,
                    0.39917436242103577,
                    -0.14090606570243835,
                    0.061827998608350754,
                    0.8027820587158203,
                    -0.21097630262374878,
                    0.10997723042964935,
                    -0.06568857282400131,
                    0.2696574628353119,
                    -0.04093216359615326,
                    0.10827616602182388,
                    -0.39777839183807373
                ],
                [
                    0.19101449847221375,
                    0.1525389552116394,
                    0.32673782110214233,
                    0.11304806917905807,
                    0.5211623311042786,
                    0.24980899691581726,
                    -0.23713454604148865,
                    0.5560933947563171,
                    -0.2384263426065445,
                    -0.021792201325297356,
                    -0.4545980393886566,
                    0.9518442153930664,
                    -0.13970859348773956,
                    0.4263380467891693,
                    -0.14830869436264038
                ],
                [
                    0.0194164477288723,
                    -0.05008829012513161,
                    0.18295767903327942,
                    0.019467905163764954,
                    0.5429496765136719,
                    0.39202460646629333,
                    0.060146283358335495,
                    0.24484525620937347,
                    0.006211258936673403,
                    0.0007724814931862056,
                    -0.628253161907196,
                    0.5038275718688965,
                    0.13555528223514557,
                    0.2419079840183258,
                    -0.05697827786207199
                ],
                [
                    0.01462593860924244,
                    -0.02790302224457264,
                    0.05974605679512024,
                    0.07653709501028061,
                    0.2801553010940552,
                    0.25877079367637634,
                    0.028404155746102333,
                    -0.17690466344356537,
                    0.08083214610815048,
                    -0.12577058374881744,
                    -0.2773226499557495,
                    -0.1274949610233307,
                    0.26936888694763184,
                    0.231209397315979,
                    0.026934832334518433
                ],
                [
                    0.06715119630098343,
                    -0.04001963511109352,
                    0.015003669075667858,
                    0.02882934734225273,
                    0.12398581206798553,
                    0.1054573804140091,
                    -0.23050588369369507,
                    0.12814286351203918,
                    -0.35493260622024536,
                    0.21852439641952515,
                    0.26956987380981445,
                    0.08817024528980255,
                    0.111858069896698,
                    -0.13770629465579987,
                    -0.13017074763774872
                ],
                [
                    -0.10732400417327881,
                    -0.08713553100824356,
                    0.11831331998109818,
                    -0.006663510575890541,
                    0.2865005135536194,
                    -0.14526358246803284,
                    -0.6596167683601379,
                    0.9983404278755188,
                    -0.548439085483551,
                    -0.00041104122647084296,
                    -0.4779101610183716,
                    0.5031023621559143,
                    -0.05190473049879074,
                    -0.11597898602485657,
                    0.1796112358570099
                ],
                [
                    -0.1326122134923935,
                    0.010937151499092579,
                    0.12491997331380844,
                    0.07162148505449295,
                    0.36418667435646057,
                    -0.037538956850767136,
                    -0.16095800697803497,
                    0.8529491424560547,
                    -0.16265560686588287,
                    -0.07231679558753967,
                    -0.3162626028060913,
                    0.4622863829135895,
                    -0.037465039640665054,
                    -0.09330367296934128,
                    0.17120850086212158
                ],
                [
                    0.005831276997923851,
                    0.0017463082913309336,
                    0.1081889271736145,
                    -0.03768749162554741,
                    0.029840633273124695,
                    -0.24768048524856567,
                    -0.41647714376449585,
                    0.2522405982017517,
                    -0.4136059284210205,
                    -0.0865480825304985,
                    -0.3348616659641266,
                    0.14513500034809113,
                    -0.0016221503028646111,
                    0.14105460047721863,
                    -0.03480777516961098
                ],
                [
                    0.12519681453704834,
                    -0.022511519491672516,
                    0.15209142863750458,
                    -0.1361485868692398,
                    0.028584636747837067,
                    -0.16035516560077667,
                    0.11448711156845093,
                    0.2073325663805008,
                    0.14668458700180054,
                    -0.09465133398771286,
                    0.1475316286087036,
                    0.25617673993110657,
                    -0.028792832046747208,
                    0.1209663599729538,
                    0.028128555044531822
                ],
                [
                    0.0662289634346962,
                    0.09618169814348221,
                    0.22860103845596313,
                    0.011406799778342247,
                    0.13678452372550964,
                    -0.06186535581946373,
                    0.1872323900461197,
                    0.1444748342037201,
                    0.1854071319103241,
                    0.11564649641513824,
                    -0.2085210680961609,
                    0.3436916172504425,
                    -0.17326883971691132,
                    0.1255127638578415,
                    -0.07907483726739883
                ],
                [
                    0.12018699944019318,
                    -0.2983863949775696,
                    0.25086814165115356,
                    0.08583308011293411,
                    -0.028927473351359367,
                    0.12983009219169617,
                    -0.15121027827262878,
                    -0.22795480489730835,
                    -0.3010281026363373,
                    0.1804654449224472,
                    -0.31794965267181396,
                    0.21852841973304749,
                    -0.16835016012191772,
                    0.38149067759513855,
                    -0.1989518105983734
                ],
                [
                    0.06063403934240341,
                    -0.21500685811042786,
                    0.24494533240795135,
                    -0.05034695565700531,
                    -0.2022809237241745,
                    0.11299164593219757,
                    -0.060809507966041565,
                    -0.38434553146362305,
                    -0.1307399719953537,
                    0.260572224855423,
                    -0.15199008584022522,
                    -0.07589000463485718,
                    -0.1218377873301506,
                    0.044289156794548035,
                    0.004195562098175287
                ],
                [
                    0.07738212496042252,
                    -0.2197319120168686,
                    0.0961725041270256,
                    0.0024714285973459482,
                    -0.6864206194877625,
                    -0.04678792506456375,
                    -0.030192971229553223,
                    0.2334289699792862,
                    -0.07670020312070847,
                    0.2930688261985779,
                    0.19615338742733002,
                    0.1162019595503807,
                    -0.2691384553909302,
                    -0.4052284359931946,
                    -0.04144885018467903
                ],
                [
                    -0.10241987556219101,
                    -0.059809282422065735,
                    0.03827308118343353,
                    -0.07528449594974518,
                    -0.37238121032714844,
                    -0.20124731957912445,
                    -0.24160104990005493,
                    0.8583916425704956,
                    -0.42053234577178955,
                    -0.10296773165464401,
                    -0.1650470644235611,
                    0.41810327768325806,
                    -0.2063724398612976,
                    -0.3821861445903778,
                    0.23306302726268768
                ],
                [
                    -0.0420936644077301,
                    0.029325824230909348,
                    -0.001186627196148038,
                    -0.24426333606243134,
                    0.21740823984146118,
                    -0.19322353601455688,
                    -0.1551312804222107,
                    0.26169419288635254,
                    -0.09567851573228836,
                    -0.09060144424438477,
                    -0.13637417554855347,
                    0.37495702505111694,
                    -0.054641369730234146,
                    0.01973588764667511,
                    0.1144944354891777
                ],
                [
                    -0.03447209298610687,
                    -0.03375653922557831,
                    -0.016188926994800568,
                    -0.15627411007881165,
                    0.08079028129577637,
                    0.2930298149585724,
                    0.02198503166437149,
                    -0.022221215069293976,
                    0.1042773425579071,
                    0.10437875986099243,
                    -0.46454185247421265,
                    0.10192383825778961,
                    -0.02295319177210331,
                    0.10086482763290405,
                    0.024751704186201096
                ]
            ],
            [
                0.3247028887271881,
                0.22095684707164764,
                0.04460597038269043,
                -0.13417232036590576,
                0.21865878999233246,
                -0.5779536962509155,
                0.05822865292429924,
                0.0036740796640515327,
                0.2451619803905487,
                -0.05758243054151535,
                0.1959826797246933,
                0.2884373366832733,
                0.11270059645175934,
                0.04629441350698471,
                0.1445394903421402
            ]
        ]
    },
    "relu1": {
        "class_name": "QActivation",
        "config": {
            "name": "relu1",
            "dtype": "float32"
        }
    },
    "fc2": {
        "class_name": "QDense",
        "config": {
            "name": "fc2",
            "trainable": true,
            "dtype": "float32",
            "units": 15,
            "activation": "linear",
            "use_bias": true,
            "kernel_initializer": {
                "class_name": "QInitializer",
                "config": {
                    "initializer": {
                        "class_name": "LecunUniform",
                        "config": {
                            "seed": null
                        },
                        "__passive_serialization__": true
                    },
                    "use_scale": true,
                    "quantizer": {
                        "class_name": "quantized_bits",
                        "config": {
                            "bits": 8,
                            "integer": 0,
                            "symmetric": 0,
                            "alpha": 1,
                            "keep_negative": true,
                            "use_stochastic_rounding": false,
                            "qnoise_factor": 1.0
                        },
                        "__passive_serialization__": true
                    }
                }
            },
            "bias_initializer": {
                "class_name": "Zeros",
                "config": {}
            },
            "kernel_regularizer": null,
            "bias_regularizer": null,
            "activity_regularizer": null,
            "kernel_constraint": {
                "class_name": "Clip",
                "config": {
                    "min_value": -1,
                    "max_value": 1
                }
            },
            "bias_constraint": {
                "class_name": "Clip",
                "config": {
                    "min_value": -1,
                    "max_value": 1
                }
            },
            "kernel_quantizer": {
                "class_name": "quantized_bits",
                "config": {
                    "bits": 8,
                    "integer": 0,
                    "symmetric": 0,
                    "alpha": 1,
                    "keep_negative": true,
                    "use_stochastic_rounding": false,
                    "qnoise_factor": 1.0
                }
            },
            "bias_quantizer": {
                "class_name": "quantized_bits",
                "config": {
                    "bits": 8,
                    "integer": 0,
                    "symmetric": 0,
                    "alpha": 1,
                    "keep_negative": true,
                    "use_stochastic_rounding": false,
                    "qnoise_factor": 1.0
                }
            },
            "kernel_range": null,
            "bias_range": null
        },
        "weights_and_biases": [
            [
                [
                    -0.4675363600254059,
                    -0.011575846932828426,
                    -0.20775863528251648,
                    0.017685560509562492,
                    0.33818933367729187,
                    0.16910195350646973,
                    0.14072659611701965,
                    0.21786794066429138,
                    0.02420813776552677,
                    -0.32859107851982117,
                    0.3794553577899933,
                    -0.3236188590526581,
                    0.24413849413394928,
                    0.12054742127656937,
                    0.13648094236850739
                ],
                [
                    0.22279176115989685,
                    -0.10105184465646744,
                    0.4345942735671997,
                    0.3995966911315918,
                    0.19207808375358582,
                    0.05632667616009712,
                    0.20850515365600586,
                    0.43070054054260254,
                    0.3408791124820709,
                    0.030095629394054413,
                    0.03931557759642601,
                    0.05269109457731247,
                    -0.45765185356140137,
                    -0.0873313620686531,
                    -0.10552894324064255
                ],
                [
                    -0.19703064858913422,
                    0.19314587116241455,
                    -0.3440974950790405,
                    -0.3259740471839905,
                    0.24676401913166046,
                    -0.4636935889720917,
                    -0.42622217535972595,
                    -0.044234875589609146,
                    -0.1502400040626526,
                    0.5532104969024658,
                    0.06575986742973328,
                    -0.07411804795265198,
                    0.0627729669213295,
                    0.12081034481525421,
                    0.07647774368524551
                ],
                [
                    0.04530556499958038,
                    -0.2512546181678772,
                    0.35781922936439514,
                    -0.04744596406817436,
                    -0.08030609786510468,
                    0.09712586551904678,
                    0.6870704293251038,
                    0.031246419996023178,
                    -0.346006840467453,
                    0.0688866376876831,
                    0.8345120549201965,
                    0.252526193857193,
                    0.10092796385288239,
                    0.5298967361450195,
                    0.42936408519744873
                ],
                [
                    -0.08801361918449402,
                    0.5259501338005066,
                    0.1356496661901474,
                    -0.134534552693367,
                    -0.25601619482040405,
                    0.14425961673259735,
                    -0.09518320113420486,
                    0.06077418848872185,
                    -0.17908939719200134,
                    0.3471392095088959,
                    -0.06383442133665085,
                    0.46621447801589966,
                    -0.34031420946121216,
                    0.14373376965522766,
                    -0.21923699975013733
                ],
                [
                    0.06775043159723282,
                    -1.0,
                    0.025627126917243004,
                    -0.0440094992518425,
                    0.14366798102855682,
                    -0.29866722226142883,
                    -0.14362318813800812,
                    0.09761396795511246,
                    -0.2494792938232422,
                    0.4526984989643097,
                    0.1327386051416397,
                    1.0,
                    -0.2582041323184967,
                    0.48859506845474243,
                    -0.19660118222236633
                ],
                [
                    -0.07547128200531006,
                    -0.8258533477783203,
                    -0.06343402713537216,
                    0.009417031891644001,
                    0.6025735139846802,
                    0.7901805639266968,
                    -0.16884230077266693,
                    -0.2302987277507782,
                    0.1586439460515976,
                    -0.8801907300949097,
                    -0.3663088083267212,
                    -0.422076016664505,
                    -0.09615856409072876,
                    -0.2686561346054077,
                    -0.3333609700202942
                ],
                [
                    -0.2249809056520462,
                    -0.026926616206765175,
                    -0.019073251634836197,
                    0.1205596849322319,
                    -0.1814938634634018,
                    -0.5258107781410217,
                    -0.10248841345310211,
                    -0.28034284710884094,
                    0.4032858610153198,
                    0.23672281205654144,
                    -0.03418663516640663,
                    0.7726096510887146,
                    -0.31168144941329956,
                    -0.09732744097709656,
                    0.14436693489551544
                ],
                [
                    0.2636723220348358,
                    0.4998026490211487,
                    -0.6831426024436951,
                    -0.11064305156469345,
                    0.06268317997455597,
                    -0.582451343536377,
                    0.37097087502479553,
                    0.3031640350818634,
                    -0.33807310461997986,
                    -0.548073947429657,
                    0.31467026472091675,
                    -1.0,
                    -0.31009072065353394,
                    0.06530041247606277,
                    0.46483510732650757
                ],
                [
                    -0.32055532932281494,
                    -0.2036927044391632,
                    0.16239194571971893,
                    0.026891592890024185,
                    -0.3586648404598236,
                    -0.2762297987937927,
                    0.1878998726606369,
                    0.17259956896305084,
                    -0.3541068434715271,
                    0.09382358193397522,
                    -0.4268113374710083,
                    -0.49312978982925415,
                    -0.4261634647846222,
                    0.06750059872865677,
                    -0.024043982848525047
                ],
                [
                    0.10902046412229538,
                    0.1746007800102234,
                    -0.10825560986995697,
                    0.18365778028964996,
                    -0.11157673597335815,
                    -0.29593607783317566,
                    0.02419140562415123,
                    -0.20071396231651306,
                    -0.043023087084293365,
                    -1.0,
                    -0.04571634158492088,
                    -1.0,
                    -0.2621721625328064,
                    0.05642145127058029,
                    -0.19995413720607758
                ],
                [
                    0.10019779205322266,
                    0.03491995856165886,
                    -0.028651781380176544,
                    0.22243963181972504,
                    -0.15239745378494263,
                    0.13627682626247406,
                    0.1353061944246292,
                    0.13094864785671234,
                    0.21501703560352325,
                    0.1479186862707138,
                    0.10028283298015594,
                    0.3151105046272278,
                    -0.34851908683776855,
                    -0.08329445123672485,
                    0.037189170718193054
                ],
                [
                    0.16417217254638672,
                    -0.4207419157028198,
                    -0.171755850315094,
                    0.13707736134529114,
                    0.08514595031738281,
                    -0.22481544315814972,
                    -0.06212146580219269,
                    0.11034877598285675,
                    -0.21467247605323792,
                    0.07910139113664627,
                    -0.6967970728874207,
                    0.5475205183029175,
                    0.19470271468162537,
                    -0.3264295160770416,
                    0.06110095977783203
                ],
                [
                    -0.13220763206481934,
                    -0.059344615787267685,
                    -1.0,
                    -1.0,
                    0.07552602887153625,
                    0.3010985255241394,
                    0.2593357264995575,
                    -0.03005054220557213,
                    0.5382391810417175,
                    -0.018816806375980377,
                    0.21611569821834564,
                    -0.05008829012513161,
                    -0.41212737560272217,
                    -0.02030293457210064,
                    -0.054659172892570496
                ],
                [
                    0.2296893149614334,
                    0.03304113447666168,
                    0.040032658725976944,
                    -0.0009060561424121261,
                    0.08081487566232681,
                    0.3223414719104767,
                    0.31015434861183167,
                    0.1275705099105835,
                    -0.10798832774162292,
                    -0.2490626871585846,
                    -0.49236178398132324,
                    -0.3267725110054016,
                    -0.18305231630802155,
                    0.09772766381502151,
                    0.2468140572309494
                ]
            ],
            [
                0.17621742188930511,
                -0.019067803397774696,
                0.1442476063966751,
                -0.015581977553665638,
                0.041379962116479874,
                0.05749991536140442,
                0.1616426408290863,
                0.19297382235527039,
                0.23280756175518036,
                0.013215788640081882,
                0.011350592598319054,
                -0.22449974715709686,
                -0.1002068817615509,
                -0.19953098893165588,
                0.11798245459794998
            ]
        ]
    },
    "relu2": {
        "class_name": "QActivation",
        "config": {
            "name": "relu2",
            "dtype": "float32"
        }
    },
    "encoder_output": {
        "class_name": "Dense",
        "config": {
            "name": "encoder_output",
            "trainable": true,
            "dtype": "float32",
            "units": 2,
            "activation": "relu",
            "use_bias": true,
            "kernel_initializer": {
                "class_name": "GlorotUniform",
                "config": {
                    "seed": null
                }
            },
            "bias_initializer": {
                "class_name": "Zeros",
                "config": {}
            },
            "kernel_regularizer": null,
            "bias_regularizer": null,
            "activity_regularizer": null,
            "kernel_constraint": null,
            "bias_constraint": null
        },
        "weights_and_biases": [
            [
                [
                    -0.11996491253376007,
                    -0.27303341031074524
                ],
                [
                    -0.0030480020213872194,
                    -0.6971558928489685
                ],
                [
                    -0.9340565800666809,
                    -0.20950999855995178
                ],
                [
                    -0.5477213859558105,
                    -0.4402136206626892
                ],
                [
                    0.12353534996509552,
                    -0.2679665684700012
                ],
                [
                    0.589721143245697,
                    -0.33479100465774536
                ],
                [
                    0.12991046905517578,
                    0.44724488258361816
                ],
                [
                    0.5689874887466431,
                    0.3769384026527405
                ],
                [
                    0.38640812039375305,
                    0.1507960557937622
                ],
                [
                    0.28880828619003296,
                    0.7158380746841431
                ],
                [
                    -0.06766634434461594,
                    0.23202867805957794
                ],
                [
                    -0.06530383974313736,
                    0.7272548675537109
                ],
                [
                    -0.45020976662635803,
                    0.46597927808761597
                ],
                [
                    -0.11017260700464249,
                    0.6641151309013367
                ],
                [
                    -0.05009389668703079,
                    0.3040981888771057
                ]
            ],
            [
                0.09165645390748978,
                0.07763028144836426
            ]
        ]
    },
    "fc3": {
        "class_name": "QDense",
        "config": {
            "name": "fc3",
            "trainable": true,
            "dtype": "float32",
            "units": 16,
            "activation": "linear",
            "use_bias": true,
            "kernel_initializer": {
                "class_name": "QInitializer",
                "config": {
                    "initializer": {
                        "class_name": "LecunUniform",
                        "config": {
                            "seed": null
                        },
                        "__passive_serialization__": true
                    },
                    "use_scale": true,
                    "quantizer": {
                        "class_name": "quantized_bits",
                        "config": {
                            "bits": 8,
                            "integer": 0,
                            "symmetric": 0,
                            "alpha": 1,
                            "keep_negative": true,
                            "use_stochastic_rounding": false,
                            "qnoise_factor": 1.0
                        },
                        "__passive_serialization__": true
                    }
                }
            },
            "bias_initializer": {
                "class_name": "Zeros",
                "config": {}
            },
            "kernel_regularizer": null,
            "bias_regularizer": null,
            "activity_regularizer": null,
            "kernel_constraint": {
                "class_name": "Clip",
                "config": {
                    "min_value": -1,
                    "max_value": 1
                }
            },
            "bias_constraint": {
                "class_name": "Clip",
                "config": {
                    "min_value": -1,
                    "max_value": 1
                }
            },
            "kernel_quantizer": {
                "class_name": "quantized_bits",
                "config": {
                    "bits": 8,
                    "integer": 0,
                    "symmetric": 0,
                    "alpha": 1,
                    "keep_negative": true,
                    "use_stochastic_rounding": false,
                    "qnoise_factor": 1.0
                }
            },
            "bias_quantizer": {
                "class_name": "quantized_bits",
                "config": {
                    "bits": 8,
                    "integer": 0,
                    "symmetric": 0,
                    "alpha": 1,
                    "keep_negative": true,
                    "use_stochastic_rounding": false,
                    "qnoise_factor": 1.0
                }
            },
            "kernel_range": null,
            "bias_range": null
        },
        "weights_and_biases": [
            [
                [
                    -0.9982516169548035,
                    -0.8141981363296509,
                    0.6325805187225342,
                    -0.9977025985717773,
                    -0.9384676814079285,
                    -1.0,
                    -0.5118578672409058,
                    0.4762859046459198,
                    -0.42704886198043823,
                    0.8375231027603149,
                    -1.0,
                    -1.0,
                    -0.028318557888269424,
                    0.013766014948487282,
                    0.037624336779117584,
                    -0.9099586606025696
                ],
                [
                    0.18129344284534454,
                    0.6597781181335449,
                    0.0979270339012146,
                    -0.2638082504272461,
                    0.8343636393547058,
                    -0.5465788841247559,
                    0.3801407217979431,
                    0.3407163918018341,
                    0.5269608497619629,
                    -0.9412598013877869,
                    -0.6582015752792358,
                    -0.11966526508331299,
                    1.0,
                    -0.9631640911102295,
                    -0.8149545788764954,
                    -0.29968249797821045
                ]
            ],
            [
                0.45616433024406433,
                -0.002209652913734317,
                -0.010666107758879662,
                0.0,
                -0.08442702144384384,
                0.0,
                -0.0370299406349659,
                -0.30891627073287964,
                0.019791223108768463,
                0.2923499345779419,
                0.0,
                0.0,
                0.12789848446846008,
                -0.025120878592133522,
                0.44952496886253357,
                0.0
            ]
        ]
    },
    "relu3_dec": {
        "class_name": "QActivation",
        "config": {
            "name": "relu3_dec",
            "dtype": "float32"
        }
    },
    "fc4": {
        "class_name": "QDense",
        "config": {
            "name": "fc4",
            "trainable": true,
            "dtype": "float32",
            "units": 32,
            "activation": "linear",
            "use_bias": true,
            "kernel_initializer": {
                "class_name": "QInitializer",
                "config": {
                    "initializer": {
                        "class_name": "LecunUniform",
                        "config": {
                            "seed": null
                        },
                        "__passive_serialization__": true
                    },
                    "use_scale": true,
                    "quantizer": {
                        "class_name": "quantized_bits",
                        "config": {
                            "bits": 8,
                            "integer": 0,
                            "symmetric": 0,
                            "alpha": 1,
                            "keep_negative": true,
                            "use_stochastic_rounding": false,
                            "qnoise_factor": 1.0
                        },
                        "__passive_serialization__": true
                    }
                }
            },
            "bias_initializer": {
                "class_name": "Zeros",
                "config": {}
            },
            "kernel_regularizer": null,
            "bias_regularizer": null,
            "activity_regularizer": null,
            "kernel_constraint": {
                "class_name": "Clip",
                "config": {
                    "min_value": -1,
                    "max_value": 1
                }
            },
            "bias_constraint": {
                "class_name": "Clip",
                "config": {
                    "min_value": -1,
                    "max_value": 1
                }
            },
            "kernel_quantizer": {
                "class_name": "quantized_bits",
                "config": {
                    "bits": 8,
                    "integer": 0,
                    "symmetric": 0,
                    "alpha": 1,
                    "keep_negative": true,
                    "use_stochastic_rounding": false,
                    "qnoise_factor": 1.0
                }
            },
            "bias_quantizer": {
                "class_name": "quantized_bits",
                "config": {
                    "bits": 8,
                    "integer": 0,
                    "symmetric": 0,
                    "alpha": 1,
                    "keep_negative": true,
                    "use_stochastic_rounding": false,
                    "qnoise_factor": 1.0
                }
            },
            "kernel_range": null,
            "bias_range": null
        },
        "weights_and_biases": [
            [
                [
                    0.42689239978790283,
                    -0.17901527881622314,
                    -0.5726681351661682,
                    -0.23552139103412628,
                    -0.48296859860420227,
                    -0.0737524926662445,
                    0.4585818648338318,
                    -0.11858421564102173,
                    -0.6066866517066956,
                    -0.25591331720352173,
                    -0.20546893775463104,
                    -0.842959463596344,
                    -0.39705225825309753,
                    -0.4073716700077057,
                    0.8919552564620972,
                    -0.4719211757183075,
                    -0.9999708533287048,
                    0.8391744494438171,
                    0.11991619318723679,
                    0.653389036655426,
                    0.6392935514450073,
                    -0.19998258352279663,
                    -0.16316676139831543,
                    0.45618683099746704,
                    -0.28313207626342773,
                    0.1924150586128235,
                    0.4973011612892151,
                    -0.11965873837471008,
                    -0.005094707012176514,
                    -0.9511970281600952,
                    -0.28314825892448425,
                    -0.3077833354473114
                ],
                [
                    -0.9990711212158203,
                    0.10625766962766647,
                    -0.8659958839416504,
                    -0.04142776131629944,
                    -0.015000549145042896,
                    -0.30414241552352905,
                    0.2215079665184021,
                    0.03941214084625244,
                    -0.2486952543258667,
                    -0.10789942741394043,
                    -0.14300987124443054,
                    0.6498693227767944,
                    -0.3615301251411438,
                    -0.022317174822092056,
                    0.15138691663742065,
                    -0.09886336326599121,
                    -0.47721460461616516,
                    -0.009312381036579609,
                    0.23595404624938965,
                    -0.566912055015564,
                    0.1892256885766983,
                    0.01202726922929287,
                    0.4068050980567932,
                    -0.6902612447738647,
                    0.12326166033744812,
                    -0.4049761891365051,
                    -0.037374287843704224,
                    0.07602092623710632,
                    -0.14648568630218506,
                    0.09540042281150818,
                    0.6639498472213745,
                    0.45115897059440613
                ],
                [
                    -0.2861224114894867,
                    0.48419275879859924,
                    0.4882148802280426,
                    -0.36729493737220764,
                    0.0911376103758812,
                    -0.2427549809217453,
                    -0.001129391836002469,
                    -0.17062634229660034,
                    0.3160112202167511,
                    0.249132439494133,
                    -0.29572561383247375,
                    -0.02542749233543873,
                    0.4155767858028412,
                    -0.3084956705570221,
                    -0.7735098600387573,
                    0.51750248670578,
                    0.401376336812973,
                    -0.32246050238609314,
                    0.45851030945777893,
                    0.4326017200946808,
                    0.6052882075309753,
                    0.04140596464276314,
                    -0.10540536046028137,
                    0.16639740765094757,
                    -0.3930962383747101,
                    -0.0392102412879467,
                    -0.3169001042842865,
                    0.10061022639274597,
                    -0.40886980295181274,
                    0.4704601764678955,
                    0.25402602553367615,
                    -0.13108167052268982
                ],
                [
                    -0.32567110657691956,
                    0.24403026700019836,
                    0.42716744542121887,
                    -0.04953092336654663,
                    0.08016917109489441,
                    0.0675133764743805,
                    -0.09967994689941406,
                    -0.09392669796943665,
                    0.18070247769355774,
                    0.29712942242622375,
                    -0.2172195166349411,
                    -0.10508447885513306,
                    0.06720492243766785,
                    -0.2666177749633789,
                    0.1498020589351654,
                    0.09711262583732605,
                    0.17765560746192932,
                    0.23499682545661926,
                    0.0607050359249115,
                    0.2611663043498993,
                    -0.22458918392658234,
                    0.30262133479118347,
                    -0.13836157321929932,
                    0.20944568514823914,
                    0.00034862756729125977,
                    0.009511351585388184,
                    0.3229769170284271,
                    -0.20561419427394867,
                    -0.2527461647987366,
                    -0.4237310588359833,
                    -0.10472127795219421,
                    -0.26338261365890503
                ],
                [
                    -0.394277960062027,
                    0.25478827953338623,
                    -0.9999001026153564,
                    -0.4121871590614319,
                    0.3294021785259247,
                    -0.08075389266014099,
                    0.28764551877975464,
                    -0.16634607315063477,
                    0.2594831883907318,
                    0.200438991189003,
                    0.10651454329490662,
                    -0.20900489389896393,
                    -0.43635281920433044,
                    0.2068210244178772,
                    -0.08305883407592773,
                    -0.13924232125282288,
                    -0.03653654456138611,
                    0.11853103339672089,
                    0.04476740583777428,
                    -0.6865754723548889,
                    -0.31295228004455566,
                    -0.1917552500963211,
                    -0.10964267700910568,
                    -0.46045541763305664,
                    -0.25809505581855774,
                    -0.48334991931915283,
                    0.2541719973087311,
                    -0.2135232836008072,
                    0.360410213470459,
                    -0.5519945621490479,
                    0.5496333241462708,
                    0.464727520942688
                ],
                [
                    0.4234059751033783,
                    0.41054072976112366,
                    -0.019344180822372437,
                    0.2787058651447296,
                    -0.13539090752601624,
                    0.21095934510231018,
                    0.25062814354896545,
                    0.09567967057228088,
                    0.006108194589614868,
                    -0.36578765511512756,
                    -0.07151490449905396,
                    0.3320869505405426,
                    0.37535223364830017,
                    0.0740329921245575,
                    -0.39169561862945557,
                    0.04772922396659851,
                    -0.3466026782989502,
                    -0.10895466804504395,
                    -0.17660847306251526,
                    0.0012272000312805176,
                    -0.1139289140701294,
                    -0.08198469877243042,
                    0.32255205512046814,
                    0.053647369146347046,
                    0.4085148870944977,
                    -0.04736924171447754,
                    -0.3355134427547455,
                    0.40491393208503723,
                    -0.06201121211051941,
                    0.29207417368888855,
                    0.17408344149589539,
                    0.22790345549583435
                ],
                [
                    -0.9466022849082947,
                    -0.0650109052658081,
                    0.16696462035179138,
                    0.33413931727409363,
                    0.3478730618953705,
                    -0.21504800021648407,
                    0.3851863443851471,
                    0.09350576996803284,
                    -0.4093427360057831,
                    0.22164559364318848,
                    0.003782033920288086,
                    0.0009258898789994419,
                    0.2627047896385193,
                    -0.029661361128091812,
                    -0.4737435579299927,
                    -0.07024276256561279,
                    -0.1738828420639038,
                    0.33070215582847595,
                    0.44479045271873474,
                    0.050252556800842285,
                    0.07661058753728867,
                    0.8786275386810303,
                    0.08318501710891724,
                    -0.48883968591690063,
                    0.27288123965263367,
                    -0.5881985425949097,
                    -0.28033211827278137,
                    -0.31298890709877014,
                    -0.0478900671005249,
                    0.2693723142147064,
                    -0.0053715272806584835,
                    0.585250735282898
                ],
                [
                    -0.594798743724823,
                    0.6182623505592346,
                    0.07559826970100403,
                    0.2171982228755951,
                    0.03331989422440529,
                    -0.24651822447776794,
                    0.28381890058517456,
                    0.07108303904533386,
                    0.18842813372612,
                    0.06605108827352524,
                    -0.21296310424804688,
                    -0.9992491006851196,
                    0.3057214915752411,
                    -0.23726069927215576,
                    -0.9991688132286072,
                    0.5251142978668213,
                    0.15567153692245483,
                    0.010077638551592827,
                    0.47258225083351135,
                    -0.6990348696708679,
                    0.4610286355018616,
                    -0.056279782205820084,
                    0.41137686371803284,
                    -0.8396971821784973,
                    -0.20632705092430115,
                    0.34424686431884766,
                    -0.4221358299255371,
                    -0.006118118762969971,
                    0.26194941997528076,
                    0.4149058163166046,
                    0.0767519623041153,
                    0.14345519244670868
                ],
                [
                    -0.46685507893562317,
                    -0.12363514304161072,
                    -0.27308791875839233,
                    -0.3385774493217468,
                    -1.0,
                    0.24221226572990417,
                    0.38600385189056396,
                    -0.2428731918334961,
                    0.29071012139320374,
                    -0.6027779579162598,
                    0.09251710772514343,
                    -1.0,
                    -0.056384939700365067,
                    -0.16409939527511597,
                    0.1509973555803299,
                    0.3553526997566223,
                    0.365158349275589,
                    -0.06856082379817963,
                    -0.038370098918676376,
                    -0.12882138788700104,
                    0.884591817855835,
                    0.26958948373794556,
                    0.2054244428873062,
                    -0.002355597447603941,
                    -0.13865426182746887,
                    0.4366544187068939,
                    -0.05065197870135307,
                    -0.23764386773109436,
                    -0.05087802931666374,
                    -0.3527950942516327,
                    0.18387119472026825,
                    0.42352500557899475
                ],
                [
                    0.4565194249153137,
                    -0.39999204874038696,
                    0.2982516288757324,
                    -0.29819682240486145,
                    0.6222484707832336,
                    -0.2364518791437149,
                    0.15435372292995453,
                    -0.30775463581085205,
                    0.1415250152349472,
                    0.6667062640190125,
                    0.11731615662574768,
                    0.33549556136131287,
                    0.0032902841921895742,
                    -0.10343566536903381,
                    -0.5592750310897827,
                    0.6448167562484741,
                    -0.13754408061504364,
                    -0.27520084381103516,
                    0.10539625585079193,
                    -0.210618793964386,
                    -0.6336506605148315,
                    -0.5323615074157715,
                    -0.02238360047340393,
                    0.8710227012634277,
                    -0.19182537496089935,
                    -0.9629177451133728,
                    -0.20380599796772003,
                    -0.3003818690776825,
                    -0.32982221245765686,
                    0.4027760624885559,
                    0.3609588146209717,
                    0.0715130865573883
                ],
                [
                    -0.006250977516174316,
                    0.37678417563438416,
                    0.0874088704586029,
                    -0.4156712591648102,
                    0.19545593857765198,
                    -0.04341614246368408,
                    0.016560345888137817,
                    0.37605634331703186,
                    -0.09558150172233582,
                    -0.3999158442020416,
                    0.15449461340904236,
                    -0.42952200770378113,
                    0.10943564772605896,
                    0.07108679413795471,
                    0.16243264079093933,
                    -0.09052851796150208,
                    -0.2950146198272705,
                    -0.3461087942123413,
                    -0.2712937593460083,
                    -0.2514578700065613,
                    0.02168789505958557,
                    -0.14160564541816711,
                    -0.1651225984096527,
                    -0.10039424896240234,
                    -0.28784698247909546,
                    0.27779439091682434,
                    0.326095849275589,
                    -0.27849772572517395,
                    0.25258204340934753,
                    -0.1336386501789093,
                    0.007575511932373047,
                    0.028230905532836914
                ],
                [
                    -0.21243876218795776,
                    0.4260813891887665,
                    -0.20101162791252136,
                    0.28962185978889465,
                    0.40315982699394226,
                    -0.15517517924308777,
                    0.19070658087730408,
                    -0.03322291374206543,
                    0.3336394727230072,
                    0.03175660967826843,
                    -0.352963387966156,
                    0.3423629701137543,
                    -0.29605424404144287,
                    -0.17907297611236572,
                    0.10381528735160828,
                    0.39642223715782166,
                    0.302521675825119,
                    0.08902999758720398,
                    -0.21605323255062103,
                    -0.10605451464653015,
                    -0.12002038955688477,
                    0.007856935262680054,
                    0.11914989352226257,
                    0.005746334791183472,
                    0.39157572388648987,
                    0.4116261899471283,
                    -0.17219814658164978,
                    -0.4206331968307495,
                    0.34613141417503357,
                    -0.2896823585033417,
                    0.24562647938728333,
                    -0.13345661759376526
                ],
                [
                    -0.7978515625,
                    -0.10381747782230377,
                    0.002962788101285696,
                    -0.0010811090469360352,
                    -0.8125710487365723,
                    -0.21122664213180542,
                    -0.2093987613916397,
                    -0.22827158868312836,
                    0.24852228164672852,
                    -0.9961726665496826,
                    -0.4307613670825958,
                    -0.4164407551288605,
                    0.16472338140010834,
                    0.1134159117937088,
                    0.223842054605484,
                    -0.4942367672920227,
                    0.3618742823600769,
                    0.5155506730079651,
                    -0.4180271029472351,
                    -0.1332053244113922,
                    0.604713499546051,
                    0.4016450047492981,
                    0.3631466329097748,
                    -0.43490248918533325,
                    -0.3041309714317322,
                    0.43353620171546936,
                    0.38467690348625183,
                    -0.2671223282814026,
                    -0.3849309980869293,
                    -0.24352040886878967,
                    -0.11954154819250107,
                    -0.5480789542198181
                ],
                [
                    0.2791178524494171,
                    -0.41020333766937256,
                    -0.12459824979305267,
                    0.3278801143169403,
                    -0.054348066449165344,
                    -0.042545199394226074,
                    -0.2316150665283203,
                    -0.2692234218120575,
                    0.4237251579761505,
                    -0.16499891877174377,
                    -0.05152478814125061,
                    0.15197189152240753,
                    -0.25296229124069214,
                    -0.01414838433265686,
                    -0.05779939889907837,
                    -0.2778976857662201,
                    -0.35872945189476013,
                    0.16873499751091003,
                    0.1659708172082901,
                    0.11890281736850739,
                    -0.1382017880678177,
                    0.16267941892147064,
                    -0.1534310132265091,
                    0.3911735713481903,
                    0.04964420199394226,
                    -0.04826226457953453,
                    -0.38069668412208557,
                    -0.13905739784240723,
                    -0.27557164430618286,
                    0.334225058555603,
                    -0.3776489794254303,
                    -0.04625912010669708
                ],
                [
                    0.998361349105835,
                    0.017472997307777405,
                    0.5382810235023499,
                    0.2511538565158844,
                    0.8177870512008667,
                    -0.19224101305007935,
                    0.7068734169006348,
                    -0.26622724533081055,
                    -0.1481570452451706,
                    0.36681511998176575,
                    -0.03739774227142334,
                    0.8748024106025696,
                    0.3653423488140106,
                    0.15496662259101868,
                    0.5246530175209045,
                    -0.34777355194091797,
                    0.27371689677238464,
                    1.0,
                    0.13681863248348236,
                    0.34810692071914673,
                    0.44272473454475403,
                    -1.0,
                    -0.7001501321792603,
                    0.6014782190322876,
                    -0.19967778027057648,
                    0.8275049924850464,
                    -0.20625874400138855,
                    -0.2837287187576294,
                    0.1266641914844513,
                    -0.5978537201881409,
                    0.22947777807712555,
                    -0.09828943014144897
                ],
                [
                    -0.005424976348876953,
                    0.4009605348110199,
                    0.2423897087574005,
                    -0.0389426052570343,
                    -0.2950077950954437,
                    0.10745999217033386,
                    0.36218222975730896,
                    -0.20451697707176208,
                    0.15727904438972473,
                    -0.04571917653083801,
                    -0.2364756166934967,
                    0.19959363341331482,
                    0.25666192173957825,
                    0.2456589639186859,
                    0.3766005337238312,
                    0.11246922612190247,
                    0.37006375193595886,
                    0.24169597029685974,
                    -0.10056760907173157,
                    -0.24753068387508392,
                    0.1723380982875824,
                    -0.2786814868450165,
                    0.09261837601661682,
                    0.19691875576972961,
                    -0.32185685634613037,
                    0.08983805775642395,
                    -0.12318804860115051,
                    -0.3310537338256836,
                    0.40360960364341736,
                    -0.00728800892829895,
                    -0.19445155560970306,
                    -0.04885473847389221
                ]
            ],
            [
                0.206273153424263,
                0.04426804557442665,
                0.062410201877355576,
                0.0,
                0.11136000603437424,
                0.0,
                0.035616178065538406,
                0.0,
                0.0825909823179245,
                -0.2368667870759964,
                0.0,
                0.09392530471086502,
                0.21332578361034393,
                -0.01197637990117073,
                0.15386345982551575,
                -0.2127322256565094,
                -0.08847947418689728,
                -0.07042580842971802,
                -0.060507748275995255,
                0.5027403235435486,
                0.19589340686798096,
                -0.18317358195781708,
                -0.20389226078987122,
                0.2596603035926819,
                0.0,
                0.058478839695453644,
                0.27715355157852173,
                0.0,
                -0.004943212028592825,
                0.09857355803251266,
                -0.26809316873550415,
                -0.10691941529512405
            ]
        ]
    },
    "relu4": {
        "class_name": "QActivation",
        "config": {
            "name": "relu4",
            "dtype": "float32"
        }
    },
    "fc5": {
        "class_name": "QDense",
        "config": {
            "name": "fc5",
            "trainable": true,
            "dtype": "float32",
            "units": 32,
            "activation": "linear",
            "use_bias": true,
            "kernel_initializer": {
                "class_name": "QInitializer",
                "config": {
                    "initializer": {
                        "class_name": "LecunUniform",
                        "config": {
                            "seed": null
                        },
                        "__passive_serialization__": true
                    },
                    "use_scale": true,
                    "quantizer": {
                        "class_name": "quantized_bits",
                        "config": {
                            "bits": 8,
                            "integer": 0,
                            "symmetric": 0,
                            "alpha": 1,
                            "keep_negative": true,
                            "use_stochastic_rounding": false,
                            "qnoise_factor": 1.0
                        },
                        "__passive_serialization__": true
                    }
                }
            },
            "bias_initializer": {
                "class_name": "Zeros",
                "config": {}
            },
            "kernel_regularizer": null,
            "bias_regularizer": null,
            "activity_regularizer": null,
            "kernel_constraint": {
                "class_name": "Clip",
                "config": {
                    "min_value": -1,
                    "max_value": 1
                }
            },
            "bias_constraint": {
                "class_name": "Clip",
                "config": {
                    "min_value": -1,
                    "max_value": 1
                }
            },
            "kernel_quantizer": {
                "class_name": "quantized_bits",
                "config": {
                    "bits": 8,
                    "integer": 0,
                    "symmetric": 0,
                    "alpha": 1,
                    "keep_negative": true,
                    "use_stochastic_rounding": false,
                    "qnoise_factor": 1.0
                }
            },
            "bias_quantizer": {
                "class_name": "quantized_bits",
                "config": {
                    "bits": 8,
                    "integer": 0,
                    "symmetric": 0,
                    "alpha": 1,
                    "keep_negative": true,
                    "use_stochastic_rounding": false,
                    "qnoise_factor": 1.0
                }
            },
            "kernel_range": null,
            "bias_range": null
        },
        "weights_and_biases": [
            [
                [
                    0.08631756156682968,
                    0.13895057141780853,
                    -0.6005423665046692,
                    -0.12957344949245453,
                    0.1305803656578064,
                    -0.44035059213638306,
                    0.05400621145963669,
                    0.2905524671077728,
                    0.724914014339447,
                    0.6287798881530762,
                    0.4386950433254242,
                    -0.10158981382846832,
                    0.5572956204414368,
                    0.008947372436523438,
                    -0.15368232131004333,
                    0.0065476056188344955,
                    -0.4109545946121216,
                    0.4250491261482239,
                    -0.20392921566963196,
                    -0.29518306255340576,
                    -0.17813284695148468,
                    -0.4597250521183014,
                    -0.09743242710828781,
                    0.4768633544445038,
                    -0.11760999262332916,
                    0.37102898955345154,
                    0.006092929746955633,
                    0.9934496879577637,
                    -0.3417295217514038,
                    -0.1084674745798111,
                    -0.42084911465644836,
                    0.2023264467716217
                ],
                [
                    -0.06564338505268097,
                    0.14956244826316833,
                    -0.28309014439582825,
                    0.1421443223953247,
                    -0.271251380443573,
                    0.18972977995872498,
                    0.23600497841835022,
                    -0.16802380979061127,
                    -0.15102235972881317,
                    -0.22279056906700134,
                    0.9705340266227722,
                    -0.3266846835613251,
                    0.2651374638080597,
                    0.21285918354988098,
                    0.54542076587677,
                    -0.04140649735927582,
                    -0.10861163586378098,
                    0.24521677196025848,
                    0.14194543659687042,
                    -1.0,
                    0.23418447375297546,
                    0.09369364380836487,
                    0.18636392056941986,
                    0.138824924826622,
                    -0.03606535494327545,
                    -0.03656664863228798,
                    0.13843634724617004,
                    0.28707200288772583,
                    0.2626844346523285,
                    -0.16132581233978271,
                    -0.14896339178085327,
                    0.2928081750869751
                ],
                [
                    -0.24511505663394928,
                    0.8389577865600586,
                    -0.409587025642395,
                    0.17021077871322632,
                    0.5662192702293396,
                    -0.623185932636261,
                    -0.3377547860145569,
                    -0.21930842101573944,
                    -0.7840126752853394,
                    0.2291543036699295,
                    -0.016310812905430794,
                    -0.04845428466796875,
                    -0.06856407970190048,
                    -0.03023242950439453,
                    -0.16068598628044128,
                    0.27531012892723083,
                    0.3928816616535187,
                    0.021627217531204224,
                    0.05276184529066086,
                    -0.7340649366378784,
                    -0.5579168796539307,
                    -0.9145214557647705,
                    -0.07888802140951157,
                    0.1404692828655243,
                    -0.17650699615478516,
                    -0.9213200211524963,
                    -0.5165526270866394,
                    -0.03566550090909004,
                    0.5205110311508179,
                    -0.058102793991565704,
                    -0.3055032789707184,
                    0.31224122643470764
                ],
                [
                    0.028209805488586426,
                    -0.1314857006072998,
                    0.015947043895721436,
                    -0.2976032793521881,
                    0.28099337220191956,
                    0.022135049104690552,
                    0.2935998737812042,
                    -0.18263356387615204,
