{"class_name": "QDense", "config": {"name": "decoder_output", "trainable": true, "dtype": "float32", "units": 64, "activation": "linear", "use_bias": true, "kernel_initializer": {"class_name": "QInitializer", "config": {"initializer": {"class_name": "LecunUniform", "config": {"seed": null}, "__passive_serialization__": true}, "use_scale": true, "quantizer": {"class_name": "quantized_bits", "config": {"bits": 8, "integer": 0, "symmetric": 0, "alpha": 1, "keep_negative": true, "use_stochastic_rounding": false, "qnoise_factor": 1.0}, "__passive_serialization__": true}}}, "bias_initializer": {"class_name": "Zeros", "config": {}}, "kernel_regularizer": null, "bias_regularizer": null, "activity_regularizer": null, "kernel_constraint": {"class_name": "Clip", "config": {"min_value": -1, "max_value": 1}}, "bias_constraint": {"class_name": "Clip", "config": {"min_value": -1, "max_value": 1}}, "kernel_quantizer": {"class_name": "quantized_bits", "config": {"bits": 8, "integer": 0, "symmetric": 0, "alpha": 1, "keep_negative": true, "use_stochastic_rounding": false, "qnoise_factor": 1.0}}, "bias_quantizer": {"class_name": "quantized_bits", "config": {"bits": 8, "integer": 0, "symmetric": 0, "alpha": 1, "keep_negative": true, "use_stochastic_rounding": false, "qnoise_factor": 1.0}}, "kernel_range": null, "bias_range": null}, "weights_and_biases": [[[-0.12784574925899506, 0.012386933900415897, -0.22726276516914368, 0.0878913402557373, -0.10147260129451752, 0.017253432422876358, -0.31108641624450684, -0.30921512842178345, -0.134649395942688, 0.012019970454275608, -0.07016709446907043, 0.07627923786640167, 0.13256530463695526, 0.2138148695230484, -0.17840297520160675, -0.03679104521870613, -0.6302403807640076, -0.0033116135746240616, 0.04052295908331871, 0.10339054465293884, 0.11178242415189743, 0.3534042239189148, 0.11520618200302124, -0.19917337596416473, 0.0006552740233018994, -0.45469191670417786, -0.20478259027004242, 0.025220129638910294, -0.19385719299316406, -0.13540363311767578, -0.025035269558429718, -0.8214454650878906, 0.16622398793697357, -0.2742755115032196, 0.06350543349981308, -0.2811838686466217, 0.14490799605846405, 0.11061523109674454, 0.07182791829109192, -0.20814739167690277, -0.15236879885196686, 0.040136270225048065, 0.03572583943605423, -0.13050268590450287, 0.4998086094856262, 0.021187396720051765, -0.34102383255958557, -0.09211574494838715, -0.2346242368221283, -0.0713706687092781, -0.007024556864053011, 0.2289671003818512, 0.14453713595867157, 0.02074514888226986, 0.1648596227169037, -0.19932131469249725, -0.2999395430088043, -0.1834486573934555, 0.44615569710731506, 0.35395392775535583, -0.28012868762016296, -0.43626588582992554, 0.16799934208393097, 0.08255863934755325], [0.1611649990081787, 0.17752346396446228, -0.21540088951587677, -0.04826733469963074, 0.12491971254348755, 0.4161880910396576, 0.18060238659381866, 0.21040740609169006, -0.189153790473938, -0.07774945348501205, -0.30454587936401367, -0.5685241222381592, -0.26885125041007996, 0.004052335862070322, -0.09763654321432114, 0.11149517446756363, -0.38164597749710083, -0.2349996268749237, -0.2703114151954651, -0.2030235230922699, 0.6294637322425842, -0.13461394608020782, 0.03831179067492485, -0.5395510792732239, 0.0660107210278511, -0.14275558292865753, -0.3565077483654022, 0.029624231159687042, 0.2066005915403366, 0.06740926951169968, -0.13504986464977264, -0.7092365026473999, -0.31165167689323425, -0.4924919307231903, -0.08791132271289825, 0.20082129538059235, -0.23319821059703827, -0.2646311819553375, -0.32378003001213074, -0.7319614887237549, -0.4013209640979767, -0.14134202897548676, 0.3844623267650604, 0.3385436534881592, -0.09205660969018936, -0.2590451240539551, -0.3685074746608734, -0.08208183199167252, -0.37480807304382324, 0.03518564626574516, 0.47345030307769775, -0.18657253682613373, -0.007579328026622534, -0.23779623210430145, -0.1450044959783554, 0.08074280619621277, 0.17602016031742096, 0.05912158638238907, 0.25862663984298706, 0.3614085912704468, 0.16283069550991058, 0.12158255279064178, -0.08731532841920853, -0.3262327313423157], [0.08131173253059387, -0.16021832823753357, -0.12513934075832367, -0.19604834914207458, -0.5130516290664673, -0.04374746233224869, -0.03347816318273544, -0.3210524916648865, -0.017613207921385765, -0.11354318261146545, -0.04726419597864151, 0.1742832064628601, 0.21924777328968048, -0.04651392251253128, 0.200864776968956, 0.4684416353702545, -0.01735118217766285, -0.0843154713511467, 0.3749037981033325, 0.3159334361553192, 0.19532953202724457, -0.04697435349225998, 0.3651191294193268, 0.30089470744132996, 0.11648012697696686, 0.4111883342266083, 0.6418548822402954, -0.2414948046207428, 0.12669315934181213, -0.18358096480369568, 0.4793168902397156, -0.30077430605888367, 0.27539363503456116, 0.022978808730840683, 0.4207458794116974, -0.0021133250556886196, -0.1273541897535324, 0.4101991653442383, 0.582351803779602, -0.6841735243797302, 0.15375331044197083, -0.09966763108968735, -0.23137743771076202, -0.652728796005249, -0.6079002022743225, 0.23080214858055115, 0.04926695674657822, -0.41604533791542053, 0.24489252269268036, 0.13804009556770325, -0.20211008191108704, -0.21838349103927612, 0.10361422598361969, 0.34457752108573914, -0.3174811005592346, -0.42204517126083374, -0.2047353982925415, 0.22951170802116394, 0.7547441124916077, 0.8504890203475952, 0.8547190427780151, 0.5138565897941589, -0.11775484681129456, -0.05058258771896362], [-0.2768431007862091, -0.11851400136947632, -0.061581842601299286, 0.05122436583042145, 0.06397435069084167, -0.06265512108802795, 0.2013251930475235, -0.30505460500717163, -0.30262497067451477, -0.16482692956924438, 0.02335486002266407, -0.33931824564933777, 0.005314643494784832, -0.33923137187957764, -0.17340494692325592, -0.1702808141708374, -0.5134207606315613, 0.15486907958984375, 0.0013528455747291446, 0.11467548459768295, 0.11887631565332413, -0.04702502116560936, 0.1587037891149521, -0.2398267388343811, -0.2498176544904709, -0.04759320989251137, 0.33717140555381775, -0.2530672252178192, 0.21619874238967896, -0.15357209742069244, 0.19237425923347473, -0.004384297877550125, 0.01442402321845293, 0.1400931477546692, -0.11807029694318771, 0.41043463349342346, 0.2117961198091507, 0.21708574891090393, 0.25052404403686523, -0.15811550617218018, -0.03141507878899574, -0.324334979057312, -0.22575026750564575, 0.05661297217011452, 0.059299372136592865, -0.19717097282409668, -0.03692096099257469, -0.3179512023925781, -0.06840607523918152, -0.2641468942165375, 0.36768871545791626, 0.33210429549217224, 0.36724093556404114, -0.053693320602178574, -0.40614840388298035, 0.03252668306231499, 0.046058569103479385, 0.07091755419969559, 0.5539250373840332, 0.4015141427516937, -0.02156836912035942, 0.20239226520061493, -0.3791961073875427, 0.18824179470539093], [-0.20737767219543457, 0.09151992946863174, 0.017269877716898918, 0.091483473777771, 0.07281312346458435, -0.4730084538459778, -0.2838747799396515, 0.03988604247570038, -0.006913414224982262, 0.07785449177026749, 0.40354782342910767, 0.30772480368614197, 0.1990707814693451, -0.15685056149959564, -0.71760094165802, -0.13743595778942108, 0.006225560791790485, 0.14279372990131378, 0.05763113126158714, -0.24232900142669678, 0.1802724301815033, -0.04848019406199455, -0.5058326125144958, -0.22353486716747284, 0.16056197881698608, -0.1712651550769806, -0.22634461522102356, -0.2185409665107727, 0.4660450518131256, 0.06968726962804794, -0.6050630211830139, -0.5255094766616821, -0.2398684322834015, -0.3469511568546295, -0.5279327034950256, 0.20418289303779602, 0.15588511526584625, -0.42651039361953735, -0.632101833820343, 0.39043131470680237, -0.3630703389644623, -0.013805338181555271, -0.28451234102249146, 0.1877870261669159, 0.14361035823822021, -0.34663206338882446, -0.5090882182121277, 0.4971480071544647, -0.3396257758140564, -0.15640291571617126, -0.24663645029067993, 0.3651370406150818, -0.053995274007320404, -0.2975327968597412, -0.006409166380763054, 0.09704176336526871, -0.2934648394584656, -0.22826258838176727, -0.47511234879493713, -0.056999340653419495, -0.009038449265062809, 0.24705666303634644, 0.10051484405994415, 0.033385563641786575], [-0.3039717674255371, -0.281528115272522, -0.10611861944198608, -0.22447723150253296, 0.21570153534412384, 0.1919841319322586, 0.3349235951900482, 0.02649853564798832, 0.07783472537994385, 0.2587123215198517, 0.409699410200119, 0.07628476619720459, 0.3209485709667206, 0.21611711382865906, 0.09995860606431961, -0.09904780238866806, 0.11128688603639603, 0.38800662755966187, -0.19166307151317596, -0.0036854089703410864, -0.20770259201526642, -0.01274355873465538, -0.07333969324827194, -0.13428932428359985, -0.11733561754226685, -0.07922852784395218, 0.03643933683633804, -0.10207219421863556, -0.05380615219473839, 0.07938399910926819, 0.29524537920951843, -0.18666134774684906, -0.21692349016666412, -0.11435610800981522, 0.3109383285045624, 0.01534165721386671, 0.034795187413692474, 0.32162949442863464, 0.34144219756126404, -0.3777918219566345, 0.06580080837011337, -0.07335350662469864, -0.0338854119181633, 0.3771800100803375, -0.05339972674846649, 0.4406205117702484, 0.08342503011226654, 0.2092045545578003, 0.10607245564460754, -0.16346542537212372, -0.08218450844287872, -0.432265967130661, 0.07349970936775208, -0.0987827256321907, 0.1157943457365036, 0.32066139578819275, -0.258958637714386, -0.0577421598136425, 0.10985436290502548, 0.4316761791706085, 0.12215211242437363, -0.06894412636756897, 0.21563276648521423, 0.05493757128715515], [-0.1759960651397705, 0.23609735071659088, -0.08844980597496033, -0.0849914699792862, -0.21209952235221863, -0.22918032109737396, -0.033140879124403, -0.06877263635396957, -0.09590255469083786, -0.06327207386493683, -0.07811452448368073, 0.37014421820640564, 0.048394035547971725, -0.12805354595184326, 0.26296183466911316, 0.12866783142089844, 0.07241474092006683, 0.11277969181537628, 0.20419375598430634, 0.37134549021720886, -0.402832567691803, 0.04887387901544571, 0.14931225776672363, -0.1917220652103424, -0.023420676589012146, -0.013756961561739445, 0.2182939201593399, -0.21680998802185059, -0.3506481349468231, -0.16350187361240387, 0.23760704696178436, -0.021102307364344597, -0.39881929755210876, 0.22629229724407196, 0.22074036300182343, 0.131859689950943, 0.04720413312315941, 0.37243369221687317, 0.02717461809515953, -0.32114189863204956, -0.1425042599439621, -0.07518057525157928, 0.3023781180381775, -0.10706967860460281, 0.4417044222354889, 0.11887025088071823, 0.13036653399467468, -0.16250009834766388, -0.1711554229259491, -0.3435654938220978, -0.006432787049561739, -0.48942622542381287, 0.11890126019716263, 0.3066275119781494, 0.2239261120557785, 0.06621818244457245, 0.2712846100330353, 0.13509541749954224, -0.3283253610134125, -0.6961904168128967, 0.39922329783439636, 0.10421694815158844, -0.12147335708141327, -0.17373235523700714], [0.192914217710495, -0.03603866696357727, -0.12828652560710907, 0.2069261372089386, 0.3051837980747223, -0.023004256188869476, -0.27361831068992615, -0.30458423495292664, -0.1440376192331314, 0.2222946584224701, 0.19694843888282776, -0.009877091273665428, 0.0931980088353157, 0.30171361565589905, -0.10167790949344635, 0.10301609337329865, -0.22858735918998718, -0.18719041347503662, -0.15490563213825226, -0.23071640729904175, -0.26152580976486206, 0.047735121101140976, 0.06989530473947525, -0.10159694403409958, 0.2553829848766327, 0.1519051343202591, -0.04862108826637268, -0.2954411506652832, 0.22473455965518951, 0.1350974142551422, 0.13089323043823242, 0.1562163382768631, -0.30472972989082336, -0.2932782769203186, -0.0401650071144104, -0.0910220667719841, -0.03402744233608246, -0.029748152941465378, 0.2761387526988983, 0.10928428173065186, 0.04568880796432495, 0.09323474764823914, 0.10582932829856873, 0.052527256309986115, 0.3008621037006378, 0.12076814472675323, 0.15523897111415863, -0.23124399781227112, -0.1485842615365982, -0.06151966750621796, 0.11237873882055283, 0.040926720947027206, -0.20559468865394592, 0.06990131735801697, 0.04930636286735535, 0.09000064432621002, -0.007460147142410278, -0.07498413324356079, 0.1698215752840042, -0.1298605501651764, -0.13935402035713196, -0.13022366166114807, 0.3049067258834839, -0.28605321049690247], [-0.22405892610549927, -0.14441949129104614, -0.22555223107337952, -0.030766338109970093, -0.08620830625295639, -0.43572181463241577, -0.491437166929245, 0.003690627170726657, -0.27365532517433167, 0.24693670868873596, 0.5131401419639587, -0.2897583842277527, -0.21540620923042297, 0.060301315039396286, 0.31689825654029846, -0.09016875177621841, 0.3499200642108917, 0.710292637348175, 0.015515806153416634, -0.39202481508255005, 0.19192606210708618, 0.07396566867828369, 0.8355035185813904, 0.020407283678650856, -0.26247668266296387, 0.6387496590614319, -0.7880237698554993, 0.1378714144229889, -0.031024139374494553, 0.017342014238238335, 0.6436147093772888, 0.57746422290802, -0.10197320580482483, 0.5169435739517212, -0.6433191299438477, -0.5825892090797424, -0.4531102180480957, 0.07853400707244873, 0.2641630172729492, 0.016477471217513084, 0.2905591130256653, 0.3444216251373291, -0.1331382393836975, -0.18517601490020752, 0.16867363452911377, 0.09799671918153763, 0.021083353087306023, 0.33504343032836914, -0.029664788395166397, 0.10314810276031494, 0.2651031017303467, -0.10228556394577026, -0.20506010949611664, -0.05018697679042816, 0.6048917770385742, 0.05628912150859833, -0.1110730767250061, -0.18740971386432648, 0.06647944450378418, 0.40136969089508057, 0.10442183911800385, -0.06146528199315071, 0.3979566991329193, 0.12210903316736221], [-0.05075913667678833, -0.2240884155035019, -0.013535263948142529, -0.2212119847536087, 0.2840365171432495, -0.7464508414268494, 0.17851626873016357, 0.11704448610544205, 0.020064838230609894, 0.3737258017063141, 0.23812833428382874, 0.04628986120223999, -0.4741446077823639, -0.5812157392501831, -0.5958676338195801, -0.031224604696035385, 0.15909618139266968, -0.10585633665323257, -0.4391952157020569, -0.09041173756122589, 0.1411983221769333, -0.30749186873435974, -0.32780376076698303, 0.5052148103713989, -0.18802091479301453, -0.3597404360771179, -0.2590278089046478, -0.26944559812545776, 0.3673679232597351, 0.24267038702964783, -0.5644724369049072, -0.2578267455101013, -0.21651627123355865, -0.3220002353191376, -0.36078327894210815, -0.14422506093978882, -0.099942147731781, -0.26447615027427673, 0.512239396572113, -0.16618531942367554, -0.15983565151691437, 0.19895800948143005, 0.07539393752813339, -0.2762182056903839, 0.205209881067276, -0.6248809099197388, -0.24010039865970612, -0.807886004447937, -0.3646160364151001, -0.567439079284668, 0.7216809391975403, -0.8608666062355042, 1.0, -0.9111636877059937, -1.0, 0.06642104685306549, -0.00292891263961792, -1.0, -0.9973605275154114, -0.06311929225921631, 0.7573719024658203, -0.9930209517478943, -0.9985305070877075, 0.0930430144071579], [0.13531464338302612, 0.07339790463447571, -0.03205044940114021, -0.1967143416404724, 0.6824705004692078, -0.46132418513298035, -0.8134340047836304, 0.044388532638549805, -0.2323209047317505, -0.4677436351776123, -0.44937634468078613, -0.23873445391654968, 0.8413308262825012, -0.019724786281585693, -0.7068227529525757, 0.16688205301761627, -0.5326838493347168, -0.5471709966659546, 0.03830992802977562, 0.24207088351249695, 0.5316835045814514, 0.5445166826248169, -0.2310139685869217, -0.893498420715332, 0.1346396803855896, -0.312679648399353, 0.02548111043870449, 0.03831180930137634, -0.08332644402980804, -0.2144915610551834, -0.286691278219223, -0.16470196843147278, 0.27934780716896057, -0.6773809790611267, -0.10054317861795425, 0.5126470327377319, 0.6029356718063354, 0.47026771306991577, -0.26533013582229614, 0.08172304928302765, 0.0011671347310766578, -1.0, 0.6673739552497864, 0.2139436900615692, 0.8169640302658081, 0.31498226523399353, 0.12412133067846298, -0.8535438776016235, 0.2609488070011139, 0.14829981327056885, 0.19637024402618408, 0.2640496790409088, 0.4454554319381714, 0.13455826044082642, 0.10597973316907883, -0.021307237446308136, 0.23276767134666443, 0.5886765718460083, -0.19012179970741272, 0.012859486974775791, -0.1352841854095459, -0.49833041429519653, -0.11962927877902985, 0.2231408655643463], [-0.18824663758277893, 0.18012456595897675, 0.12491652369499207, 0.23832455277442932, 0.24230417609214783, -0.20372915267944336, -0.0019708690233528614, -0.07777101546525955, -0.057843759655952454, -0.1606714278459549, -0.22572144865989685, -0.08952485769987106, -0.11853235214948654, -0.052482664585113525, -0.018688751384615898, -0.09845749288797379, -0.2228855937719345, 0.06911396235227585, -0.09599532932043076, 0.09350629150867462, -0.16754841804504395, 0.10608559101819992, 0.020856594666838646, -0.18193580210208893, -0.018675416707992554, 0.1754201054573059, 0.030053138732910156, 0.20526108145713806, -0.0499301478266716, -0.23575054109096527, -0.0795527845621109, 0.15178827941417694, 0.21580418944358826, 0.33489376306533813, 0.07725437730550766, -0.16940946877002716, 0.11133617162704468, -0.16958341002464294, -0.07590840756893158, -0.1631404608488083, -0.10930611193180084, -0.15252527594566345, 0.2838645875453949, -0.21023346483707428, 0.19402623176574707, 0.011331535875797272, 0.12563031911849976, 0.20044445991516113, -0.1097249910235405, -0.1363840103149414, 0.011565038003027439, -0.05154960975050926, 0.13905367255210876, -0.07689651846885681, 0.08156928420066833, -0.11856395751237869, -0.2587595582008362, -0.0074874237179756165, -0.27724120020866394, 0.15507641434669495, 0.19995726644992828, 0.07669351249933243, 0.31060561537742615, -0.247250497341156], [-0.13729457557201385, -0.26130497455596924, 0.2827931046485901, -0.09015034139156342, 0.07558907568454742, 0.574113130569458, -0.06438799947500229, -0.22674250602722168, 0.17190785706043243, -0.4189439117908478, -0.25254467129707336, -0.07471579313278198, 0.157413050532341, 0.2765389680862427, -0.06638704985380173, -0.022626716643571854, 0.03792937844991684, 0.12502777576446533, 0.22644896805286407, -0.16042250394821167, 0.034579258412122726, -0.2763461470603943, -0.17443785071372986, 0.36857572197914124, -0.2805826663970947, 0.1525021344423294, -0.08995892107486725, -0.00928991287946701, 0.16533012688159943, 0.23951134085655212, -0.40050145983695984, 0.28107860684394836, -0.07916394621133804, 0.40633702278137207, 0.21328648924827576, 0.058549653738737106, -0.01639486663043499, 0.14028300344944, -0.23298786580562592, -0.07513481378555298, -0.06523797661066055, -0.1903517097234726, -0.36651933193206787, 0.18212096393108368, -0.4417879581451416, 0.4287601709365845, 0.04942549020051956, 0.1041196957230568, -0.026529427617788315, -0.25685563683509827, -0.5397195219993591, 0.22060513496398926, 0.21768063306808472, 0.40036818385124207, -0.3126983642578125, -0.17620892822742462, -0.2677019238471985, -0.30190420150756836, 0.3630034923553467, -0.024516334757208824, -0.07636859267950058, 0.021567068994045258, -0.07176252454519272, -0.03846104443073273], [0.055711060762405396, 0.28787288069725037, 0.129620760679245, 0.24423882365226746, -0.1166728138923645, 0.22397980093955994, -0.2730613946914673, -0.19803732633590698, -0.11801040172576904, 0.2808053195476532, 0.048212796449661255, -0.06584702432155609, -0.19309204816818237, 0.2265630066394806, 0.2171081006526947, -0.15167318284511566, 0.05081045627593994, -0.18409904837608337, 0.16549071669578552, -0.18153703212738037, -0.051151663064956665, 0.055445462465286255, 0.06273376941680908, 0.0430220365524292, 0.19352787733078003, -0.292309045791626, -0.12197527289390564, 0.10565558075904846, 0.06939053535461426, 0.015305638313293457, 0.10665357112884521, -0.2921418249607086, -0.29024073481559753, 0.21853432059288025, 0.2631755769252777, -0.16592741012573242, -0.16521389782428741, -0.24352875351905823, -0.03910556435585022, -0.02371799945831299, -0.17202827334403992, 0.0027205049991607666, -0.03243821859359741, -0.01758536696434021, 0.27286025881767273, -0.1682691127061844, 0.3057161271572113, 0.2216031849384308, 0.24724069237709045, 0.20318934321403503, 0.11095169186592102, -0.3016226887702942, 0.12762337923049927, 0.028946876525878906, -0.166406512260437, -0.07511523365974426, -0.012711584568023682, 0.11294415593147278, -0.003518342971801758, -0.21363358199596405, -0.06873360276222229, 0.2588631808757782, -0.13058042526245117, -0.07988859713077545], [-0.0997549444437027, -0.18133261799812317, 0.30103763937950134, 0.16399019956588745, -0.3579089045524597, -0.1769229620695114, -0.07711350172758102, -0.3294314444065094, 0.2326425015926361, 0.18660946190357208, 0.30463337898254395, 0.2282688319683075, 0.4672752320766449, 0.9496222734451294, 0.8567213416099548, 0.12652930617332458, -0.27458348870277405, 0.16177506744861603, 0.04171563684940338, -0.2170587182044983, 0.22725079953670502, 0.7560978531837463, 0.4574258327484131, 0.23599624633789062, 0.1558365523815155, 0.020765556022524834, -0.07862501591444016, -0.21722719073295593, -0.4699612557888031, -0.1792132705450058, 0.08116280287504196, -0.13987234234809875, 0.18879804015159607, 0.03191426768898964, -0.4074380397796631, -0.8738709688186646, -0.8774710297584534, -0.4832857847213745, -0.12167322635650635, -0.3572421371936798, 0.23825933039188385, 0.36504849791526794, -0.6105650663375854, -0.9246799349784851, -0.29186147451400757, -0.3008423149585724, -0.281183660030365, -0.09219084680080414, 0.4681902825832367, 0.7145112156867981, -0.03007754683494568, -0.8516727685928345, -0.6897910833358765, -0.010598649270832539, 0.26262253522872925, -0.22338877618312836, -0.16898833215236664, 0.5290352702140808, 0.9041213393211365, 1.0, 0.7833037972450256, 0.49070003628730774, -0.25523051619529724, 0.10079222172498703], [-0.028400391340255737, 0.14145487546920776, -0.16748392581939697, -0.16609983146190643, 0.12437611818313599, -0.21487648785114288, -0.016521437093615532, 0.179299995303154, 0.1807374358177185, 0.12762676179409027, 0.0037793219089508057, 0.07560846954584122, 0.20586232841014862, -0.14769920706748962, 0.016064131632447243, -0.004861586727201939, -0.06748822331428528, 0.1266377568244934, -0.2770356833934784, 0.2462703436613083, -0.09690114110708237, 0.19267810881137848, -0.2608323395252228, -0.06137406826019287, -0.16258932650089264, 0.22974105179309845, 0.11886093020439148, -0.22713574767112732, -0.0031362588051706553, 0.18526384234428406, 0.1886211335659027, -0.18929414451122284, -0.2534996271133423, -0.22959494590759277, -0.27036890387535095, -0.16917596757411957, 0.2055274099111557, -0.28998002409935, 0.09183788299560547, -0.01312914490699768, -0.013298720121383667, 0.27285653352737427, -0.2102792114019394, 0.13999232649803162, 0.09971266984939575, 0.17308473587036133, 0.20506072044372559, 0.10704702138900757, -0.08098819851875305, -0.2370985597372055, 0.18830212950706482, 0.01299716904759407, 0.05872860550880432, 0.14898544549942017, 0.0550052784383297, 0.29985707998275757, 0.14404326677322388, 0.0414343997836113, 0.2332061529159546, -0.286830872297287, 0.3038225769996643, 0.14637160301208496, -0.2174464762210846, 0.07884011417627335], [0.06593403220176697, -0.2382519543170929, -0.18260422348976135, -0.22555163502693176, -0.3354755938053131, -0.02923593670129776, 0.10630454123020172, -0.10949866473674774, -0.26699259877204895, -0.007668224163353443, -0.02917557582259178, -0.14322613179683685, 0.3429657220840454, 0.17234677076339722, 0.2258090078830719, -0.07895743101835251, -0.7674679160118103, 0.1653604805469513, -0.3628614544868469, 0.20396102964878082, 0.19131560623645782, -0.007046279031783342, -0.3497658669948578, 0.4777429401874542, -0.11506740003824234, 0.33206894993782043, -0.010273992083966732, 0.17644715309143066, 0.027996545657515526, -0.23802492022514343, -0.5924001932144165, 0.498653769493103, 0.26300179958343506, 0.10251706838607788, -0.10437241196632385, 0.14472638070583344, 0.33298981189727783, -0.35474348068237305, -0.3901573717594147, 0.20785938203334808, -0.050582174211740494, 0.04557422548532486, 0.05677972733974457, 0.25759124755859375, 0.011036340147256851, 0.15226955711841583, 0.09288393706083298, -0.1099453717470169, -0.10292359441518784, 0.07105384021997452, 0.42987146973609924, 0.3068792223930359, 0.11875233054161072, -0.22719085216522217, -0.2726075351238251, -0.11221099644899368, 0.11235830187797546, 0.30852025747299194, 0.1909950077533722, -0.003960762172937393, 0.08263002336025238, -0.06993690133094788, -0.1242370456457138, 0.09790108352899551], [-0.016974061727523804, 0.08375336974859238, -0.2827705144882202, -0.07238553464412689, 0.005258410703390837, 0.16784130036830902, -0.3192157745361328, -0.1644231677055359, -0.06740812957286835, 0.19319191575050354, -0.010407255962491035, -0.21250233054161072, 0.4431890547275543, 0.26265838742256165, -0.046587347984313965, -0.08354321122169495, 0.017541466280817986, -0.20020046830177307, -0.2499137669801712, 0.09214524179697037, 0.44578495621681213, -0.06632305681705475, 0.13301050662994385, 0.07567942142486572, -0.2936020791530609, 0.08364374190568924, -0.07819955050945282, -0.11372452974319458, -0.07664990425109863, -0.33027517795562744, 0.02389097400009632, 0.2177407294511795, 0.046126991510391235, 0.2554244101047516, 0.04184403270483017, -0.14767423272132874, 0.12215202301740646, -0.28924620151519775, -0.04375346750020981, -0.46745553612709045, -0.16511613130569458, 0.0053862775675952435, -0.19069822132587433, 0.2702135145664215, 0.24385876953601837, -0.1749669462442398, -0.1530236303806305, -0.1770430952310562, -0.18258772790431976, 0.05558265745639801, 0.24344734847545624, 0.21650883555412292, -0.3710598349571228, -0.2873347997665405, 0.09705333411693573, 0.015596101991832256, -0.21477316319942474, -0.399739146232605, -0.2521204948425293, 0.554314911365509, 0.22407561540603638, -0.15095128118991852, 0.05743441730737686, -0.34358280897140503], [-0.044354647397994995, 0.1409367173910141, -0.2709728479385376, 0.0656527578830719, -0.4083009362220764, -0.1587269902229309, -0.31069010496139526, 0.018287593498826027, -0.1855524182319641, -0.4244331419467926, -0.2086351215839386, -0.4379262924194336, 0.0817095935344696, -0.06985238939523697, -0.001208674511872232, 0.12222292274236679, -0.037236206233501434, -0.45649540424346924, -0.41263023018836975, -0.08156272768974304, 0.3173809349536896, -0.28179943561553955, 0.16810189187526703, 0.5268374681472778, -0.042873334139585495, -0.21546290814876556, -0.2255413979291916, -0.22633537650108337, -0.6842875480651855, 0.060394614934921265, 0.27831459045410156, 0.3968035578727722, 0.1864899843931198, 0.3161252439022064, 0.00032956490758806467, -0.15969642996788025, -0.13572825491428375, 0.1712411791086197, 0.08583356440067291, -0.0028549651615321636, 0.3132071793079376, 0.40456634759902954, -0.44385528564453125, 0.11304042488336563, 0.7509535551071167, 0.9997416138648987, -0.48620879650115967, -0.2764807939529419, 0.3011356592178345, 0.2407635599374771, -0.6386623382568359, 0.3712536692619324, 0.10435377061367035, -0.6509707570075989, -0.4692304730415344, -0.038944803178310394, 0.16664965450763702, -0.060866888612508774, -0.5565941333770752, -0.9390756487846375, -0.9927818775177002, -0.9999341368675232, 0.08700184524059296, 0.2068457156419754], [0.2505010664463043, 0.23957708477973938, 0.2634809911251068, -0.10658684372901917, -0.2520526349544525, -0.10972002148628235, 0.25972551107406616, 0.07396021485328674, 0.3088741898536682, -0.28074923157691956, -0.49902549386024475, -0.12043536454439163, 0.021542798727750778, -0.033445656299591064, -0.3446572422981262, -0.21219131350517273, 0.4200328290462494, 0.3176431953907013, 0.6693443655967712, 0.889899730682373, 0.6989280581474304, 0.8098803758621216, -0.40081238746643066, -0.050805509090423584, 0.26559939980506897, -0.7660633325576782, -0.041613735258579254, 0.10877686738967896, -0.44952473044395447, 0.2265038788318634, -0.32186490297317505, -0.6810376644134521, 0.0959925651550293, -0.9998975992202759, -0.9991951584815979, -0.8548334836959839, -0.27044153213500977, 0.011153795756399632, -0.8952386379241943, 0.1979960799217224, -0.26324939727783203, -0.6686625480651855, -0.40041351318359375, 0.07001550495624542, -0.0880218893289566, 0.1501709371805191, 0.04046636074781418, -0.7106173634529114, 0.15210716426372528, 0.2310028374195099, -0.2911512553691864, -0.3614995777606964, -0.336465984582901, 0.5765057802200317, 0.08987896144390106, -0.11897943168878555, -0.09810148179531097, 0.06374166160821915, 0.06765430420637131, 0.25206640362739563, -0.6286243200302124, 0.5050157904624939, -0.21461138129234314, -0.07150214910507202], [-0.2788076102733612, 0.06339921802282333, 0.11044272780418396, -0.1607113778591156, 0.5310947895050049, -0.09302140027284622, -0.04717128723859787, -0.004028035793453455, -0.0815674364566803, 0.3332456648349762, 0.5587517023086548, 0.23451340198516846, -0.2917870879173279, 0.4885007441043854, 0.4009345471858978, 0.06513158977031708, -0.8083025813102722, -0.09832415729761124, 0.060375239700078964, -0.9506741762161255, -0.3185650408267975, 0.463375985622406, 0.2499353438615799, -0.19165687263011932, -0.20676279067993164, -0.347037672996521, -0.1203431785106659, -0.14414186775684357, 0.3418601155281067, -0.2641761898994446, 0.08181941509246826, -0.4169526994228363, -0.19754542410373688, -0.21762025356292725, -0.26437631249427795, 0.07471344619989395, -0.11276943981647491, -0.5832298398017883, -0.16809755563735962, -0.6080014109611511, 0.29049286246299744, 0.1674012541770935, 0.1015552431344986, 0.048587799072265625, 0.021724730730056763, -0.34700992703437805, 0.5400338768959045, 0.2865307927131653, 0.5358690023422241, 0.6811018586158752, 0.5015414357185364, -0.41759195923805237, -0.10103611648082733, 0.2353072166442871, 0.5075852870941162, 0.22851477563381195, -0.17110136151313782, 0.4370986819267273, 0.46292465925216675, -0.004749181680381298, 0.2507736086845398, 0.12021967023611069, -0.03727232292294502, -0.16665607690811157], [-0.2576630115509033, -0.20348678529262543, -0.156211256980896, 0.1751837134361267, 0.2724720239639282, -0.05374107509851456, 0.060935813933610916, 0.01269662007689476, -0.2792150378227234, -0.10684192180633545, 0.2723677158355713, 0.3425692021846771, -0.24462085962295532, -0.4543423652648926, 0.08827873319387436, 0.12949292361736298, -0.2237149178981781, -0.2744944393634796, 0.5372797250747681, -0.038452304899692535, 0.2131493240594864, -0.3421592712402344, 0.5328593850135803, 0.0322897844016552, -0.14430899918079376, 0.20300008356571198, 0.17219007015228271, 0.12070545554161072, 0.03978687897324562, -0.20525574684143066, 0.16886413097381592, -0.3586686849594116, -0.21174977719783783, 0.25209707021713257, 0.007189764641225338, 0.12069907039403915, 0.15961529314517975, 0.37613555788993835, 0.41775766015052795, -0.006392759270966053, 0.023611946031451225, 0.24867446720600128, -0.25189998745918274, 0.15828771889209747, 0.054304089397192, 0.10298215597867966, 0.1943773478269577, 0.026171844452619553, 0.3114875555038452, 0.04645226523280144, 0.028180118650197983, 0.4736134111881256, -0.19724608957767487, 0.048941243439912796, 0.2366243451833725, -0.1573350876569748, 0.10117863863706589, -0.29223117232322693, -0.7536699175834656, 0.01722356677055359, 0.05196321755647659, 0.10438603162765503, -0.01784118451178074, -0.2361995130777359], [-0.08819130063056946, -0.029338862746953964, -0.12527839839458466, -0.06841102242469788, -0.4722670316696167, 0.12825439870357513, 0.3691793382167816, 0.23232030868530273, 0.11562605202198029, -0.3213311433792114, -0.3176407814025879, 0.09732319414615631, -0.3960481584072113, 0.42798641324043274, 0.45652294158935547, -0.07091054320335388, -0.8754542469978333, -0.13703808188438416, 0.15988321602344513, -0.07393472641706467, -0.5033338665962219, 0.44650548696517944, 0.2121497392654419, 0.09141512215137482, 0.03910352662205696, 0.14586558938026428, 0.23382800817489624, -0.2243126779794693, 0.04429231211543083, -0.0822058916091919, 0.3923199772834778, 0.33435922861099243, -0.01230172161012888, 0.23457995057106018, 0.31915146112442017, 0.06026900187134743, 0.458360493183136, 0.24502575397491455, -0.2562997341156006, -0.11731874942779541, 0.025588473305106163, -0.1714436411857605, 0.33445921540260315, 0.5533965826034546, 0.15333472192287445, -0.3637678325176239, -0.4717746675014496, -0.3147960305213928, 0.17169934511184692, -0.38012608885765076, 0.07031238824129105, 0.2895360589027405, -0.49034959077835083, 0.012323817238211632, -0.5851839780807495, -0.15551234781742096, 0.11626312136650085, 0.07629026472568512, 0.2283288687467575, -0.45170867443084717, -1.0, -0.24028487503528595, -0.11792613565921783, 0.20874816179275513], [-0.1154099702835083, 0.04241737723350525, 0.2201593816280365, 0.15038004517555237, 0.19966168701648712, -0.23176062107086182, 0.010288279503583908, 0.17346128821372986, -0.29405075311660767, -0.06988222151994705, -0.24354268610477448, 0.32339486479759216, -0.21903358399868011, 0.10014354437589645, 0.213173970580101, 0.32096630334854126, -0.008671853691339493, -0.04825151339173317, 0.24664917588233948, 0.32681211829185486, -0.4258697032928467, -0.40013059973716736, 0.20199374854564667, 0.23176392912864685, -0.2566257417201996, 0.03435981646180153, 0.452487051486969, -0.015552163124084473, -0.27274805307388306, -0.2839052379131317, 0.6174530386924744, 0.36358633637428284, -0.062474481761455536, 0.2139781415462494, 0.4949292242527008, 0.33770114183425903, 0.28072935342788696, -0.45325639843940735, 0.5813165903091431, 0.23245644569396973, 0.01507459208369255, 0.041581667959690094, 0.7182819843292236, 0.651138424873352, 0.04761538282036781, 0.11199862509965897, 0.6952228546142578, -0.10580023378133774, -0.10632771998643875, 0.04963824525475502, 0.032632339745759964, -0.14429575204849243, 0.395267128944397, 0.16138416528701782, 0.12148308753967285, -0.17338235676288605, 0.027728229761123657, 0.11682791262865067, 0.001089328434318304, -0.42407822608947754, -0.27750086784362793, -0.17475074529647827, 0.1340455263853073, -0.27236467599868774], [-0.2813539505004883, -0.2775188684463501, 0.12422776222229004, 0.017269492149353027, 0.2453220784664154, -0.2715296149253845, -0.18252646923065186, -0.22629407048225403, 0.076602041721344, 0.11224225163459778, -0.10139599442481995, -0.1385071724653244, 0.07551565766334534, -0.07297296822071075, 0.17323869466781616, 0.08449381589889526, -0.19295889139175415, 0.11661294102668762, -0.08526062965393066, -0.027156829833984375, -0.19403564929962158, 0.2403445541858673, -0.18672692775726318, -0.1885501742362976, -0.29025882482528687, -0.25658583641052246, -0.15114399790763855, 0.030265629291534424, 0.1872241199016571, 0.16240674257278442, 0.18406757712364197, 0.12085983157157898, 0.15123635530471802, -0.22873468697071075, -0.021346211433410645, -0.1399315595626831, -0.20707572996616364, -0.08861923217773438, -0.23334962129592896, 0.19698432087898254, 0.2697295844554901, 0.09890136122703552, 0.059426188468933105, -0.28864267468452454, 0.1899135410785675, -0.15039180219173431, 0.06947937607765198, -0.12209820747375488, -0.15372128784656525, -0.06157597899436951, -0.2113523930311203, -0.11585257947444916, 0.10540175437927246, 0.11338528990745544, 0.11482831835746765, 0.01359546184539795, -0.052670806646347046, 0.24753275513648987, 0.2991964519023895, 0.28965649008750916, -0.1961366832256317, 0.22058483958244324, 0.18679028749465942, 0.28882214426994324], [0.13997375965118408, 0.19390176236629486, -0.16451996564865112, -0.24256455898284912, 0.1566101610660553, 0.07227469235658646, -0.07267333567142487, -0.17409676313400269, 0.2200165092945099, 0.12938812375068665, 0.16613738238811493, 0.14457306265830994, -0.0051797619089484215, -0.020386191084980965, -0.43649640679359436, -0.2580393850803375, -0.18673864006996155, 0.023618657141923904, -0.19369131326675415, -0.19936710596084595, 0.26912301778793335, 0.07880593836307526, -0.5438665747642517, -0.5830041170120239, -0.08042456209659576, 0.1717313975095749, 0.04925302788615227, 0.04380682855844498, 0.3425423800945282, -0.0687251091003418, -0.4546164274215698, -0.5911370515823364, -0.3038543462753296, 0.0824194923043251, -0.04707099497318268, -0.12496292591094971, 0.16253118216991425, 0.20597006380558014, 0.3579680919647217, -0.11029250174760818, -0.18692511320114136, -0.06628698855638504, 0.020640673115849495, -0.07962372153997421, -0.2726142406463623, 0.3505389988422394, 0.5246948003768921, -0.3143242299556732, -0.1580076664686203, -0.1404997557401657, 0.12377923727035522, 0.2243315875530243, -0.37296244502067566, 0.36230531334877014, 0.11416831612586975, 0.07121051847934723, 0.043843526393175125, -0.014469419606029987, -0.2620593309402466, -0.41030195355415344, 0.3296263813972473, 0.41768884658813477, 0.13232330977916718, 0.15334677696228027], [-0.0333026647567749, -0.14655707776546478, -0.24987372756004333, -0.18154235184192657, -0.16482558846473694, 0.21458810567855835, 0.16070932149887085, 0.19869250059127808, -0.27800291776657104, -0.1498272866010666, -0.16494305431842804, -0.04191751033067703, -0.06146273761987686, 0.22893448173999786, 0.4805023670196533, 0.006511429790407419, -0.03305377438664436, -0.07874777168035507, 0.3937695622444153, 0.1367696076631546, -0.19243857264518738, 0.04539099335670471, 0.18332257866859436, -0.16710424423217773, 0.023500366136431694, 0.26779451966285706, 0.06129006668925285, -0.06798577308654785, -0.2769092917442322, -0.08307966589927673, 0.11676745116710663, 0.2413071244955063, 0.06217474862933159, 0.30992400646209717, 0.02806445211172104, 0.3140013813972473, -0.30192580819129944, 0.4042992889881134, -0.19773443043231964, 0.2565879821777344, -0.04470101371407509, 0.06648073345422745, 0.2352609932422638, -0.08289070427417755, 0.13737791776657104, 0.5138830542564392, -0.18944624066352844, 0.19975903630256653, 0.06363379210233688, -0.08720164746046066, 0.17922568321228027, 0.43915969133377075, 0.520061194896698, 0.369234174489975, 0.08573603630065918, -0.005650052335113287, 0.024081412702798843, -0.004697214812040329, 0.08180982619524002, 0.3197724223136902, 0.029842065647244453, 0.1844238042831421, -0.12242689728736877, 0.031087759882211685], [-0.01912933588027954, -0.02433888241648674, 0.0700230672955513, -0.15044327080249786, 0.4139096140861511, 0.11459290236234665, 0.08013452589511871, -0.05076610669493675, -0.02421160787343979, -0.07110412418842316, -0.29685336351394653, 0.3071800172328949, 0.2654004991054535, -0.18142752349376678, 0.17349553108215332, 0.07628263533115387, 0.2436477690935135, 0.13682781159877777, 0.057866498827934265, 0.4711088538169861, -0.12852150201797485, -0.5007843971252441, 0.1441245824098587, 0.19134382903575897, -0.145938441157341, 0.11592181026935577, -0.04325849190354347, 0.11348951607942581, 0.052988700568675995, -0.28280964493751526, 0.34492552280426025, 0.3826591670513153, 0.09081954509019852, -0.05053292587399483, -0.186665341258049, -0.03395669534802437, 0.3653793931007385, 0.17018337547779083, 0.21657182276248932, -0.2385665625333786, 0.2804291844367981, 0.0859416052699089, 0.19507476687431335, -0.2644941210746765, 0.03513607755303383, 0.33283868432044983, 0.38739290833473206, -0.024125926196575165, 0.3730464577674866, 0.40802833437919617, -0.40045541524887085, 0.08142965286970139, 0.12278952449560165, 0.013492777943611145, -0.20896407961845398, -0.1276458352804184, -0.45957133173942566, 0.3238089084625244, -0.15199948847293854, 0.03906772658228874, 0.2779306471347809, -0.433919221162796, 0.011245956644415855, -0.1950523555278778], [0.1667936146259308, -0.1689087599515915, -0.15409745275974274, -0.27875614166259766, 0.06583824753761292, -0.23932385444641113, 0.034121446311473846, -0.18252375721931458, -0.018172934651374817, 0.18968069553375244, -0.10491666197776794, -0.2594987750053406, -0.09777245670557022, -0.2595156133174896, -0.000643189181573689, 0.17833317816257477, 0.011427288874983788, -0.029045894742012024, -0.17843978106975555, 0.30325785279273987, 0.28427577018737793, 0.12558570504188538, -0.21590577065944672, 0.45349207520484924, -0.17989641427993774, 0.020829426124691963, -0.26976341009140015, -0.11871477216482162, 0.28893837332725525, 0.2772299349308014, -0.6777982711791992, 0.4993131756782532, -0.07582541555166245, -0.04362974688410759, -0.3080395460128784, 0.32175102829933167, -0.11068275570869446, -0.14104539155960083, -0.008986003696918488, 0.59029221534729, 0.13761845231056213, 0.09442246705293655, 0.0036711120046675205, -0.1266581267118454, -0.4990506172180176, -0.49858710169792175, 0.1263219267129898, 0.16647547483444214, -0.1903601735830307, 0.5898064970970154, 0.39298215508461, -0.12862946093082428, 0.2604556381702423, 0.04765478894114494, 0.46519696712493896, 0.09981179237365723, -0.21547473967075348, 0.22064390778541565, 0.3142872452735901, -0.30570170283317566, -0.6556700468063354, -0.008784269914031029, 0.24936142563819885, -0.2565215528011322], [-0.06052565574645996, 0.2039000689983368, 0.2001321017742157, -0.2959224283695221, -0.13374529778957367, -0.059490401297807693, -0.06070646643638611, -0.08296088874340057, 0.27939608693122864, 0.025301525369286537, 0.1284189075231552, -0.2115502655506134, -0.030856987461447716, -0.13678458333015442, -0.12269327044487, 0.02777768298983574, 0.24878332018852234, -0.241974875330925, 0.14474880695343018, 0.23519478738307953, 0.22487562894821167, 0.16578370332717896, -0.03292852267622948, 0.2560563087463379, -0.10471087694168091, -0.1878131479024887, -0.05132715404033661, 0.2917996346950531, 0.05592353641986847, 0.22086867690086365, 0.11955941468477249, 0.23135045170783997, -0.10903877019882202, -0.058304619044065475, -0.018741881474852562, -0.04875684529542923, 0.27949726581573486, -0.1327311098575592, -0.29648566246032715, -0.10082966089248657, -0.16860589385032654, -0.16229629516601562, 0.14416810870170593, -0.11318115890026093, 0.1692865788936615, 0.1700393110513687, -0.18165019154548645, -0.0050417897291481495, -0.20020565390586853, -0.02237374521791935, -0.0220797061920166, -0.29780313372612, 0.08733831346035004, -0.09691209346055984, -0.10734892636537552, -0.22981448471546173, -0.031415801495313644, -0.020117659121751785, -0.09016376733779907, -0.24232178926467896, 0.13733434677124023, -0.22488270699977875, 0.06981071829795837, -0.030143871903419495], [0.010972410440444946, -0.15484511852264404, -0.0420096330344677, -0.02831089496612549, -0.9940747618675232, 0.10001111775636673, 0.06457246840000153, 0.16568997502326965, 0.17170938849449158, -0.049077823758125305, -0.23707367479801178, -0.5610682368278503, 0.02555081620812416, 0.2290789633989334, 0.24437439441680908, -0.06204234063625336, 0.026406407356262207, -0.1578570008277893, 0.055087197571992874, -0.2807297706604004, 0.2658986747264862, 0.5118793845176697, 0.05080350860953331, -0.1841585338115692, 0.21737578511238098, 0.07996198534965515, -0.09768062829971313, -0.11103834211826324, -0.038420189172029495, 0.17793262004852295, -0.026639871299266815, 0.03678557276725769, -0.19098466634750366, -0.0022228839807212353, 0.1863614022731781, 0.3950667083263397, 0.3824132978916168, 0.18610449135303497, -0.6892129778862, 0.1305721253156662, 0.25154468417167664, 0.16895519196987152, -0.011709473095834255, 0.22737249732017517, 0.3240708112716675, 0.1532282829284668, -0.662629246711731, 0.08966737240552902, -0.19381161034107208, -0.34039604663848877, -0.5732356309890747, 0.1530209481716156, -0.026211488991975784, -0.26664265990257263, -0.559299647808075, 0.023243289440870285, 0.01805586740374565, -0.8629948496818542, -0.9937178492546082, -0.5351858735084534, -0.7943071126937866, -0.09435225278139114, -0.1327173262834549, -0.2819797098636627], [-0.23348745703697205, 0.1841093748807907, -0.2211897224187851, 0.020123958587646484, 0.36074548959732056, 0.5041967034339905, -0.04806799441576004, 0.032722536474466324, 0.23972591757774353, 0.1732627898454666, 0.11442342400550842, 0.17202813923358917, 0.4211561977863312, 0.021455999463796616, -0.5651426315307617, -0.07390592992305756, -0.136903315782547, -0.2661895751953125, -0.0367061011493206, -0.002694492693990469, -0.07615119218826294, 0.19581176340579987, -0.18715937435626984, 0.007512239273637533, 0.17358273267745972, -0.14181184768676758, 0.3485926389694214, -0.09315307438373566, 0.16753804683685303, -0.1261778324842453, 0.41224944591522217, 0.029013080522418022, -0.12711352109909058, -0.29223209619522095, 0.4726710319519043, -0.23161622881889343, 0.04359101876616478, 0.007983922027051449, 0.03777565434575081, 0.4226497411727905, 0.13633191585540771, 0.19460637867450714, 0.29438549280166626, -0.2584555745124817, -0.03358248993754387, -0.23505142331123352, 0.09327070415019989, 0.3047596216201782, -0.009666797704994678, 0.23752783238887787, 0.4533728361129761, 0.18815623223781586, 0.324283629655838, 0.07155915349721909, -0.13413800299167633, -0.009054933674633503, -0.17155250906944275, -0.24655655026435852, -0.11109402030706406, 0.02344634383916855, 0.11953757703304291, -0.40290912985801697, -0.29602622985839844, 0.04247541353106499]], [0.0, -0.09770587831735611, -0.0073340581730008125, 0.005000019911676645, -0.0149107426404953, -0.1059621050953865, -0.06800612807273865, -0.10181877762079239, -0.08375684171915054, -0.04876773804426193, 0.03375460207462311, 0.043892186135053635, 0.042662493884563446, 0.016154268756508827, -0.22763441503047943, -0.23598849773406982, -0.06417467445135117, 0.016200751066207886, 0.04240129515528679, 0.1894179880619049, 0.13199526071548462, 0.20810215175151825, -0.028718745335936546, -0.2034735530614853, -0.02498672530055046, -0.13270756602287292, 0.0661221370100975, 0.00835373904556036, 0.150174081325531, -0.03462972119450569, -0.18182386457920074, -0.094386987388134, -0.024786435067653656, -0.087632916867733, 0.06995552033185959, -0.15525156259536743, 0.057288758456707, 0.0063927434384822845, -0.07318414002656937, 0.011579842306673527, -0.16640333831310272, 0.013509304262697697, -0.061299219727516174, -0.057554613798856735, 0.07551255077123642, -0.19508598744869232, -0.040932547301054, -0.04200616851449013, -0.2932627499103546, -0.19504185020923615, -0.20881745219230652, 0.12200223654508591, -0.0778072327375412, 0.012434504926204681, -0.08144507557153702, -0.06851445138454437, -0.04371723532676697, -0.21631324291229248, -0.12847815454006195, 0.16002686321735382, -0.15708142518997192, -0.08701279759407043, -0.04369361326098442, -0.07532154768705368]]}