[[[0.42689239978790283, -0.17901527881622314, -0.5726681351661682, -0.23552139103412628, -0.48296859860420227, -0.0737524926662445, 0.4585818648338318, -0.11858421564102173, -0.6066866517066956, -0.25591331720352173, -0.20546893775463104, -0.842959463596344, -0.39705225825309753, -0.4073716700077057, 0.8919552564620972, -0.4719211757183075, -0.9999708533287048, 0.8391744494438171, 0.11991619318723679, 0.653389036655426, 0.6392935514450073, -0.19998258352279663, -0.16316676139831543, 0.45618683099746704, -0.28313207626342773, 0.1924150586128235, 0.4973011612892151, -0.11965873837471008, -0.005094707012176514, -0.9511970281600952, -0.28314825892448425, -0.3077833354473114], [-0.9990711212158203, 0.10625766962766647, -0.8659958839416504, -0.04142776131629944, -0.015000549145042896, -0.30414241552352905, 0.2215079665184021, 0.03941214084625244, -0.2486952543258667, -0.10789942741394043, -0.14300987124443054, 0.6498693227767944, -0.3615301251411438, -0.022317174822092056, 0.15138691663742065, -0.09886336326599121, -0.47721460461616516, -0.009312381036579609, 0.23595404624938965, -0.566912055015564, 0.1892256885766983, 0.01202726922929287, 0.4068050980567932, -0.6902612447738647, 0.12326166033744812, -0.4049761891365051, -0.037374287843704224, 0.07602092623710632, -0.14648568630218506, 0.09540042281150818, 0.6639498472213745, 0.45115897059440613], [-0.2861224114894867, 0.48419275879859924, 0.4882148802280426, -0.36729493737220764, 0.0911376103758812, -0.2427549809217453, -0.001129391836002469, -0.17062634229660034, 0.3160112202167511, 0.249132439494133, -0.29572561383247375, -0.02542749233543873, 0.4155767858028412, -0.3084956705570221, -0.7735098600387573, 0.51750248670578, 0.401376336812973, -0.32246050238609314, 0.45851030945777893, 0.4326017200946808, 0.6052882075309753, 0.04140596464276314, -0.10540536046028137, 0.16639740765094757, -0.3930962383747101, -0.0392102412879467, -0.3169001042842865, 0.10061022639274597, -0.40886980295181274, 0.4704601764678955, 0.25402602553367615, -0.13108167052268982], [-0.32567110657691956, 0.24403026700019836, 0.42716744542121887, -0.04953092336654663, 0.08016917109489441, 0.0675133764743805, -0.09967994689941406, -0.09392669796943665, 0.18070247769355774, 0.29712942242622375, -0.2172195166349411, -0.10508447885513306, 0.06720492243766785, -0.2666177749633789, 0.1498020589351654, 0.09711262583732605, 0.17765560746192932, 0.23499682545661926, 0.0607050359249115, 0.2611663043498993, -0.22458918392658234, 0.30262133479118347, -0.13836157321929932, 0.20944568514823914, 0.00034862756729125977, 0.009511351585388184, 0.3229769170284271, -0.20561419427394867, -0.2527461647987366, -0.4237310588359833, -0.10472127795219421, -0.26338261365890503], [-0.394277960062027, 0.25478827953338623, -0.9999001026153564, -0.4121871590614319, 0.3294021785259247, -0.08075389266014099, 0.28764551877975464, -0.16634607315063477, 0.2594831883907318, 0.200438991189003, 0.10651454329490662, -0.20900489389896393, -0.43635281920433044, 0.2068210244178772, -0.08305883407592773, -0.13924232125282288, -0.03653654456138611, 0.11853103339672089, 0.04476740583777428, -0.6865754723548889, -0.31295228004455566, -0.1917552500963211, -0.10964267700910568, -0.46045541763305664, -0.25809505581855774, -0.48334991931915283, 0.2541719973087311, -0.2135232836008072, 0.360410213470459, -0.5519945621490479, 0.5496333241462708, 0.464727520942688], [0.4234059751033783, 0.41054072976112366, -0.019344180822372437, 0.2787058651447296, -0.13539090752601624, 0.21095934510231018, 0.25062814354896545, 0.09567967057228088, 0.006108194589614868, -0.36578765511512756, -0.07151490449905396, 0.3320869505405426, 0.37535223364830017, 0.0740329921245575, -0.39169561862945557, 0.04772922396659851, -0.3466026782989502, -0.10895466804504395, -0.17660847306251526, 0.0012272000312805176, -0.1139289140701294, -0.08198469877243042, 0.32255205512046814, 0.053647369146347046, 0.4085148870944977, -0.04736924171447754, -0.3355134427547455, 0.40491393208503723, -0.06201121211051941, 0.29207417368888855, 0.17408344149589539, 0.22790345549583435], [-0.9466022849082947, -0.0650109052658081, 0.16696462035179138, 0.33413931727409363, 0.3478730618953705, -0.21504800021648407, 0.3851863443851471, 0.09350576996803284, -0.4093427360057831, 0.22164559364318848, 0.003782033920288086, 0.0009258898789994419, 0.2627047896385193, -0.029661361128091812, -0.4737435579299927, -0.07024276256561279, -0.1738828420639038, 0.33070215582847595, 0.44479045271873474, 0.050252556800842285, 0.07661058753728867, 0.8786275386810303, 0.08318501710891724, -0.48883968591690063, 0.27288123965263367, -0.5881985425949097, -0.28033211827278137, -0.31298890709877014, -0.0478900671005249, 0.2693723142147064, -0.0053715272806584835, 0.585250735282898], [-0.594798743724823, 0.6182623505592346, 0.07559826970100403, 0.2171982228755951, 0.03331989422440529, -0.24651822447776794, 0.28381890058517456, 0.07108303904533386, 0.18842813372612, 0.06605108827352524, -0.21296310424804688, -0.9992491006851196, 0.3057214915752411, -0.23726069927215576, -0.9991688132286072, 0.5251142978668213, 0.15567153692245483, 0.010077638551592827, 0.47258225083351135, -0.6990348696708679, 0.4610286355018616, -0.056279782205820084, 0.41137686371803284, -0.8396971821784973, -0.20632705092430115, 0.34424686431884766, -0.4221358299255371, -0.006118118762969971, 0.26194941997528076, 0.4149058163166046, 0.0767519623041153, 0.14345519244670868], [-0.46685507893562317, -0.12363514304161072, -0.27308791875839233, -0.3385774493217468, -1.0, 0.24221226572990417, 0.38600385189056396, -0.2428731918334961, 0.29071012139320374, -0.6027779579162598, 0.09251710772514343, -1.0, -0.056384939700365067, -0.16409939527511597, 0.1509973555803299, 0.3553526997566223, 0.365158349275589, -0.06856082379817963, -0.038370098918676376, -0.12882138788700104, 0.884591817855835, 0.26958948373794556, 0.2054244428873062, -0.002355597447603941, -0.13865426182746887, 0.4366544187068939, -0.05065197870135307, -0.23764386773109436, -0.05087802931666374, -0.3527950942516327, 0.18387119472026825, 0.42352500557899475], [0.4565194249153137, -0.39999204874038696, 0.2982516288757324, -0.29819682240486145, 0.6222484707832336, -0.2364518791437149, 0.15435372292995453, -0.30775463581085205, 0.1415250152349472, 0.6667062640190125, 0.11731615662574768, 0.33549556136131287, 0.0032902841921895742, -0.10343566536903381, -0.5592750310897827, 0.6448167562484741, -0.13754408061504364, -0.27520084381103516, 0.10539625585079193, -0.210618793964386, -0.6336506605148315, -0.5323615074157715, -0.02238360047340393, 0.8710227012634277, -0.19182537496089935, -0.9629177451133728, -0.20380599796772003, -0.3003818690776825, -0.32982221245765686, 0.4027760624885559, 0.3609588146209717, 0.0715130865573883], [-0.006250977516174316, 0.37678417563438416, 0.0874088704586029, -0.4156712591648102, 0.19545593857765198, -0.04341614246368408, 0.016560345888137817, 0.37605634331703186, -0.09558150172233582, -0.3999158442020416, 0.15449461340904236, -0.42952200770378113, 0.10943564772605896, 0.07108679413795471, 0.16243264079093933, -0.09052851796150208, -0.2950146198272705, -0.3461087942123413, -0.2712937593460083, -0.2514578700065613, 0.02168789505958557, -0.14160564541816711, -0.1651225984096527, -0.10039424896240234, -0.28784698247909546, 0.27779439091682434, 0.326095849275589, -0.27849772572517395, 0.25258204340934753, -0.1336386501789093, 0.007575511932373047, 0.028230905532836914], [-0.21243876218795776, 0.4260813891887665, -0.20101162791252136, 0.28962185978889465, 0.40315982699394226, -0.15517517924308777, 0.19070658087730408, -0.03322291374206543, 0.3336394727230072, 0.03175660967826843, -0.352963387966156, 0.3423629701137543, -0.29605424404144287, -0.17907297611236572, 0.10381528735160828, 0.39642223715782166, 0.302521675825119, 0.08902999758720398, -0.21605323255062103, -0.10605451464653015, -0.12002038955688477, 0.007856935262680054, 0.11914989352226257, 0.005746334791183472, 0.39157572388648987, 0.4116261899471283, -0.17219814658164978, -0.4206331968307495, 0.34613141417503357, -0.2896823585033417, 0.24562647938728333, -0.13345661759376526], [-0.7978515625, -0.10381747782230377, 0.002962788101285696, -0.0010811090469360352, -0.8125710487365723, -0.21122664213180542, -0.2093987613916397, -0.22827158868312836, 0.24852228164672852, -0.9961726665496826, -0.4307613670825958, -0.4164407551288605, 0.16472338140010834, 0.1134159117937088, 0.223842054605484, -0.4942367672920227, 0.3618742823600769, 0.5155506730079651, -0.4180271029472351, -0.1332053244113922, 0.604713499546051, 0.4016450047492981, 0.3631466329097748, -0.43490248918533325, -0.3041309714317322, 0.43353620171546936, 0.38467690348625183, -0.2671223282814026, -0.3849309980869293, -0.24352040886878967, -0.11954154819250107, -0.5480789542198181], [0.2791178524494171, -0.41020333766937256, -0.12459824979305267, 0.3278801143169403, -0.054348066449165344, -0.042545199394226074, -0.2316150665283203, -0.2692234218120575, 0.4237251579761505, -0.16499891877174377, -0.05152478814125061, 0.15197189152240753, -0.25296229124069214, -0.01414838433265686, -0.05779939889907837, -0.2778976857662201, -0.35872945189476013, 0.16873499751091003, 0.1659708172082901, 0.11890281736850739, -0.1382017880678177, 0.16267941892147064, -0.1534310132265091, 0.3911735713481903, 0.04964420199394226, -0.04826226457953453, -0.38069668412208557, -0.13905739784240723, -0.27557164430618286, 0.334225058555603, -0.3776489794254303, -0.04625912010669708], [0.998361349105835, 0.017472997307777405, 0.5382810235023499, 0.2511538565158844, 0.8177870512008667, -0.19224101305007935, 0.7068734169006348, -0.26622724533081055, -0.1481570452451706, 0.36681511998176575, -0.03739774227142334, 0.8748024106025696, 0.3653423488140106, 0.15496662259101868, 0.5246530175209045, -0.34777355194091797, 0.27371689677238464, 1.0, 0.13681863248348236, 0.34810692071914673, 0.44272473454475403, -1.0, -0.7001501321792603, 0.6014782190322876, -0.19967778027057648, 0.8275049924850464, -0.20625874400138855, -0.2837287187576294, 0.1266641914844513, -0.5978537201881409, 0.22947777807712555, -0.09828943014144897], [-0.005424976348876953, 0.4009605348110199, 0.2423897087574005, -0.0389426052570343, -0.2950077950954437, 0.10745999217033386, 0.36218222975730896, -0.20451697707176208, 0.15727904438972473, -0.04571917653083801, -0.2364756166934967, 0.19959363341331482, 0.25666192173957825, 0.2456589639186859, 0.3766005337238312, 0.11246922612190247, 0.37006375193595886, 0.24169597029685974, -0.10056760907173157, -0.24753068387508392, 0.1723380982875824, -0.2786814868450165, 0.09261837601661682, 0.19691875576972961, -0.32185685634613037, 0.08983805775642395, -0.12318804860115051, -0.3310537338256836, 0.40360960364341736, -0.00728800892829895, -0.19445155560970306, -0.04885473847389221]], [0.20627315, 0.044268046, 0.062410202, 0.0, 0.111360006, 0.0, 0.035616178, 0.0, 0.08259098, -0.23686679, 0.0, 0.093925305, 0.21332578, -0.01197638, 0.15386346, -0.21273223, -0.088479474, -0.07042581, -0.06050775, 0.5027403, 0.1958934, -0.18317358, -0.20389226, 0.2596603, 0.0, 0.05847884, 0.27715355, 0.0, -0.004943212, 0.09857356, -0.26809317, -0.106919415]]