[[[-0.16976501047611237, 0.03916629031300545, 0.0045850551687181, -0.013209902681410313, 0.1062544658780098, 0.15528327226638794, 0.3044912815093994, -0.15414705872535706, -0.47590169310569763, -0.028636127710342407, 0.20723176002502441, 0.31914037466049194, 0.00018107815412804484, 0.002600173931568861, 0.1277143657207489], [0.052241139113903046, 0.041254427284002304, 0.03251688927412033, 0.13221390545368195, -0.259170800447464, -0.4128110706806183, -0.1763104796409607, 0.19855867326259613, -0.27150437235832214, -0.008157816715538502, -0.2980813682079315, 0.5439509153366089, -0.07068350911140442, -0.06149093061685562, -0.1106906458735466], [-0.06685874611139297, 0.00373203051276505, 0.021677160635590553, 0.08207076787948608, 0.17879538238048553, 0.07337689399719238, -0.13378340005874634, 0.4100240468978882, -0.13624052703380585, -0.007130298297852278, -0.3837081491947174, 0.36911165714263916, 0.0016053718281909823, 0.03115866705775261, 0.0588613897562027], [0.01726028509438038, 0.03657827153801918, 0.03531148284673691, -0.011625542305409908, 0.2348795384168625, -0.01596425101161003, -0.29367610812187195, 0.5162846446037292, -0.40890824794769287, 0.00361736211925745, 0.05730723589658737, 0.22915346920490265, -0.014912341721355915, -0.009088742546737194, -0.031907711178064346], [-0.183285653591156, -0.023296458646655083, 0.2942008376121521, -0.04418061301112175, 0.48266103863716125, 0.07315515726804733, 0.12236251682043076, 0.7334414124488831, 0.16168484091758728, -0.18239770829677582, 0.05382193624973297, 0.14308510720729828, 0.1458536982536316, 0.062209710478782654, 0.17785592377185822], [-0.0677720308303833, -0.011906377039849758, 0.13489043712615967, -0.05494942143559456, 0.34148117899894714, 0.017547355964779854, 0.012511702254414558, 0.6831088662147522, -0.0006618078914470971, -0.06583717465400696, -0.08569540828466415, 0.18819405138492584, 0.1330052763223648, 0.18765060603618622, 0.17327654361724854], [0.015685658901929855, 0.01826024428009987, 0.004146595019847155, -0.0047935307957232, 0.03592047095298767, 0.06472197920084, 0.09492560476064682, 0.04539832845330238, 0.11502733081579208, 0.05658994987607002, 0.12136883288621902, -0.0351388119161129, 0.041413597762584686, 0.05772208422422409, -0.007913479581475258], [-0.014069478027522564, -0.04450824111700058, -0.039415810257196426, 0.009500717744231224, -0.004107480403035879, 0.17286181449890137, 0.17079132795333862, -0.22123800218105316, 0.17251254618167877, 0.06832394003868103, -0.10876339673995972, -0.06485807150602341, -0.02514130063354969, 0.05009056627750397, -0.07050815224647522], [0.055282216519117355, 0.05174173414707184, -0.011447615921497345, -0.37963223457336426, -0.14165867865085602, -0.6791884303092957, 0.017955578863620758, 0.4122292399406433, -0.27600932121276855, -0.07951600104570389, 0.05188176408410072, -0.2100357711315155, 0.01896967738866806, 0.0009467912022955716, -0.06129266694188118], [-0.0706571638584137, -0.031273938715457916, 0.05643051117658615, -0.056689050048589706, -0.043289463967084885, -0.4328785240650177, -0.07637560367584229, 0.1690378040075302, -0.011891422793269157, -0.03951600566506386, -0.03857246786355972, -0.017812326550483704, -0.08888403326272964, -0.007528124377131462, 0.06621784716844559], [-0.004448979161679745, 0.023432906717061996, 0.02462414652109146, 0.03688793256878853, 0.08745382726192474, -0.15048332512378693, -0.1437738835811615, 0.39263299107551575, -0.19484782218933105, -0.013145373202860355, -0.04131756350398064, 0.174873486161232, -0.07536876201629639, -0.12446337193250656, 0.024428395554423332], [0.07266335189342499, -0.06111209839582443, 0.05431104823946953, -0.032480623573064804, 0.027349412441253662, 0.0548432320356369, -0.14121238887310028, 0.27206099033355713, -0.09823231399059296, 0.04231250286102295, 0.010095536708831787, 0.13912467658519745, -0.03191424533724785, -0.12328365445137024, -0.06601367890834808], [0.004024777561426163, -0.13330009579658508, 0.15692175924777985, -0.04501980543136597, 0.008514554239809513, 0.13566230237483978, -0.05748807638883591, 0.2518594563007355, -0.1306958645582199, 0.020041579380631447, -0.019954102113842964, 0.06525177508592606, -0.008403168059885502, 0.10444213449954987, 0.04388247802853584], [0.08933224529027939, -0.018416602164506912, 0.04281668737530708, 0.04383673518896103, -0.03286987915635109, 0.1625199019908905, -0.034913789480924606, 0.10767318308353424, -0.13857010006904602, 0.11093178391456604, -0.08839636296033859, 0.003441339358687401, -0.12775860726833344, 0.12514068186283112, -0.05370015650987625], [0.20144438743591309, 0.12402284145355225, 0.05416640639305115, 0.09003013372421265, -0.17967748641967773, -0.025686755776405334, -0.07183588296175003, -0.20549647510051727, -0.20875269174575806, 0.20193380117416382, -0.20367580652236938, 0.042416200041770935, -0.19596503674983978, 0.1485666036605835, -0.2563258707523346], [0.21362565457820892, 0.1220320612192154, 0.040497951209545135, -0.03266386687755585, -0.3900218904018402, -0.2561141550540924, -0.019297903403639793, -0.47471854090690613, -0.05991989001631737, 0.06049905717372894, -0.27843350172042847, 0.06703300774097443, -0.3905317783355713, 0.1252886950969696, -0.4067249298095703], [-0.05852007493376732, 0.19056709110736847, -0.031188540160655975, 0.03826596587896347, -0.19967353343963623, -0.3837226629257202, 0.03208189085125923, 0.0759466141462326, 0.21327044069766998, -0.04772171005606651, 0.1188628152012825, -0.3481314480304718, -0.05633258447051048, -0.14168515801429749, 0.06569573283195496], [-0.058636706322431564, 0.11608946323394775, -0.05590632185339928, 0.07677283138036728, -0.13378432393074036, -0.10144984722137451, -0.13746164739131927, 0.32371893525123596, 0.0651933029294014, 0.020957356318831444, 0.15963494777679443, -0.11511975526809692, -0.07919789105653763, -0.22208236157894135, 0.07111245393753052], [-0.01393351424485445, -0.013270363211631775, -0.14002688229084015, -0.03984742984175682, -0.24504241347312927, -0.012444011867046356, -0.4265405535697937, 0.19998086988925934, -0.35825735330581665, 0.13513442873954773, -0.12028094381093979, 0.011653099209070206, -0.044858016073703766, -0.13853193819522858, 0.029886113479733467], [0.00529465451836586, -0.016612743958830833, -0.027454515919089317, -0.030251240357756615, -0.09411592036485672, 0.07080082595348358, -0.3693000376224518, -0.31568360328674316, -0.45604208111763, 0.1434262990951538, 0.14838162064552307, -0.11816514283418655, 0.04680664837360382, 0.0697970986366272, -0.03818093612790108], [-0.0801592543721199, 0.061395663768053055, -0.0038756518624722958, -0.009029081091284752, -0.1918303668498993, -0.07672518491744995, 0.15251851081848145, -0.11122172325849533, 0.13706077635288239, -0.0931047722697258, 0.17499691247940063, -0.25022730231285095, -0.08660401403903961, 0.010948487557470798, 0.12941454350948334], [0.05549050495028496, 0.09970568120479584, -0.10491640120744705, -0.05862081050872803, -0.08214747905731201, -0.19679982960224152, 0.01028463151305914, -0.24378149211406708, -0.011200868524610996, 0.008930174633860588, 0.02753268927335739, -0.18681474030017853, -0.1863952875137329, 0.031116582453250885, -0.02032821998000145], [0.1436755210161209, 0.1908055692911148, -0.051168281584978104, 0.01120767556130886, -0.09816496074199677, 0.10949046909809113, -0.22525060176849365, -0.5002943277359009, -0.27017971873283386, 0.17097599804401398, -0.21177512407302856, -0.03269447386264801, -0.13810136914253235, 0.06637537479400635, -0.19052813947200775], [0.3013243079185486, 0.18885192275047302, 0.035433024168014526, 0.23452073335647583, -0.39039692282676697, -0.17179083824157715, -0.20951810479164124, -0.46743765473365784, -0.20903827250003815, 0.02513270266354084, -0.17955619096755981, -0.05025597661733627, -0.2960604131221771, 0.19285863637924194, -0.1693241149187088], [0.007606090046465397, 0.0172580573707819, -0.05466621369123459, -0.05808890238404274, -0.0577457994222641, -0.5333043932914734, 0.04518289119005203, 0.509066104888916, 0.33185094594955444, -0.003556199138984084, 0.03383733332157135, 0.06753329932689667, 0.10507956147193909, -0.26786160469055176, 0.06486093997955322], [-0.0795096606016159, 0.015356596559286118, -0.07212097942829132, 0.18219196796417236, -0.08785092085599899, 0.08866512775421143, 0.055942434817552567, 0.10137423872947693, 0.00016378516738768667, 0.021060410887002945, -0.2855263650417328, 0.12935015559196472, -0.08911840617656708, -0.20327319204807281, 0.1698131114244461], [0.09326232224702835, -0.10545337945222855, -0.06246877834200859, -0.14438529312610626, -0.21540503203868866, 0.26976945996284485, -0.14486919343471527, -0.07914172857999802, -0.21582262217998505, 0.14636771380901337, -0.09260459244251251, 0.0591922253370285, 0.033227115869522095, -0.0655316486954689, -0.0913923904299736], [-0.0197492316365242, -0.04368630796670914, 0.04530329629778862, 0.010265969671308994, -0.015437333844602108, -0.23734508454799652, 0.013025416992604733, -0.005368900019675493, 0.01502335723489523, 0.002504595322534442, -0.0003727607545442879, 0.1439737230539322, 0.005900342483073473, 0.05410296842455864, 0.02894560620188713], [0.0019629942253232002, -0.07079831510782242, 0.10986838489770889, -0.02996477484703064, -0.11591542512178421, -0.58451908826828, 0.30855387449264526, -0.034475233405828476, 0.3015235662460327, -0.05650483816862106, 0.0854111760854721, 0.03431009128689766, -0.1056756004691124, -0.036961108446121216, -0.028650440275669098], [0.0024307428393512964, 0.018815193325281143, -0.0562664270401001, -0.049113158136606216, -0.1579659879207611, -0.16707178950309753, 0.01894393004477024, 0.034323159605264664, -0.050265856087207794, 0.026722608134150505, -0.00840787123888731, -0.0476313978433609, -0.042055778205394745, -0.041832976043224335, -0.059841807931661606], [0.03332429379224777, 0.12005577236413956, -0.10066014528274536, 0.002965650986880064, 0.3172991871833801, 0.6324350237846375, -0.04853752627968788, -0.1502235382795334, 0.01248206291347742, 0.2342381477355957, -0.19414973258972168, -0.15388327836990356, 0.1461874544620514, -0.07111658900976181, -0.0718049481511116], [-0.05770765617489815, 0.020901799201965332, -0.03644923120737076, 0.27187666296958923, 0.2563396692276001, 0.5098668336868286, 0.2487187534570694, -0.026758423075079918, 0.3259243369102478, 0.030345667153596878, -0.142011359333992, 0.03207080438733101, 0.10052897781133652, 0.042497340589761734, 0.17916159331798553], [-0.04123155400156975, -0.05819178372621536, -0.032982196658849716, -0.06479506194591522, 0.03083798848092556, -0.2618041932582855, 0.002171524800360203, 0.242503821849823, -0.18404754996299744, -0.02452520839869976, -0.187471404671669, -0.020504234358668327, -0.16565486788749695, -0.0458359569311142, 0.007177887484431267], [0.008950851857662201, 0.05728330835700035, -0.12875166535377502, 0.1678205132484436, 0.08607399463653564, 0.37167027592658997, 0.039904799312353134, -0.013159015215933323, 0.07222501933574677, 0.06711672246456146, -0.17282848060131073, -0.045593973249197006, -0.08188163489103317, -0.049322932958602905, -0.05902230367064476], [0.0919644832611084, -0.06401439011096954, -0.08136101812124252, -0.10484909266233444, 0.09967151284217834, 0.24118241667747498, -0.1561221480369568, 0.2808394730091095, -0.16213291883468628, 0.07774441689252853, -0.14447392523288727, 0.23021674156188965, 0.16778334975242615, -0.03394634649157524, -0.12066920101642609], [0.11131428927183151, 0.02667517401278019, -0.000862597138620913, -0.17554014921188354, -0.3252693712711334, -0.8242184519767761, 0.11673638969659805, -0.20503371953964233, -0.06735148280858994, 0.05353380739688873, -0.026858115568757057, 0.180315300822258, -0.07678039371967316, -0.03141562640666962, -0.17800772190093994], [0.06650547683238983, -0.049273982644081116, -0.020520104095339775, -0.11495571583509445, -0.1988617330789566, -0.6949953436851501, 0.06266667693853378, -0.14043372869491577, 0.03504253923892975, -0.002543455921113491, 0.0357256717979908, -0.02412419393658638, 0.041686978191137314, 0.024805624037981033, -0.12689846754074097], [0.015830568969249725, 0.08382003009319305, -0.050884220749139786, -0.304668128490448, -0.1451883763074875, -0.6463839411735535, -0.22179961204528809, 0.36539673805236816, -0.3242848217487335, 0.037657931447029114, -0.05767527222633362, 0.04454939067363739, -0.04486355185508728, -0.007628273218870163, -0.02391311712563038], [-0.04811980947852135, -0.048298630863428116, 0.047365788370370865, -0.11983056366443634, 0.21682067215442657, 0.34509608149528503, -0.019999049603939056, 0.4051467180252075, -0.17602689564228058, 0.05863112211227417, -0.2296566218137741, 0.003704207483679056, 0.1295945644378662, -0.0579368881881237, 0.13336022198200226], [-0.034283190965652466, -0.032836560159921646, -0.1367010474205017, 0.2638542652130127, 0.3064895272254944, 0.7756098508834839, 0.08798927068710327, 0.07638447731733322, 0.05712386593222618, 0.08059803396463394, -0.0012116774450987577, 0.1445571780204773, 0.03890351951122284, -0.15401656925678253, -0.042453404515981674], [0.030614376068115234, 0.07487060874700546, 0.16940255463123322, 0.0967075526714325, 0.2603220045566559, 0.12130727618932724, -0.05408310145139694, 0.4821561872959137, 0.0444738008081913, 0.06242796778678894, -0.10848730802536011, 0.16546407341957092, 0.01193094439804554, 0.14266903698444366, -0.03778945282101631], [0.03124724142253399, 0.14200617372989655, -0.017273494973778725, 0.10307693481445312, 0.3491009771823883, 0.533454954624176, -0.11203768849372864, 0.19458289444446564, -0.020838940516114235, -0.0069493986666202545, -0.29109498858451843, 0.0636635348200798, 0.0215531587600708, 0.04664276912808418, 0.0761595368385315], [0.02184520661830902, 0.009497970342636108, -0.011477037332952023, -0.06614178419113159, 0.27599215507507324, 0.21184903383255005, -0.0586148239672184, 0.2108987420797348, -0.09392209351062775, 0.024840092286467552, -0.08939558267593384, 0.23862598836421967, 0.22599901258945465, 0.01890423148870468, -0.16420120000839233], [0.061074234545230865, 0.058455608785152435, -0.021137835457921028, -0.1256595104932785, 0.08692467957735062, -0.5089132189750671, 0.3951297998428345, -0.31460797786712646, 0.3897765278816223, -0.06947525590658188, 0.03775816038250923, 0.008241917006671429, 0.15307512879371643, 0.0031857499852776527, -0.09634412080049515], [0.15286952257156372, 0.09000299870967865, -0.07740398496389389, -0.06729591637849808, -0.2593967616558075, -0.36222976446151733, -0.1491893082857132, -0.49873217940330505, -0.269741952419281, 0.0822870284318924, 0.2523009777069092, -0.3152325451374054, 0.03421596437692642, 0.06727476418018341, -0.33704328536987305], [-0.06664273142814636, 0.05332615226507187, -0.06771328300237656, -0.1083117127418518, 0.37540507316589355, -0.03485992178320885, -0.4362413287162781, 0.9993503093719482, -0.4888794422149658, -0.046578921377658844, -0.4746038615703583, 0.30946582555770874, 0.010636585764586926, 0.01867612451314926, 0.28920257091522217], [-0.10274143517017365, -0.027605457231402397, 0.1222752258181572, 0.04528985172510147, 0.5344651937484741, 0.11176200211048126, -0.4386114776134491, 0.637628436088562, -0.2987014651298523, 0.030831612646579742, -0.21590633690357208, 0.3364920914173126, 0.03746645525097847, -0.10205765813589096, 0.14136795699596405], [-0.031995050609111786, 0.0529579222202301, -0.016417503356933594, 0.20560629665851593, 0.5912913680076599, 0.46184802055358887, -0.1850607842206955, 0.9352152347564697, -0.246548131108284, -0.047403134405612946, -0.13038179278373718, 0.8530398607254028, 0.007735089398920536, -0.11674793809652328, 0.00365261803381145], [0.3292657136917114, 0.06324338912963867, 0.2413538694381714, -0.046091072261333466, 0.39917436242103577, -0.14090606570243835, 0.061827998608350754, 0.8027820587158203, -0.21097630262374878, 0.10997723042964935, -0.06568857282400131, 0.2696574628353119, -0.04093216359615326, 0.10827616602182388, -0.39777839183807373], [0.19101449847221375, 0.1525389552116394, 0.32673782110214233, 0.11304806917905807, 0.5211623311042786, 0.24980899691581726, -0.23713454604148865, 0.5560933947563171, -0.2384263426065445, -0.021792201325297356, -0.4545980393886566, 0.9518442153930664, -0.13970859348773956, 0.4263380467891693, -0.14830869436264038], [0.0194164477288723, -0.05008829012513161, 0.18295767903327942, 0.019467905163764954, 0.5429496765136719, 0.39202460646629333, 0.060146283358335495, 0.24484525620937347, 0.006211258936673403, 0.0007724814931862056, -0.628253161907196, 0.5038275718688965, 0.13555528223514557, 0.2419079840183258, -0.05697827786207199], [0.01462593860924244, -0.02790302224457264, 0.05974605679512024, 0.07653709501028061, 0.2801553010940552, 0.25877079367637634, 0.028404155746102333, -0.17690466344356537, 0.08083214610815048, -0.12577058374881744, -0.2773226499557495, -0.1274949610233307, 0.26936888694763184, 0.231209397315979, 0.026934832334518433], [0.06715119630098343, -0.04001963511109352, 0.015003669075667858, 0.02882934734225273, 0.12398581206798553, 0.1054573804140091, -0.23050588369369507, 0.12814286351203918, -0.35493260622024536, 0.21852439641952515, 0.26956987380981445, 0.08817024528980255, 0.111858069896698, -0.13770629465579987, -0.13017074763774872], [-0.10732400417327881, -0.08713553100824356, 0.11831331998109818, -0.006663510575890541, 0.2865005135536194, -0.14526358246803284, -0.6596167683601379, 0.9983404278755188, -0.548439085483551, -0.00041104122647084296, -0.4779101610183716, 0.5031023621559143, -0.05190473049879074, -0.11597898602485657, 0.1796112358570099], [-0.1326122134923935, 0.010937151499092579, 0.12491997331380844, 0.07162148505449295, 0.36418667435646057, -0.037538956850767136, -0.16095800697803497, 0.8529491424560547, -0.16265560686588287, -0.07231679558753967, -0.3162626028060913, 0.4622863829135895, -0.037465039640665054, -0.09330367296934128, 0.17120850086212158], [0.005831276997923851, 0.0017463082913309336, 0.1081889271736145, -0.03768749162554741, 0.029840633273124695, -0.24768048524856567, -0.41647714376449585, 0.2522405982017517, -0.4136059284210205, -0.0865480825304985, -0.3348616659641266, 0.14513500034809113, -0.0016221503028646111, 0.14105460047721863, -0.03480777516961098], [0.12519681453704834, -0.022511519491672516, 0.15209142863750458, -0.1361485868692398, 0.028584636747837067, -0.16035516560077667, 0.11448711156845093, 0.2073325663805008, 0.14668458700180054, -0.09465133398771286, 0.1475316286087036, 0.25617673993110657, -0.028792832046747208, 0.1209663599729538, 0.028128555044531822], [0.0662289634346962, 0.09618169814348221, 0.22860103845596313, 0.011406799778342247, 0.13678452372550964, -0.06186535581946373, 0.1872323900461197, 0.1444748342037201, 0.1854071319103241, 0.11564649641513824, -0.2085210680961609, 0.3436916172504425, -0.17326883971691132, 0.1255127638578415, -0.07907483726739883], [0.12018699944019318, -0.2983863949775696, 0.25086814165115356, 0.08583308011293411, -0.028927473351359367, 0.12983009219169617, -0.15121027827262878, -0.22795480489730835, -0.3010281026363373, 0.1804654449224472, -0.31794965267181396, 0.21852841973304749, -0.16835016012191772, 0.38149067759513855, -0.1989518105983734], [0.06063403934240341, -0.21500685811042786, 0.24494533240795135, -0.05034695565700531, -0.2022809237241745, 0.11299164593219757, -0.060809507966041565, -0.38434553146362305, -0.1307399719953537, 0.260572224855423, -0.15199008584022522, -0.07589000463485718, -0.1218377873301506, 0.044289156794548035, 0.004195562098175287], [0.07738212496042252, -0.2197319120168686, 0.0961725041270256, 0.0024714285973459482, -0.6864206194877625, -0.04678792506456375, -0.030192971229553223, 0.2334289699792862, -0.07670020312070847, 0.2930688261985779, 0.19615338742733002, 0.1162019595503807, -0.2691384553909302, -0.4052284359931946, -0.04144885018467903], [-0.10241987556219101, -0.059809282422065735, 0.03827308118343353, -0.07528449594974518, -0.37238121032714844, -0.20124731957912445, -0.24160104990005493, 0.8583916425704956, -0.42053234577178955, -0.10296773165464401, -0.1650470644235611, 0.41810327768325806, -0.2063724398612976, -0.3821861445903778, 0.23306302726268768], [-0.0420936644077301, 0.029325824230909348, -0.001186627196148038, -0.24426333606243134, 0.21740823984146118, -0.19322353601455688, -0.1551312804222107, 0.26169419288635254, -0.09567851573228836, -0.09060144424438477, -0.13637417554855347, 0.37495702505111694, -0.054641369730234146, 0.01973588764667511, 0.1144944354891777], [-0.03447209298610687, -0.03375653922557831, -0.016188926994800568, -0.15627411007881165, 0.08079028129577637, 0.2930298149585724, 0.02198503166437149, -0.022221215069293976, 0.1042773425579071, 0.10437875986099243, -0.46454185247421265, 0.10192383825778961, -0.02295319177210331, 0.10086482763290405, 0.024751704186201096]], [0.3247029, 0.22095685, 0.04460597, -0.13417232, 0.21865879, -0.5779537, 0.058228653, 0.0036740797, 0.24516198, -0.05758243, 0.19598268, 0.28843734, 0.1127006, 0.046294414, 0.14453949]]