[[[-0.4675363600254059, -0.011575846932828426, -0.20775863528251648, 0.017685560509562492, 0.33818933367729187, 0.16910195350646973, 0.14072659611701965, 0.21786794066429138, 0.02420813776552677, -0.32859107851982117, 0.3794553577899933, -0.3236188590526581, 0.24413849413394928, 0.12054742127656937, 0.13648094236850739], [0.22279176115989685, -0.10105184465646744, 0.4345942735671997, 0.3995966911315918, 0.19207808375358582, 0.05632667616009712, 0.20850515365600586, 0.43070054054260254, 0.3408791124820709, 0.030095629394054413, 0.03931557759642601, 0.05269109457731247, -0.45765185356140137, -0.0873313620686531, -0.10552894324064255], [-0.19703064858913422, 0.19314587116241455, -0.3440974950790405, -0.3259740471839905, 0.24676401913166046, -0.4636935889720917, -0.42622217535972595, -0.044234875589609146, -0.1502400040626526, 0.5532104969024658, 0.06575986742973328, -0.07411804795265198, 0.0627729669213295, 0.12081034481525421, 0.07647774368524551], [0.04530556499958038, -0.2512546181678772, 0.35781922936439514, -0.04744596406817436, -0.08030609786510468, 0.09712586551904678, 0.6870704293251038, 0.031246419996023178, -0.346006840467453, 0.0688866376876831, 0.8345120549201965, 0.252526193857193, 0.10092796385288239, 0.5298967361450195, 0.42936408519744873], [-0.08801361918449402, 0.5259501338005066, 0.1356496661901474, -0.134534552693367, -0.25601619482040405, 0.14425961673259735, -0.09518320113420486, 0.06077418848872185, -0.17908939719200134, 0.3471392095088959, -0.06383442133665085, 0.46621447801589966, -0.34031420946121216, 0.14373376965522766, -0.21923699975013733], [0.06775043159723282, -1.0, 0.025627126917243004, -0.0440094992518425, 0.14366798102855682, -0.29866722226142883, -0.14362318813800812, 0.09761396795511246, -0.2494792938232422, 0.4526984989643097, 0.1327386051416397, 1.0, -0.2582041323184967, 0.48859506845474243, -0.19660118222236633], [-0.07547128200531006, -0.8258533477783203, -0.06343402713537216, 0.009417031891644001, 0.6025735139846802, 0.7901805639266968, -0.16884230077266693, -0.2302987277507782, 0.1586439460515976, -0.8801907300949097, -0.3663088083267212, -0.422076016664505, -0.09615856409072876, -0.2686561346054077, -0.3333609700202942], [-0.2249809056520462, -0.026926616206765175, -0.019073251634836197, 0.1205596849322319, -0.1814938634634018, -0.5258107781410217, -0.10248841345310211, -0.28034284710884094, 0.4032858610153198, 0.23672281205654144, -0.03418663516640663, 0.7726096510887146, -0.31168144941329956, -0.09732744097709656, 0.14436693489551544], [0.2636723220348358, 0.4998026490211487, -0.6831426024436951, -0.11064305156469345, 0.06268317997455597, -0.582451343536377, 0.37097087502479553, 0.3031640350818634, -0.33807310461997986, -0.548073947429657, 0.31467026472091675, -1.0, -0.31009072065353394, 0.06530041247606277, 0.46483510732650757], [-0.32055532932281494, -0.2036927044391632, 0.16239194571971893, 0.026891592890024185, -0.3586648404598236, -0.2762297987937927, 0.1878998726606369, 0.17259956896305084, -0.3541068434715271, 0.09382358193397522, -0.4268113374710083, -0.49312978982925415, -0.4261634647846222, 0.06750059872865677, -0.024043982848525047], [0.10902046412229538, 0.1746007800102234, -0.10825560986995697, 0.18365778028964996, -0.11157673597335815, -0.29593607783317566, 0.02419140562415123, -0.20071396231651306, -0.043023087084293365, -1.0, -0.04571634158492088, -1.0, -0.2621721625328064, 0.05642145127058029, -0.19995413720607758], [0.10019779205322266, 0.03491995856165886, -0.028651781380176544, 0.22243963181972504, -0.15239745378494263, 0.13627682626247406, 0.1353061944246292, 0.13094864785671234, 0.21501703560352325, 0.1479186862707138, 0.10028283298015594, 0.3151105046272278, -0.34851908683776855, -0.08329445123672485, 0.037189170718193054], [0.16417217254638672, -0.4207419157028198, -0.171755850315094, 0.13707736134529114, 0.08514595031738281, -0.22481544315814972, -0.06212146580219269, 0.11034877598285675, -0.21467247605323792, 0.07910139113664627, -0.6967970728874207, 0.5475205183029175, 0.19470271468162537, -0.3264295160770416, 0.06110095977783203], [-0.13220763206481934, -0.059344615787267685, -1.0, -1.0, 0.07552602887153625, 0.3010985255241394, 0.2593357264995575, -0.03005054220557213, 0.5382391810417175, -0.018816806375980377, 0.21611569821834564, -0.05008829012513161, -0.41212737560272217, -0.02030293457210064, -0.054659172892570496], [0.2296893149614334, 0.03304113447666168, 0.040032658725976944, -0.0009060561424121261, 0.08081487566232681, 0.3223414719104767, 0.31015434861183167, 0.1275705099105835, -0.10798832774162292, -0.2490626871585846, -0.49236178398132324, -0.3267725110054016, -0.18305231630802155, 0.09772766381502151, 0.2468140572309494]], [0.17621742, -0.019067803, 0.1442476, -0.015581978, 0.041379962, 0.057499915, 0.16164264, 0.19297382, 0.23280756, 0.013215789, 0.011350593, -0.22449975, -0.10020688, -0.19953099, 0.117982455]]