[[array([[-0.16976501],
       [ 0.05224114],
       [-0.06685875],
       [ 0.01726029],
       [-0.18328565],
       [-0.06777203],
       [ 0.01568566],
       [-0.01406948],
       [ 0.05528222],
       [-0.07065716],
       [-0.00444898],
       [ 0.07266335],
       [ 0.00402478],
       [ 0.08933225],
       [ 0.20144439],
       [ 0.21362565],
       [-0.05852007],
       [-0.05863671],
       [-0.01393351],
       [ 0.00529465],
       [-0.08015925],
       [ 0.0554905 ],
       [ 0.14367552],
       [ 0.3013243 ],
       [ 0.00760609],
       [-0.07950966],
       [ 0.09326232],
       [-0.01974923],
       [ 0.00196299],
       [ 0.00243074],
       [ 0.03332429],
       [-0.05770766],
       [-0.04123155],
       [ 0.00895085],
       [ 0.09196448],
       [ 0.11131429],
       [ 0.06650548],
       [ 0.01583057],
       [-0.04811981],
       [-0.03428319],
       [ 0.03061438],
       [ 0.03124724],
       [ 0.02184521],
       [ 0.06107423],
       [ 0.15286952],
       [-0.06664273],
       [-0.10274144],
       [-0.03199505],
       [ 0.3292657 ],
       [ 0.1910145 ],
       [ 0.01941645],
       [ 0.01462594],
       [ 0.0671512 ],
       [-0.107324  ],
       [-0.13261221],
       [ 0.00583128],
       [ 0.12519681],
       [ 0.06622896],
       [ 0.120187  ],
       [ 0.06063404],
       [ 0.07738212],
       [-0.10241988],
       [-0.04209366],
       [-0.03447209]], dtype=float32), array([[ 0.03916629],
       [ 0.04125443],
       [ 0.00373203],
       [ 0.03657827],
       [-0.02329646],
       [-0.01190638],
       [ 0.01826024],
       [-0.04450824],
       [ 0.05174173],
       [-0.03127394],
       [ 0.02343291],
       [-0.0611121 ],
       [-0.1333001 ],
       [-0.0184166 ],
       [ 0.12402284],
       [ 0.12203206],
       [ 0.19056709],
       [ 0.11608946],
       [-0.01327036],
       [-0.01661274],
       [ 0.06139566],
       [ 0.09970568],
       [ 0.19080557],
       [ 0.18885192],
       [ 0.01725806],
       [ 0.0153566 ],
       [-0.10545338],
       [-0.04368631],
       [-0.07079832],
       [ 0.01881519],
       [ 0.12005577],
       [ 0.0209018 ],
       [-0.05819178],
       [ 0.05728331],
       [-0.06401439],
       [ 0.02667517],
       [-0.04927398],
       [ 0.08382003],
       [-0.04829863],
       [-0.03283656],
       [ 0.07487061],
       [ 0.14200617],
       [ 0.00949797],
       [ 0.05845561],
       [ 0.090003  ],
       [ 0.05332615],
       [-0.02760546],
       [ 0.05295792],
       [ 0.06324339],
       [ 0.15253896],
       [-0.05008829],
       [-0.02790302],
       [-0.04001964],
       [-0.08713553],
       [ 0.01093715],
       [ 0.00174631],
       [-0.02251152],
       [ 0.0961817 ],
       [-0.2983864 ],
       [-0.21500686],
       [-0.21973191],
       [-0.05980928],
       [ 0.02932582],
       [-0.03375654]], dtype=float32), array([[ 0.00458506],
       [ 0.03251689],
       [ 0.02167716],
       [ 0.03531148],
       [ 0.29420084],
       [ 0.13489044],
       [ 0.0041466 ],
       [-0.03941581],
       [-0.01144762],
       [ 0.05643051],
       [ 0.02462415],
       [ 0.05431105],
       [ 0.15692176],
       [ 0.04281669],
       [ 0.05416641],
       [ 0.04049795],
       [-0.03118854],
       [-0.05590632],
       [-0.14002688],
       [-0.02745452],
       [-0.00387565],
       [-0.1049164 ],
       [-0.05116828],
       [ 0.03543302],
       [-0.05466621],
       [-0.07212098],
       [-0.06246878],
       [ 0.0453033 ],
       [ 0.10986838],
       [-0.05626643],
       [-0.10066015],
       [-0.03644923],
       [-0.0329822 ],
       [-0.12875167],
       [-0.08136102],
       [-0.0008626 ],
       [-0.0205201 ],
       [-0.05088422],
       [ 0.04736579],
       [-0.13670105],
       [ 0.16940255],
       [-0.01727349],
       [-0.01147704],
       [-0.02113784],
       [-0.07740398],
       [-0.06771328],
       [ 0.12227523],
       [-0.0164175 ],
       [ 0.24135387],
       [ 0.32673782],
       [ 0.18295768],
       [ 0.05974606],
       [ 0.01500367],
       [ 0.11831332],
       [ 0.12491997],
       [ 0.10818893],
       [ 0.15209143],
       [ 0.22860104],
       [ 0.25086814],
       [ 0.24494533],
       [ 0.0961725 ],
       [ 0.03827308],
       [-0.00118663],
       [-0.01618893]], dtype=float32), array([[-0.0132099 ],
       [ 0.1322139 ],
       [ 0.08207077],
       [-0.01162554],
       [-0.04418061],
       [-0.05494942],
       [-0.00479353],
       [ 0.00950072],
       [-0.37963223],
       [-0.05668905],
       [ 0.03688793],
       [-0.03248062],
       [-0.04501981],
       [ 0.04383674],
       [ 0.09003013],
       [-0.03266387],
       [ 0.03826597],
       [ 0.07677283],
       [-0.03984743],
       [-0.03025124],
       [-0.00902908],
       [-0.05862081],
       [ 0.01120768],
       [ 0.23452073],
       [-0.0580889 ],
       [ 0.18219197],
       [-0.1443853 ],
       [ 0.01026597],
       [-0.02996477],
       [-0.04911316],
       [ 0.00296565],
       [ 0.27187666],
       [-0.06479506],
       [ 0.16782051],
       [-0.10484909],
       [-0.17554015],
       [-0.11495572],
       [-0.30466813],
       [-0.11983056],
       [ 0.26385427],
       [ 0.09670755],
       [ 0.10307693],
       [-0.06614178],
       [-0.12565951],
       [-0.06729592],
       [-0.10831171],
       [ 0.04528985],
       [ 0.2056063 ],
       [-0.04609107],
       [ 0.11304807],
       [ 0.01946791],
       [ 0.0765371 ],
       [ 0.02882935],
       [-0.00666351],
       [ 0.07162149],
       [-0.03768749],
       [-0.13614859],
       [ 0.0114068 ],
       [ 0.08583308],
       [-0.05034696],
       [ 0.00247143],
       [-0.0752845 ],
       [-0.24426334],
       [-0.15627411]], dtype=float32), array([[ 0.10625447],
       [-0.2591708 ],
       [ 0.17879538],
       [ 0.23487954],
       [ 0.48266104],
       [ 0.34148118],
       [ 0.03592047],
       [-0.00410748],
       [-0.14165868],
       [-0.04328946],
       [ 0.08745383],
       [ 0.02734941],
       [ 0.00851455],
       [-0.03286988],
       [-0.17967749],
       [-0.3900219 ],
       [-0.19967353],
       [-0.13378432],
       [-0.24504241],
       [-0.09411592],
       [-0.19183037],
       [-0.08214748],
       [-0.09816496],
       [-0.39039692],
       [-0.0577458 ],
       [-0.08785092],
       [-0.21540503],
       [-0.01543733],
       [-0.11591543],
       [-0.15796599],
       [ 0.3172992 ],
       [ 0.25633967],
       [ 0.03083799],
       [ 0.08607399],
       [ 0.09967151],
       [-0.32526937],
       [-0.19886173],
       [-0.14518838],
       [ 0.21682067],
       [ 0.30648953],
       [ 0.260322  ],
       [ 0.34910098],
       [ 0.27599216],
       [ 0.08692468],
       [-0.25939676],
       [ 0.37540507],
       [ 0.5344652 ],
       [ 0.59129137],
       [ 0.39917436],
       [ 0.52116233],
       [ 0.5429497 ],
       [ 0.2801553 ],
       [ 0.12398581],
       [ 0.2865005 ],
       [ 0.36418667],
       [ 0.02984063],
       [ 0.02858464],
       [ 0.13678452],
       [-0.02892747],
       [-0.20228092],
       [-0.6864206 ],
       [-0.3723812 ],
       [ 0.21740824],
       [ 0.08079028]], dtype=float32), array([[ 0.15528327],
       [-0.41281107],
       [ 0.07337689],
       [-0.01596425],
       [ 0.07315516],
       [ 0.01754736],
       [ 0.06472198],
       [ 0.17286181],
       [-0.67918843],
       [-0.43287852],
       [-0.15048333],
       [ 0.05484323],
       [ 0.1356623 ],
       [ 0.1625199 ],
       [-0.02568676],
       [-0.25611416],
       [-0.38372266],
       [-0.10144985],
       [-0.01244401],
       [ 0.07080083],
       [-0.07672518],
       [-0.19679983],
       [ 0.10949047],
       [-0.17179084],
       [-0.5333044 ],
       [ 0.08866513],
       [ 0.26976946],
       [-0.23734508],
       [-0.5845191 ],
       [-0.16707179],
       [ 0.632435  ],
       [ 0.50986683],
       [-0.2618042 ],
       [ 0.37167028],
       [ 0.24118242],
       [-0.82421845],
       [-0.69499534],
       [-0.64638394],
       [ 0.34509608],
       [ 0.77560985],
       [ 0.12130728],
       [ 0.53345495],
       [ 0.21184903],
       [-0.5089132 ],
       [-0.36222976],
       [-0.03485992],
       [ 0.111762  ],
       [ 0.46184802],
       [-0.14090607],
       [ 0.249809  ],
       [ 0.3920246 ],
       [ 0.2587708 ],
       [ 0.10545738],
       [-0.14526358],
       [-0.03753896],
       [-0.24768049],
       [-0.16035517],
       [-0.06186536],
       [ 0.12983009],
       [ 0.11299165],
       [-0.04678793],
       [-0.20124732],
       [-0.19322354],
       [ 0.29302981]], dtype=float32), array([[ 0.30449128],
       [-0.17631048],
       [-0.1337834 ],
       [-0.2936761 ],
       [ 0.12236252],
       [ 0.0125117 ],
       [ 0.0949256 ],
       [ 0.17079133],
       [ 0.01795558],
       [-0.0763756 ],
       [-0.14377388],
       [-0.14121239],
       [-0.05748808],
       [-0.03491379],
       [-0.07183588],
       [-0.0192979 ],
       [ 0.03208189],
       [-0.13746165],
       [-0.42654055],
       [-0.36930004],
       [ 0.15251851],
       [ 0.01028463],
       [-0.2252506 ],
       [-0.2095181 ],
       [ 0.04518289],
       [ 0.05594243],
       [-0.1448692 ],
       [ 0.01302542],
       [ 0.30855387],
       [ 0.01894393],
       [-0.04853753],
       [ 0.24871875],
       [ 0.00217152],
       [ 0.0399048 ],
       [-0.15612215],
       [ 0.11673639],
       [ 0.06266668],
       [-0.22179961],
       [-0.01999905],
       [ 0.08798927],
       [-0.0540831 ],
       [-0.11203769],
       [-0.05861482],
       [ 0.3951298 ],
       [-0.14918931],
       [-0.43624133],
       [-0.43861148],
       [-0.18506078],
       [ 0.061828  ],
       [-0.23713455],
       [ 0.06014628],
       [ 0.02840416],
       [-0.23050588],
       [-0.65961677],
       [-0.160958  ],
       [-0.41647714],
       [ 0.11448711],
       [ 0.18723239],
       [-0.15121028],
       [-0.06080951],
       [-0.03019297],
       [-0.24160105],
       [-0.15513128],
       [ 0.02198503]], dtype=float32), array([[-0.15414706],
       [ 0.19855867],
       [ 0.41002405],
       [ 0.51628464],
       [ 0.7334414 ],
       [ 0.68310887],
       [ 0.04539833],
       [-0.221238  ],
       [ 0.41222924],
       [ 0.1690378 ],
       [ 0.392633  ],
       [ 0.272061  ],
       [ 0.25185946],
       [ 0.10767318],
       [-0.20549648],
       [-0.47471854],
       [ 0.07594661],
       [ 0.32371894],
       [ 0.19998087],
       [-0.3156836 ],
       [-0.11122172],
       [-0.24378149],
       [-0.5002943 ],
       [-0.46743765],
       [ 0.5090661 ],
       [ 0.10137424],
       [-0.07914173],
       [-0.0053689 ],
       [-0.03447523],
       [ 0.03432316],
       [-0.15022354],
       [-0.02675842],
       [ 0.24250382],
       [-0.01315902],
       [ 0.28083947],
       [-0.20503372],
       [-0.14043373],
       [ 0.36539674],
       [ 0.40514672],
       [ 0.07638448],
       [ 0.4821562 ],
       [ 0.1945829 ],
       [ 0.21089874],
       [-0.31460798],
       [-0.49873218],
       [ 0.9993503 ],
       [ 0.63762844],
       [ 0.93521523],
       [ 0.80278206],
       [ 0.5560934 ],
       [ 0.24484526],
       [-0.17690466],
       [ 0.12814286],
       [ 0.9983404 ],
       [ 0.85294914],
       [ 0.2522406 ],
       [ 0.20733257],
       [ 0.14447483],
       [-0.2279548 ],
       [-0.38434553],
       [ 0.23342897],
       [ 0.85839164],
       [ 0.2616942 ],
       [-0.02222122]], dtype=float32), array([[-4.75901693e-01],
       [-2.71504372e-01],
       [-1.36240527e-01],
       [-4.08908248e-01],
       [ 1.61684841e-01],
       [-6.61807891e-04],
       [ 1.15027331e-01],
       [ 1.72512546e-01],
       [-2.76009321e-01],
       [-1.18914228e-02],
       [-1.94847822e-01],
       [-9.82323140e-02],
       [-1.30695865e-01],
       [-1.38570100e-01],
       [-2.08752692e-01],
       [-5.99198900e-02],
       [ 2.13270441e-01],
       [ 6.51933029e-02],
       [-3.58257353e-01],
       [-4.56042081e-01],
       [ 1.37060776e-01],
       [-1.12008685e-02],
       [-2.70179719e-01],
       [-2.09038273e-01],
       [ 3.31850946e-01],
       [ 1.63785167e-04],
       [-2.15822622e-01],
       [ 1.50233572e-02],
       [ 3.01523566e-01],
       [-5.02658561e-02],
       [ 1.24820629e-02],
       [ 3.25924337e-01],
       [-1.84047550e-01],
       [ 7.22250193e-02],
       [-1.62132919e-01],
       [-6.73514828e-02],
       [ 3.50425392e-02],
       [-3.24284822e-01],
       [-1.76026896e-01],
       [ 5.71238659e-02],
       [ 4.44738008e-02],
       [-2.08389405e-02],
       [-9.39220935e-02],
       [ 3.89776528e-01],
       [-2.69741952e-01],
       [-4.88879442e-01],
       [-2.98701465e-01],
       [-2.46548131e-01],
       [-2.10976303e-01],
       [-2.38426343e-01],
       [ 6.21125894e-03],
       [ 8.08321461e-02],
       [-3.54932606e-01],
       [-5.48439085e-01],
       [-1.62655607e-01],
       [-4.13605928e-01],
       [ 1.46684587e-01],
       [ 1.85407132e-01],
       [-3.01028103e-01],
       [-1.30739972e-01],
       [-7.67002031e-02],
       [-4.20532346e-01],
       [-9.56785157e-02],
       [ 1.04277343e-01]], dtype=float32), array([[-0.02863613],
       [-0.00815782],
       [-0.0071303 ],
       [ 0.00361736],
       [-0.18239771],
       [-0.06583717],
       [ 0.05658995],
       [ 0.06832394],
       [-0.079516  ],
       [-0.03951601],
       [-0.01314537],
       [ 0.0423125 ],
       [ 0.02004158],
       [ 0.11093178],
       [ 0.2019338 ],
       [ 0.06049906],
       [-0.04772171],
       [ 0.02095736],
       [ 0.13513443],
       [ 0.1434263 ],
       [-0.09310477],
       [ 0.00893017],
       [ 0.170976  ],
       [ 0.0251327 ],
       [-0.0035562 ],
       [ 0.02106041],
       [ 0.14636771],
       [ 0.0025046 ],
       [-0.05650484],
       [ 0.02672261],
       [ 0.23423815],
       [ 0.03034567],
       [-0.02452521],
       [ 0.06711672],
       [ 0.07774442],
       [ 0.05353381],
       [-0.00254346],
       [ 0.03765793],
       [ 0.05863112],
       [ 0.08059803],
       [ 0.06242797],
       [-0.0069494 ],
       [ 0.02484009],
       [-0.06947526],
       [ 0.08228703],
       [-0.04657892],
       [ 0.03083161],
       [-0.04740313],
       [ 0.10997723],
       [-0.0217922 ],
       [ 0.00077248],
       [-0.12577058],
       [ 0.2185244 ],
       [-0.00041104],
       [-0.0723168 ],
       [-0.08654808],
       [-0.09465133],
       [ 0.1156465 ],
       [ 0.18046544],
       [ 0.26057222],
       [ 0.29306883],
       [-0.10296773],
       [-0.09060144],
       [ 0.10437876]], dtype=float32), array([[ 2.07231760e-01],
       [-2.98081368e-01],
       [-3.83708149e-01],
       [ 5.73072359e-02],
       [ 5.38219362e-02],
       [-8.56954083e-02],
       [ 1.21368833e-01],
       [-1.08763397e-01],
       [ 5.18817641e-02],
       [-3.85724679e-02],
       [-4.13175635e-02],
       [ 1.00955367e-02],
       [-1.99541021e-02],
       [-8.83963630e-02],
       [-2.03675807e-01],
       [-2.78433502e-01],
       [ 1.18862815e-01],
       [ 1.59634948e-01],
       [-1.20280944e-01],
       [ 1.48381621e-01],
       [ 1.74996912e-01],
       [ 2.75326893e-02],
       [-2.11775124e-01],
       [-1.79556191e-01],
       [ 3.38373333e-02],
       [-2.85526365e-01],
       [-9.26045924e-02],
       [-3.72760755e-04],
       [ 8.54111761e-02],
       [-8.40787124e-03],
       [-1.94149733e-01],
       [-1.42011359e-01],
       [-1.87471405e-01],
       [-1.72828481e-01],
       [-1.44473925e-01],
       [-2.68581156e-02],
       [ 3.57256718e-02],
       [-5.76752722e-02],
       [-2.29656622e-01],
       [-1.21167745e-03],
       [-1.08487308e-01],
       [-2.91094989e-01],
       [-8.93955827e-02],
       [ 3.77581604e-02],
       [ 2.52300978e-01],
       [-4.74603862e-01],
       [-2.15906337e-01],
       [-1.30381793e-01],
       [-6.56885728e-02],
       [-4.54598039e-01],
       [-6.28253162e-01],
       [-2.77322650e-01],
       [ 2.69569874e-01],
       [-4.77910161e-01],
       [-3.16262603e-01],
       [-3.34861666e-01],
       [ 1.47531629e-01],
       [-2.08521068e-01],
       [-3.17949653e-01],
       [-1.51990086e-01],
       [ 1.96153387e-01],
       [-1.65047064e-01],
       [-1.36374176e-01],
       [-4.64541852e-01]], dtype=float32), array([[ 0.31914037],
       [ 0.5439509 ],
       [ 0.36911166],
       [ 0.22915347],
       [ 0.1430851 ],
       [ 0.18819405],
       [-0.03513881],
       [-0.06485807],
       [-0.21003577],
       [-0.01781233],
       [ 0.17487349],
       [ 0.13912468],
       [ 0.06525178],
       [ 0.00344134],
       [ 0.0424162 ],
       [ 0.06703301],
       [-0.34813145],
       [-0.11511976],
       [ 0.0116531 ],
       [-0.11816514],
       [-0.2502273 ],
       [-0.18681474],
       [-0.03269447],
       [-0.05025598],
       [ 0.0675333 ],
       [ 0.12935016],
       [ 0.05919223],
       [ 0.14397372],
       [ 0.03431009],
       [-0.0476314 ],
       [-0.15388328],
       [ 0.0320708 ],
       [-0.02050423],
       [-0.04559397],
       [ 0.23021674],
       [ 0.1803153 ],
       [-0.02412419],
       [ 0.04454939],
       [ 0.00370421],
       [ 0.14455718],
       [ 0.16546407],
       [ 0.06366353],
       [ 0.23862599],
       [ 0.00824192],
       [-0.31523255],
       [ 0.30946583],
       [ 0.3364921 ],
       [ 0.85303986],
       [ 0.26965746],
       [ 0.9518442 ],
       [ 0.5038276 ],
       [-0.12749496],
       [ 0.08817025],
       [ 0.50310236],
       [ 0.46228638],
       [ 0.145135  ],
       [ 0.25617674],
       [ 0.34369162],
       [ 0.21852842],
       [-0.07589   ],
       [ 0.11620196],
       [ 0.41810328],
       [ 0.37495703],
       [ 0.10192384]], dtype=float32), array([[ 1.8107815e-04],
       [-7.0683509e-02],
       [ 1.6053718e-03],
       [-1.4912342e-02],
       [ 1.4585370e-01],
       [ 1.3300528e-01],
       [ 4.1413598e-02],
       [-2.5141301e-02],
       [ 1.8969677e-02],
       [-8.8884033e-02],
       [-7.5368762e-02],
       [-3.1914245e-02],
       [-8.4031681e-03],
       [-1.2775861e-01],
       [-1.9596504e-01],
       [-3.9053178e-01],
       [-5.6332584e-02],
       [-7.9197891e-02],
       [-4.4858016e-02],
       [ 4.6806648e-02],
       [-8.6604014e-02],
       [-1.8639529e-01],
       [-1.3810137e-01],
       [-2.9606041e-01],
       [ 1.0507956e-01],
       [-8.9118406e-02],
       [ 3.3227116e-02],
       [ 5.9003425e-03],
       [-1.0567560e-01],
       [-4.2055778e-02],
       [ 1.4618745e-01],
       [ 1.0052898e-01],
       [-1.6565487e-01],
       [-8.1881635e-02],
       [ 1.6778335e-01],
       [-7.6780394e-02],
       [ 4.1686978e-02],
       [-4.4863552e-02],
       [ 1.2959456e-01],
       [ 3.8903520e-02],
       [ 1.1930944e-02],
       [ 2.1553159e-02],
       [ 2.2599901e-01],
       [ 1.5307513e-01],
       [ 3.4215964e-02],
       [ 1.0636586e-02],
       [ 3.7466455e-02],
       [ 7.7350894e-03],
       [-4.0932164e-02],
       [-1.3970859e-01],
       [ 1.3555528e-01],
       [ 2.6936889e-01],
       [ 1.1185807e-01],
       [-5.1904730e-02],
       [-3.7465040e-02],
       [-1.6221503e-03],
       [-2.8792832e-02],
       [-1.7326884e-01],
       [-1.6835016e-01],
       [-1.2183779e-01],
       [-2.6913846e-01],
       [-2.0637244e-01],
       [-5.4641370e-02],
       [-2.2953192e-02]], dtype=float32), array([[ 0.00260017],
       [-0.06149093],
       [ 0.03115867],
       [-0.00908874],
       [ 0.06220971],
       [ 0.1876506 ],
       [ 0.05772208],
       [ 0.05009057],
       [ 0.00094679],
       [-0.00752812],
       [-0.12446337],
       [-0.12328365],
       [ 0.10444213],
       [ 0.12514068],
       [ 0.1485666 ],
       [ 0.1252887 ],
       [-0.14168516],
       [-0.22208236],
       [-0.13853194],
       [ 0.0697971 ],
       [ 0.01094849],
       [ 0.03111658],
       [ 0.06637537],
       [ 0.19285864],
       [-0.2678616 ],
       [-0.20327319],
       [-0.06553165],
       [ 0.05410297],
       [-0.03696111],
       [-0.04183298],
       [-0.07111659],
       [ 0.04249734],
       [-0.04583596],
       [-0.04932293],
       [-0.03394635],
       [-0.03141563],
       [ 0.02480562],
       [-0.00762827],
       [-0.05793689],
       [-0.15401657],
       [ 0.14266904],
       [ 0.04664277],
       [ 0.01890423],
       [ 0.00318575],
       [ 0.06727476],
       [ 0.01867612],
       [-0.10205766],
       [-0.11674794],
       [ 0.10827617],
       [ 0.42633805],
       [ 0.24190798],
       [ 0.2312094 ],
       [-0.1377063 ],
       [-0.11597899],
       [-0.09330367],
       [ 0.1410546 ],
       [ 0.12096636],
       [ 0.12551276],
       [ 0.38149068],
       [ 0.04428916],
       [-0.40522844],
       [-0.38218614],
       [ 0.01973589],
       [ 0.10086483]], dtype=float32), array([[ 0.12771437],
       [-0.11069065],
       [ 0.05886139],
       [-0.03190771],
       [ 0.17785592],
       [ 0.17327654],
       [-0.00791348],
       [-0.07050815],
       [-0.06129267],
       [ 0.06621785],
       [ 0.0244284 ],
       [-0.06601368],
       [ 0.04388248],
       [-0.05370016],
       [-0.25632587],
       [-0.40672493],
       [ 0.06569573],
       [ 0.07111245],
       [ 0.02988611],
       [-0.03818094],
       [ 0.12941454],
       [-0.02032822],
       [-0.19052814],
       [-0.16932411],
       [ 0.06486094],
       [ 0.16981311],
       [-0.09139239],
       [ 0.02894561],
       [-0.02865044],
       [-0.05984181],
       [-0.07180495],
       [ 0.1791616 ],
       [ 0.00717789],
       [-0.0590223 ],
       [-0.1206692 ],
       [-0.17800772],
       [-0.12689847],
       [-0.02391312],
       [ 0.13336022],
       [-0.0424534 ],
       [-0.03778945],
       [ 0.07615954],
       [-0.1642012 ],
       [-0.09634412],
       [-0.3370433 ],
       [ 0.28920257],
       [ 0.14136796],
       [ 0.00365262],
       [-0.3977784 ],
       [-0.1483087 ],
       [-0.05697828],
       [ 0.02693483],
       [-0.13017075],
       [ 0.17961124],
       [ 0.1712085 ],
       [-0.03480778],
       [ 0.02812856],
       [-0.07907484],
       [-0.19895181],
       [ 0.00419556],
       [-0.04144885],
       [ 0.23306303],
       [ 0.11449444],
       [ 0.0247517 ]], dtype=float32)], array([ 0.3247029 ,  0.22095685,  0.04460597, -0.13417232,  0.21865879,
       -0.5779537 ,  0.05822865,  0.00367408,  0.24516198, -0.05758243,
        0.19598268,  0.28843734,  0.1127006 ,  0.04629441,  0.14453949],
      dtype=float32)]