[[[0.08631756156682968, 0.13895057141780853, -0.6005423665046692, -0.12957344949245453, 0.1305803656578064, -0.44035059213638306, 0.05400621145963669, 0.2905524671077728, 0.724914014339447, 0.6287798881530762, 0.4386950433254242, -0.10158981382846832, 0.5572956204414368, 0.008947372436523438, -0.15368232131004333, 0.0065476056188344955, -0.4109545946121216, 0.4250491261482239, -0.20392921566963196, -0.29518306255340576, -0.17813284695148468, -0.4597250521183014, -0.09743242710828781, 0.4768633544445038, -0.11760999262332916, 0.37102898955345154, 0.006092929746955633, 0.9934496879577637, -0.3417295217514038, -0.1084674745798111, -0.42084911465644836, 0.2023264467716217], [-0.06564338505268097, 0.14956244826316833, -0.28309014439582825, 0.1421443223953247, -0.271251380443573, 0.18972977995872498, 0.23600497841835022, -0.16802380979061127, -0.15102235972881317, -0.22279056906700134, 0.9705340266227722, -0.3266846835613251, 0.2651374638080597, 0.21285918354988098, 0.54542076587677, -0.04140649735927582, -0.10861163586378098, 0.24521677196025848, 0.14194543659687042, -1.0, 0.23418447375297546, 0.09369364380836487, 0.18636392056941986, 0.138824924826622, -0.03606535494327545, -0.03656664863228798, 0.13843634724617004, 0.28707200288772583, 0.2626844346523285, -0.16132581233978271, -0.14896339178085327, 0.2928081750869751], [-0.24511505663394928, 0.8389577865600586, -0.409587025642395, 0.17021077871322632, 0.5662192702293396, -0.623185932636261, -0.3377547860145569, -0.21930842101573944, -0.7840126752853394, 0.2291543036699295, -0.016310812905430794, -0.04845428466796875, -0.06856407970190048, -0.03023242950439453, -0.16068598628044128, 0.27531012892723083, 0.3928816616535187, 0.021627217531204224, 0.05276184529066086, -0.7340649366378784, -0.5579168796539307, -0.9145214557647705, -0.07888802140951157, 0.1404692828655243, -0.17650699615478516, -0.9213200211524963, -0.5165526270866394, -0.03566550090909004, 0.5205110311508179, -0.058102793991565704, -0.3055032789707184, 0.31224122643470764], [0.028209805488586426, -0.1314857006072998, 0.015947043895721436, -0.2976032793521881, 0.28099337220191956, 0.022135049104690552, 0.2935998737812042, -0.18263356387615204, -0.07147200405597687, 0.20423737168312073, -0.21970459818840027, 0.20923802256584167, 0.18827366828918457, -0.2247602492570877, 0.1563630998134613, -0.2943142354488373, 0.19910869002342224, -0.09320417046546936, 0.0686555802822113, -0.2017148733139038, 0.22953221201896667, -0.004705548286437988, 0.28180834650993347, 0.16856294870376587, 0.1749105453491211, 0.24328920245170593, 0.10681554675102234, -0.1805505007505417, -0.30068132281303406, 0.06472653150558472, 0.19159701466560364, -0.14956748485565186], [-0.3622744679450989, -0.038424912840127945, 0.10590502619743347, 0.42476004362106323, -0.7513453960418701, -0.2572823464870453, 0.4110184907913208, -0.12260045111179352, 0.19958747923374176, 0.05409760773181915, 0.5089823007583618, 0.16808940470218658, 0.9927089214324951, -0.01761189103126526, 0.2739940881729126, -0.04012360796332359, 0.2878170609474182, 0.021693427115678787, -0.8642059564590454, -0.11116942763328552, 0.5072387456893921, 0.003034689463675022, 0.08491886407136917, -0.2321404367685318, 0.04074418544769287, -0.21543173491954803, -0.3728333115577698, -0.4522949159145355, -0.10480818152427673, 0.20711223781108856, 0.5756682753562927, -1.0], [-0.28795546293258667, 0.11829283833503723, 0.0033314526081085205, -0.1804971992969513, 0.3009639084339142, 0.10076650977134705, 0.30268022418022156, 0.17462971806526184, -0.2695618271827698, -0.03701746463775635, -0.22346892952919006, 0.06905671954154968, -0.19652679562568665, -0.26001620292663574, 0.2714175283908844, -0.14856679737567902, 0.0780065655708313, 0.23017796874046326, -0.24438956379890442, 0.08183887600898743, 0.16334640979766846, -0.03291809558868408, -0.20860567688941956, -0.0198516845703125, 0.08484765887260437, 0.1784917414188385, 0.11168503761291504, -0.2465544044971466, -0.07982639968395233, -0.09050388634204865, -0.1158856451511383, 0.2652047574520111], [0.2696383595466614, 0.12259580194950104, -0.19835881888866425, 0.23979009687900543, -0.05828152596950531, 0.3832119405269623, 0.049988362938165665, -0.24720387160778046, 0.17877009510993958, -0.37381306290626526, 0.06721454858779907, 0.10809323936700821, -0.18714416027069092, -0.2831088900566101, -0.10521573573350906, -0.03786592185497284, -0.3782171905040741, -0.0023789722472429276, 0.08215811103582382, 0.23160526156425476, -0.7478657960891724, 0.24421411752700806, -0.16325777769088745, 0.017438560724258423, -0.1791018396615982, 0.2793058454990387, 0.26975154876708984, 0.052488427609205246, -0.3133116662502289, -0.29877081513404846, -0.25284573435783386, -0.16081079840660095], [-0.2494785040616989, 0.19067952036857605, -0.056096792221069336, -0.1643354743719101, -0.03227972984313965, 0.2836340367794037, 0.06692355871200562, -0.17468957602977753, -0.30506575107574463, -0.03960663080215454, 0.26623985171318054, 0.07029247283935547, -0.06651227176189423, -0.026748180389404297, 0.25682327151298523, -0.25065723061561584, -0.20150813460350037, -0.14644627273082733, 0.05665254592895508, 0.21713194251060486, -0.1790350079536438, 0.032558441162109375, -0.2092345654964447, -0.022040605545043945, 0.031213045120239258, 0.1952456533908844, -0.2699303925037384, 0.1772259771823883, -0.1445731520652771, 0.27413293719291687, 0.29735884070396423, 0.15742984414100647], [0.45118433237075806, 0.10220211744308472, 0.09790921956300735, -0.06498594582080841, -0.5784105658531189, 0.217618927359581, -0.13007594645023346, -0.23046250641345978, -0.8365803360939026, -0.4551686644554138, -0.43347570300102234, -0.1761212795972824, -0.05564140900969505, -0.18032966554164886, 0.047136202454566956, 0.002869402291253209, -0.2553784251213074, -0.2162347137928009, 0.34436747431755066, -0.9813036322593689, 0.4356056749820709, 0.058072805404663086, 0.431247740983963, -0.11325383931398392, -0.26441624760627747, 0.3210653066635132, 0.14639180898666382, 0.04377542808651924, -0.167569100856781, 0.22458894550800323, -0.43330731987953186, 0.3573823571205139], [0.988862931728363, 0.40327540040016174, 0.23647679388523102, 1.0, -0.3680385649204254, 0.18619997799396515, -0.048074789345264435, -0.23484358191490173, -0.9823593497276306, 0.11250297725200653, 0.3389119505882263, -0.04556944966316223, 0.4576399624347687, 0.2113088071346283, 0.03608790412545204, 0.010931660421192646, 0.924710750579834, 0.14266066253185272, -0.4927293658256531, 0.0371016263961792, 0.6463288068771362, 0.5906873941421509, 0.04657888039946556, -0.545752763748169, 0.11362439393997192, -0.25222277641296387, 0.15962336957454681, -0.7697843313217163, 0.09236782789230347, -0.078270822763443, 0.7462559342384338, -0.9967705011367798], [-0.19894924759864807, 0.21608427166938782, 0.24795541167259216, 0.11549296975135803, -0.13437381386756897, 0.2261504828929901, 0.22211375832557678, 0.04245439171791077, -0.02352309226989746, 0.19137004017829895, 0.178788423538208, -0.24702802300453186, -0.24879507720470428, -0.26707738637924194, -0.30098339915275574, -0.07426339387893677, -0.03111565113067627, 0.034954965114593506, 0.18001049757003784, -0.2748284339904785, 0.07561010122299194, 0.17215004563331604, 0.09118103981018066, -0.23160097002983093, -0.20463955402374268, 0.1078825294971466, 0.014113634824752808, 0.06842246651649475, 0.3057403266429901, -0.02893504500389099, -0.16718001663684845, -0.17299385368824005], [-0.9016895294189453, 0.7215560674667358, 0.6299603581428528, 0.215281143784523, 0.43207281827926636, 0.11968160420656204, -0.7715348601341248, -0.1414448618888855, 0.84017014503479, -0.299115926027298, 0.33299821615219116, 0.20961657166481018, 0.5378899574279785, 0.06515440344810486, -0.05900534614920616, -0.25986698269844055, -0.8663872480392456, 0.5577821135520935, -0.26160138845443726, 0.1551874876022339, -0.42138755321502686, -0.09519852697849274, -0.712533712387085, -0.2578625977039337, -0.25912851095199585, 0.18475495278835297, -0.3119126558303833, 0.31091639399528503, -0.32768434286117554, -0.2898562550544739, 0.2983328402042389, 0.09085020422935486], [0.1495763212442398, -0.04915512353181839, 0.6450427174568176, -0.0013532936573028564, 0.4613925516605377, 0.23729434609413147, 0.05951213091611862, -0.17461159825325012, -0.8134102821350098, 0.1171935647726059, -0.2524806559085846, 0.16153618693351746, 0.08287999778985977, -0.14108701050281525, -0.3193025290966034, 0.14977729320526123, 0.47983720898628235, 0.5848979949951172, 0.016447940841317177, -0.48724836111068726, 0.41125768423080444, -0.14993104338645935, 0.2114904373884201, -0.27560582756996155, -0.18266576528549194, -0.15397867560386658, 0.06570269912481308, 0.2094680219888687, 0.4148638844490051, -0.14865797758102417, -0.15570709109306335, -0.3966811001300812], [-0.07207386195659637, 0.15600991249084473, -0.09185032546520233, 0.0025210196617990732, -0.008504420518875122, 0.02622969262301922, 0.015094757080078125, 0.048801422119140625, -0.010052084922790527, -0.18164032697677612, -0.26979270577430725, 0.09672912955284119, -0.10261797904968262, -0.030920088291168213, -0.03301527723670006, -0.21319973468780518, -0.04956919327378273, -0.1845902055501938, -0.03729463741183281, -0.06145100295543671, -0.08039835095405579, 0.2623283863067627, 0.30426886677742004, 0.2733176350593567, -0.020954132080078125, -0.006175522226840258, -0.11542985588312149, -0.29260796308517456, 0.036424461752176285, -0.233913853764534, -0.117595374584198, 0.22111202776432037], [-0.4321056604385376, -0.345122367143631, 0.9982137680053711, -0.19050456583499908, -0.9898996949195862, 0.1448841243982315, 0.5794523358345032, 0.05132502689957619, 0.6485736966133118, 0.9403568506240845, -0.07438743114471436, 0.14632223546504974, 0.4068089723587036, 0.2841350734233856, -0.27274590730667114, -0.2957441806793213, 0.027526138350367546, -0.03595041483640671, -0.10052050650119781, 0.6529257297515869, 0.37755557894706726, -0.57381272315979, 0.2890671193599701, -0.02021406590938568, -0.22209587693214417, 0.1437120884656906, -0.06174061819911003, -0.03209850937128067, 0.795752763748169, -0.09125833213329315, 0.547766387462616, -0.2864217460155487], [-0.8771181106567383, 0.19303473830223083, 0.2977776825428009, -0.18174593150615692, -0.3978543281555176, 0.11252326518297195, 0.5866129398345947, 0.17604869604110718, 0.38754573464393616, 0.03350047022104263, -0.3096380829811096, 0.30184856057167053, -0.6444246172904968, 0.06628298759460449, -0.019382072612643242, -0.23733244836330414, -0.09915320575237274, 0.12720686197280884, 0.038322895765304565, 0.24588462710380554, 0.8686345815658569, 1.0, -0.04971722513437271, 0.1733168661594391, -0.25184962153434753, 0.35163459181785583, -0.7806596159934998, -0.8827773928642273, 0.2619801461696625, 0.13247312605381012, 0.37463825941085815, 0.11330413073301315], [0.211136132478714, 0.2887626588344574, 0.35422977805137634, 0.204457625746727, -0.0759786069393158, 0.4351750910282135, -0.16816656291484833, 0.22593696415424347, -0.03838786110281944, 0.07746490836143494, -0.7518605589866638, 0.25348609685897827, -0.35386115312576294, -0.30261534452438354, -0.33103805780410767, -0.22221006453037262, 0.3761008381843567, 0.20745369791984558, 0.3704947233200073, -0.3376430571079254, 0.41855761408805847, -0.3026706278324127, 0.281894713640213, -0.0886998251080513, -0.23616482317447662, -0.017122503370046616, 0.0992414653301239, 0.2053685486316681, 0.5307478308677673, 0.06774965673685074, -0.6286514401435852, 0.32746997475624084], [-0.3455108404159546, -0.21268464624881744, -0.21057215332984924, -0.5113689303398132, 0.29394805431365967, 0.1618945151567459, 0.14961789548397064, 0.03355211019515991, 0.018751030787825584, 0.05772499740123749, 0.038949500769376755, -0.3220216631889343, -0.027259962633252144, -0.18848542869091034, -0.10125581175088882, -0.05623914301395416, -0.2163783758878708, 0.04142245650291443, -0.46387210488319397, 0.29807543754577637, 0.16562920808792114, -0.05197891965508461, -0.36355605721473694, 0.4442478120326996, -0.2371368110179901, 0.07761362940073013, -0.38810378313064575, 0.15027105808258057, 0.3309800922870636, 0.09217840433120728, 0.35632115602493286, 0.43109655380249023], [-0.08052714914083481, -0.3497973382472992, -0.9978727698326111, -0.3480127155780792, -0.0013426841469481587, -0.6096959114074707, -0.34829673171043396, -0.29744917154312134, -0.07996588945388794, -1.0, 0.17286045849323273, -0.10249266028404236, 0.2948809266090393, -0.11550523340702057, 0.7769355177879333, 0.16110673546791077, 0.30659887194633484, 0.027936577796936035, 0.15555649995803833, -0.9992504119873047, 0.04507612809538841, 0.20810683071613312, 0.33282896876335144, -0.026468319818377495, 0.04443138837814331, -0.6156290769577026, 0.4046783149242401, -0.03750108554959297, 0.27805331349372864, -0.20660395920276642, -0.5429852604866028, 0.19578391313552856], [0.6168836951255798, -0.12924306094646454, -0.4099052846431732, 0.44902825355529785, 0.1604316234588623, -0.3162648379802704, 0.68512362241745, 0.13135883212089539, 0.47517046332359314, 0.4801477789878845, 0.2024092674255371, -0.21326500177383423, -0.0982150286436081, 0.28389063477516174, -0.2591054141521454, -0.2997296452522278, 0.27524667978286743, 0.46518734097480774, 0.2454943209886551, 0.2671504318714142, -0.36651378870010376, -0.015267780050635338, 0.746860921382904, 0.9293758273124695, -0.2793581187725067, -0.7130868434906006, 0.8461833000183105, 0.026998434215784073, -0.999787449836731, 0.14002706110477448, 0.04209336265921593, -0.38527920842170715], [0.0529007613658905, 0.09444734454154968, 0.530708909034729, 0.3898032307624817, 0.2304905503988266, 0.29339608550071716, 0.2931986451148987, -0.07748711109161377, 0.23328177630901337, -0.0017725219950079918, -0.3212839365005493, -0.11359864473342896, 0.3120391368865967, -0.2757280170917511, -0.38171595335006714, -0.10904143005609512, 0.16076111793518066, 0.010399852879345417, 0.07910648733377457, -0.1426389217376709, -0.19321630895137787, 0.2862240970134735, 0.054533544927835464, -0.11875048279762268, 0.17480474710464478, 0.16264182329177856, 0.16525402665138245, -0.15928788483142853, -0.11721250414848328, -0.13430248200893402, 0.31205111742019653, -0.2135024070739746], [-0.13660196959972382, 0.0769130140542984, -0.48840877413749695, -0.31205078959465027, 0.2380083203315735, -0.361134797334671, 0.14405274391174316, -0.18138530850410461, 0.09208857268095016, 0.027908965945243835, -0.4896124005317688, -0.08468759804964066, 0.10602090507745743, 0.0354425311088562, -0.0010080758947879076, -0.15358571708202362, 0.3446546196937561, -0.0264887697994709, -0.021066773682832718, -0.41288602352142334, 0.13586567342281342, -0.2749621272087097, -0.23570749163627625, 0.22560901939868927, -0.1654459685087204, 0.16362231969833374, 0.006050764583051205, -0.12281908839941025, 0.5979855060577393, -0.11762145906686783, -0.260114461183548, 0.13280785083770752], [0.17928877472877502, -0.04726892337203026, -0.3918645977973938, 0.1025700494647026, -0.09157963842153549, -0.17647241055965424, -0.28420957922935486, 0.18261176347732544, -0.31958240270614624, -0.43583977222442627, -0.14455099403858185, 0.24555045366287231, 0.20981211960315704, 0.18710923194885254, 0.3632121682167053, 0.1223130002617836, 0.23507054150104523, -0.3682815730571747, -0.22391048073768616, -0.3907305598258972, -0.03432917222380638, -0.033448006957769394, -0.2888674736022949, 0.38975605368614197, 0.0033931625075638294, 0.2367153763771057, 0.057673558592796326, 0.2531009614467621, 0.39914387464523315, 0.13881389796733856, -0.31296485662460327, 0.22483468055725098], [-0.0860886499285698, -0.2755451798439026, -0.06386332958936691, -0.6038513779640198, 0.6283585429191589, 0.12243174761533737, -0.6876575946807861, -0.20742985606193542, -0.9591283202171326, -0.1801818609237671, 0.09082897752523422, -0.22562175989151, 0.05985172092914581, 0.003150343894958496, -0.057550568133592606, -0.03843967616558075, 0.1571016162633896, -0.39877766370773315, -0.44209179282188416, -0.1684868186712265, 0.3994576036930084, -0.7126911878585815, -0.19068481028079987, -0.9916269183158875, -0.21629460155963898, 0.5681513547897339, -0.6718534231185913, -0.08528893440961838, 0.1590695083141327, -0.14290103316307068, -0.44831955432891846, -0.24543994665145874], [0.28946933150291443, 0.023996949195861816, -0.19081640243530273, -0.05500718951225281, -0.10783471167087555, -0.2995679974555969, -0.2114691138267517, 0.011234045028686523, 0.16379833221435547, -0.06412056088447571, -0.2833503484725952, -0.20457611978054047, 0.17302510142326355, -0.2656642496585846, -0.27444276213645935, 0.15051153302192688, -0.19622544944286346, 0.21136429905891418, -0.16966217756271362, 0.021347761154174805, 0.3050834834575653, -0.09214070439338684, -0.029706895351409912, -0.016195148229599, 0.0991208553314209, 0.14099395275115967, -0.26837021112442017, -0.17428727447986603, 0.06435146927833557, 0.29099926352500916, 0.1359122395515442, 0.24103239178657532], [-0.28144901990890503, 0.2520265579223633, 0.08640173822641373, -0.2592605948448181, 0.47237005829811096, 0.5342491269111633, 0.476989209651947, -0.179114431142807, -0.42656370997428894, 0.5417979955673218, -0.06616069376468658, 0.09730355441570282, 0.1966564655303955, -0.06948347389698029, -0.7425351738929749, -0.05718585476279259, 0.04285651817917824, 0.20853346586227417, 0.1050056517124176, -0.1345239281654358, 0.5979780554771423, 0.18118014931678772, -0.23074443638324738, 0.08486872166395187, 0.24311257898807526, 0.22930075228214264, 0.3452354669570923, 0.8083670139312744, -0.021848225966095924, -0.027870235964655876, 0.0022573620080947876, -0.04562528431415558], [0.13945281505584717, 0.13126282393932343, 0.3548294007778168, 0.003614461747929454, 0.4232114255428314, -0.01303916797041893, 0.11030161380767822, 0.01906411163508892, 0.09766553342342377, -0.05287748575210571, 0.17572703957557678, -0.2593325972557068, -0.34022316336631775, -0.18192888796329498, -0.9466119408607483, -0.0475904643535614, 0.1589103490114212, 0.18885880708694458, -0.9063053131103516, 0.06274183839559555, 0.21395725011825562, 0.1017531305551529, -0.0782179906964302, 0.24495893716812134, -0.20838750898838043, 0.17544852197170258, 0.0252121239900589, -0.3949878215789795, -0.29785555601119995, -0.17267003655433655, 0.40655815601348877, -0.2205810248851776], [-0.17449437081813812, 0.1964520514011383, 0.15205606818199158, 0.2858114540576935, -0.12955214083194733, -0.2344181388616562, -0.19480019807815552, -0.04612046480178833, -0.2168692648410797, -0.051923930644989014, -0.27667781710624695, -0.08462341129779816, -0.2120186686515808, -0.14656029641628265, -0.2951603829860687, 0.17211857438087463, -0.189139723777771, -0.007176309823989868, 0.2010093629360199, 0.01838204264640808, -0.2951926589012146, 0.28795692324638367, 0.06162568926811218, -0.1624254286289215, 0.29538342356681824, 0.11146953701972961, 0.30143722891807556, 0.04455205798149109, 0.2388799488544464, 0.2504981458187103, 0.22220441699028015, -0.1472063511610031], [-0.0627797544002533, -0.2973448634147644, 0.20948180556297302, -0.2892780900001526, -0.24507920444011688, -0.24940791726112366, -0.19887521862983704, -0.11206333339214325, 0.2850293219089508, 0.13964956998825073, -0.05339539051055908, 0.12438821792602539, -0.2907007932662964, -0.24440446496009827, 0.2984706461429596, -0.08147387206554413, -0.06441007554531097, 0.01728731393814087, -0.08485423028469086, 0.22855374217033386, -0.22965127229690552, 0.034984469413757324, 0.10800698399543762, -0.12676161527633667, 0.23298290371894836, -0.012945830821990967, 0.15059921145439148, 0.09619814157485962, -0.17638523876667023, 0.04854336380958557, -0.1319284439086914, 0.23502007126808167], [-0.017544902861118317, -0.1827840507030487, -0.014008749276399612, -0.38383948802948, -0.203466534614563, -0.4337584376335144, 0.5174223780632019, 0.07802188396453857, -0.08226277679204941, -0.018370069563388824, -0.15719060599803925, -0.24539236724376678, -0.1324029564857483, -0.09176942706108093, 0.09730798751115799, -0.15661214292049408, -0.43816789984703064, -0.4808376133441925, 0.05225053429603577, -0.12284828722476959, -0.3257206976413727, 0.8953108787536621, 0.4589170813560486, 0.16618101298809052, 0.24327263236045837, -0.7975006699562073, -0.08358398079872131, 0.4095383584499359, 0.07772768288850784, -0.05790330469608307, 0.5068933367729187, 0.3823423683643341], [0.01774360053241253, 0.3639683723449707, -0.9999403953552246, 0.14431245625019073, 0.2705499827861786, -0.2162088304758072, -0.05152495577931404, -0.10310523211956024, 0.23794147372245789, -0.9954089522361755, 0.16407406330108643, 0.03743473440408707, -0.40807515382766724, 0.061797261238098145, 0.309965044260025, -0.015125000849366188, -0.11251584440469742, -0.07478123903274536, 0.14844414591789246, 0.042566753923892975, -0.21442122757434845, -0.21005381643772125, 0.019379962235689163, 0.059478726238012314, -0.28309696912765503, 0.07528393715620041, -0.1697443127632141, -0.2722870111465454, -0.1841089427471161, -0.08613532036542892, 0.0250683706253767, 0.3441554009914398], [-0.3515690863132477, -0.12147928774356842, 0.3658539354801178, 0.5525221824645996, -0.3472265601158142, 0.19123058021068573, 0.06226464360952377, -0.05270550772547722, 0.41231998801231384, -0.49366703629493713, -0.18185611069202423, 0.10922713577747345, 0.25477004051208496, -0.10472044348716736, 0.6342189311981201, -0.09632238745689392, 0.48168352246284485, 0.03666204214096069, 0.19238616526126862, -0.6457319855690002, -1.0, 0.3039121627807617, -0.09619695693254471, 0.9455850124359131, 0.035317420959472656, -0.18331582844257355, 0.25872260332107544, 0.4542957842350006, -0.3829513192176819, -0.2235426902770996, 0.06468004733324051, 0.5994600057601929]], [0.17197916, -0.14998056, 0.18118693, -0.01973753, 0.092079915, -0.04294879, 0.12025986, -0.00093605666, 0.06798167, 0.008356484, -0.10039079, -0.041159928, -0.0065859617, 0.0, -0.15180446, 0.005867479, -0.0786557, 0.061904866, 0.014541985, -0.010728104, -0.059001584, 0.06721906, 0.010769581, -0.15039423, -0.005126163, 0.11583739, 0.15200016, -0.09385476, -0.034365986, -0.044448774, 0.3191987, -0.12835461]]