//Numpy array shape [32, 64]
//Min -1.000000000000
//Max 0.968750000000
//Number of zeros 106

#ifndef W22_H_
#define W22_H_

#ifndef __SYNTHESIS__
weight22_t w22[2048];
#else
weight22_t w22[2048] = {-0.12500, 0.06250, 0.09375, -0.25000, 0.09375, -0.18750, 0.00000, -0.12500, 0.06250, 0.00000, -0.12500, 0.56250, 0.25000, 0.37500, 0.46875, 0.15625, 0.03125, 0.25000, 0.37500, 0.28125, -0.34375, 0.06250, 0.34375, -0.31250, -0.18750, 0.06250, 0.15625, 0.00000, -0.62500, -0.06250, 0.03125, 0.15625, -0.03125, 0.09375, 0.00000, 0.15625, 0.18750, -0.12500, -0.21875, -0.21875, 0.09375, 0.50000, 0.15625, 0.09375, 0.71875, 0.31250, 0.12500, 0.06250, 0.00000, 0.68750, 0.46875, -0.15625, 0.00000, 0.15625, 0.37500, 0.03125, -0.06250, -0.03125, 0.09375, 0.31250, 0.31250, 0.09375, 0.12500, 0.15625, -0.03125, -0.21875, -0.03125, -0.09375, -0.15625, 0.00000, 0.00000, 0.12500, 0.06250, -0.03125, 0.12500, 0.12500, 0.12500, -0.03125, -0.06250, 0.25000, 0.12500, 0.00000, 0.21875, 0.06250, 0.03125, -0.15625, -0.09375, -0.18750, 0.15625, 0.18750, 0.15625, -0.09375, -0.12500, 0.06250, -0.09375, 0.15625, 0.21875, 0.00000, 0.06250, -0.09375, -0.09375, 0.03125, 0.06250, -0.34375, -0.12500, -0.12500, -0.09375, -0.28125, 0.00000, 0.06250, -0.03125, 0.06250, -0.06250, 0.03125, 0.12500, -0.06250, 0.18750, 0.03125, 0.00000, -0.03125, -0.18750, -0.06250, 0.12500, 0.03125, 0.15625, 0.15625, 0.15625, 0.06250, -0.15625, 0.00000, 0.21875, 0.06250, 0.12500, 0.28125, -0.06250, 0.06250, -0.12500, 0.00000, 0.03125, 0.37500, 0.43750, -0.09375, -0.25000, 0.09375, -0.15625, -0.09375, -0.03125, 0.09375, 0.15625, 0.00000, -0.09375, -0.12500, -0.28125, -0.31250, -0.25000, 0.28125, 0.53125, 0.18750, -0.18750, -0.09375, -0.21875, -0.31250, 0.12500, 0.43750, 0.46875, -0.12500, 0.00000, -0.12500, 0.15625, 0.06250, 0.15625, 0.21875, 0.31250, 0.06250, -0.18750, 0.09375, 0.03125, -0.03125, 0.12500, 0.37500, 0.28125, 0.06250, -0.03125, -0.06250, -0.09375, 0.25000, 0.03125, 0.00000, 0.15625, -0.12500, 0.12500, -0.09375, -0.03125, 0.28125, 0.21875, -0.15625, 0.25000, -0.12500, -0.09375, -0.06250, 0.21875, 0.09375, -0.15625, 0.06250, -0.12500, 0.62500, 0.59375, -0.28125, -0.31250, 0.18750, -0.28125, -0.68750, 0.15625, 0.68750, 0.71875, -0.03125, 0.09375, 0.06250, -0.56250, -0.50000, -0.15625, -0.28125, 0.21875, 0.37500, 0.18750, 0.40625, -0.53125, -0.37500, -0.34375, -0.28125, 0.06250, -0.15625, 0.06250, 0.56250, -0.34375, -0.18750, 0.06250, -0.03125, -0.21875, 0.15625, 0.28125, 0.68750, 0.06250, -0.31250, -0.37500, 0.15625, 0.46875, -0.18750, 0.06250, 0.21875, 0.62500, 0.50000, 0.25000, 0.25000, 0.03125, 0.15625, 0.09375, -0.18750, -0.15625, 0.15625, -0.15625, 0.09375, 0.09375, 0.09375, -0.03125, -0.12500, -0.06250, -0.31250, 0.12500, 0.28125, 0.06250, 0.21875, -0.25000, -0.21875, 0.06250, -0.21875, -0.15625, -0.03125, -0.06250, 0.15625, 0.09375, -0.59375, -0.59375, -1.00000, -0.40625, 0.25000, -0.12500, -0.15625, 0.06250, -0.28125, -0.31250, 0.56250, 0.21875, -0.31250, -0.96875, -0.31250, 0.03125, 0.15625, 0.40625, 0.96875, 0.37500, -0.53125, 0.03125, 0.09375, -0.09375, 0.28125, 0.56250, 0.15625, -0.65625, -0.68750, 0.03125, 0.03125, -0.06250, -0.21875, -0.46875, -0.75000, -0.78125, -0.09375, 0.06250, -0.06250, 0.06250, 0.03125, 0.09375, 0.09375, 0.18750, 0.18750, -0.03125, 0.00000, 0.21875, 0.00000, 0.21875, 0.34375, 0.31250, 0.28125, 0.12500, 0.00000, -0.53125, 0.09375, 0.31250, -0.06250, -0.37500, 0.06250, -0.12500, 0.12500, 0.21875, 0.25000, 0.40625, -0.06250, 0.00000, 0.46875, 0.09375, 0.18750, 0.09375, 0.28125, 0.56250, 0.37500, 0.53125, 0.37500, 0.15625, -0.28125, 0.18750, -0.03125, 0.46875, 0.28125, 0.28125, 0.46875, -0.25000, 0.00000, 0.21875, 0.21875, 0.25000, -0.06250, 0.09375, 0.40625, 0.18750, 0.25000, -0.03125, 0.18750, 0.18750, -0.09375, -0.12500, 0.03125, 0.00000, 0.09375, -0.15625, 0.09375, -0.28125, 0.15625, 0.28125, 0.28125, 0.03125, 0.06250, 0.09375, 0.18750, 0.00000, -0.28125, 0.25000, -0.15625, -0.03125, 0.09375, 0.28125, 0.15625, 0.12500, -0.25000, -0.31250, -0.18750, 0.25000, 0.15625, -0.18750, 0.28125, 0.03125, 0.09375, -0.21875, 0.00000, 0.06250, 0.06250, 0.09375, 0.25000, -0.21875, 0.21875, -0.31250, -0.21875, -0.03125, 0.09375, -0.15625, 0.25000, -0.12500, 0.03125, -0.06250, -0.03125, -0.09375, 0.21875, 0.03125, -0.21875, -0.21875, 0.15625, -0.28125, 0.28125, 0.28125, 0.28125, 0.06250, -0.12500, 0.18750, -0.31250, 0.25000, 0.21875, 0.25000, 0.21875, -0.12500, -0.28125, -0.25000, 0.12500, -0.46875, -0.21875, -0.12500, -0.15625, -0.15625, 0.00000, -0.09375, 0.09375, 0.12500, -0.34375, -0.25000, 0.21875, 0.18750, -0.18750, -0.18750, 0.00000, 0.09375, -0.46875, -0.62500, -0.15625, -0.31250, -0.06250, 0.06250, 0.56250, 0.65625, -0.12500, -0.18750, -0.75000, 0.12500, -0.53125, -0.25000, 0.18750, 0.59375, -0.12500, 0.09375, 0.15625, -0.28125, -0.87500, -0.09375, 0.03125, -0.12500, -0.18750, -0.03125, -0.12500, -0.28125, -0.96875, -0.53125, -0.09375, 0.18750, -0.28125, -0.81250, -0.03125, 0.00000, -0.03125, 0.03125, 0.18750, 0.21875, 0.09375, 0.00000, 0.00000, 0.09375, 0.03125, -0.18750, 0.18750, -0.09375, 0.09375, 0.06250, -0.15625, 0.03125, -0.65625, 0.03125, -0.46875, -0.12500, -0.62500, -0.40625, 0.12500, -0.31250, -0.37500, 0.06250, 0.37500, -0.40625, -0.90625, -0.37500, 0.28125, -0.25000, 0.15625, 0.43750, -0.56250, -0.75000, -0.37500, 0.18750, 0.28125, 0.15625, 0.65625, 0.71875, 0.18750, 0.78125, -0.31250, 0.31250, -0.12500, -0.18750, 0.06250, 0.56250, 0.71875, 0.62500, -0.25000, 0.31250, -0.06250, -0.15625, -0.34375, -0.03125, 0.40625, 0.25000, -0.62500, -0.21875, -0.28125, -0.25000, -0.34375, -0.93750, -1.00000, -0.90625, -0.21875, -0.18750, -0.12500, 0.15625, 0.25000, -0.03125, 0.03125, -0.40625, -0.25000, -0.06250, -0.09375, 0.06250, -0.12500, 0.09375, 0.15625, 0.00000, 0.03125, -0.15625, 0.09375, -0.09375, 0.00000, 0.00000, 0.25000, -0.37500, -0.12500, 0.00000, -0.03125, -0.18750, 0.12500, 0.00000, -0.34375, -0.09375, 0.03125, 0.43750, -0.18750, 0.21875, 0.31250, 0.46875, 0.40625, 0.21875, 0.28125, 0.06250, 0.18750, -0.12500, 0.09375, 0.09375, -0.12500, -0.12500, -0.09375, 0.21875, -0.09375, -0.12500, -0.31250, -0.09375, -0.06250, -0.06250, 0.06250, -0.15625, 0.12500, -0.31250, -0.21875, -0.25000, 0.03125, -0.15625, 0.03125, 0.06250, -0.18750, 0.06250, -0.31250, 0.03125, -0.21875, 0.06250, 0.12500, 0.15625, -0.25000, -0.06250, 0.03125, -0.25000, -0.25000, -0.18750, -0.18750, -0.18750, 0.00000, -0.43750, -0.18750, -0.21875, 0.18750, 0.00000, -0.12500, 0.06250, -0.28125, -0.03125, 0.09375, -0.09375, 0.28125, 0.18750, -0.12500, 0.12500, -0.25000, -0.09375, -0.15625, 0.03125, 0.09375, -0.06250, -0.03125, 0.25000, 0.15625, 0.15625, 0.15625, 0.12500, -0.28125, -0.21875, -0.03125, -0.06250, -0.12500, -0.03125, 0.18750, 0.18750, 0.15625, 0.12500, -0.12500, -0.03125, -0.25000, -0.12500, -0.15625, -0.12500, 0.18750, -0.12500, -0.03125, -0.21875, 0.18750, -0.25000, -0.25000, 0.00000, -0.15625, 0.06250, 0.09375, 0.00000, -0.09375, 0.09375, 0.28125, -0.15625, -0.03125, -0.37500, 0.28125, 0.46875, -0.09375, -0.12500, 0.43750, 0.18750, 0.03125, 0.03125, 0.31250, 0.40625, -0.06250, -0.25000, 0.50000, 0.12500, 0.12500, -0.34375, 0.15625, 0.43750, 0.28125, 0.15625, 0.18750, -0.12500, -0.28125, -0.78125, 0.50000, 0.25000, -0.06250, -0.09375, 0.12500, 0.28125, -0.06250, -0.53125, 0.59375, -0.31250, 0.25000, -0.03125, -0.06250, 0.25000, 0.25000, -0.15625, 0.62500, -0.06250, 0.09375, -0.12500, -0.06250, 0.40625, 0.28125, -0.12500, 0.12500, 0.15625, 0.00000, -0.06250, 0.06250, -0.21875, -0.28125, -0.25000, -0.03125, 0.21875, -0.28125, -0.09375, 0.15625, 0.18750, -0.06250, 0.00000, 0.25000, -0.18750, 0.25000, 0.03125, -0.15625, 0.28125, 0.25000, -0.25000, -0.21875, -0.31250, -0.03125, 0.06250, 0.09375, -0.25000, -0.28125, 0.09375, 0.03125, -0.25000, 0.28125, 0.00000, -0.28125, 0.12500, 0.00000, -0.09375, 0.18750, -0.12500, 0.28125, -0.18750, 0.15625, -0.09375, 0.28125, 0.25000, 0.06250, -0.31250, -0.06250, 0.18750, -0.28125, 0.25000, 0.25000, -0.09375, -0.21875, -0.09375, -0.06250, 0.00000, 0.15625, 0.12500, -0.21875, -0.06250, 0.00000, -0.15625, 0.28125, -0.15625, -0.03125, -0.18750, 0.06250, -0.28125, -0.15625, -0.21875, 0.18750, 0.06250, 0.06250, 0.09375, -0.12500, 0.06250, -0.28125, 0.15625, -0.25000, 0.06250, 0.28125, -0.25000, -0.21875, -0.28125, 0.28125, -0.28125, -0.06250, -0.12500, 0.00000, 0.09375, 0.15625, 0.12500, 0.15625, -0.31250, -0.28125, -0.15625, -0.18750, 0.21875, 0.03125, -0.06250, 0.09375, -0.21875, -0.21875, -0.15625, 0.31250, 0.06250, 0.06250, 0.28125, 0.28125, -0.28125, -0.12500, -0.21875, 0.21875, 0.03125, 0.18750, -0.12500, -0.03125, 0.09375, -0.25000, -0.18750, -0.03125, 0.03125, 0.06250, -0.25000, -0.03125, -0.12500, -0.06250, 0.28125, 0.15625, 0.12500, -0.18750, -0.18750, 0.09375, -0.28125, -0.28125, 0.06250, -0.03125, -0.06250, -0.09375, -0.03125, 0.09375, 0.00000, -0.25000, 0.25000, 0.21875, 0.31250, -0.12500, 0.43750, 0.09375, 0.18750, 0.03125, -0.21875, 0.53125, -0.15625, 0.18750, -0.15625, -0.12500, 0.09375, -0.18750, 0.25000, 0.37500, 0.03125, 0.06250, -0.50000, 0.37500, -0.15625, -0.31250, -0.37500, 0.09375, 0.03125, -0.03125, -0.03125, 0.46875, 0.06250, 0.25000, 0.18750, -0.40625, -0.12500, -0.25000, 0.09375, 0.37500, -0.15625, 0.25000, -0.06250, -0.12500, -0.31250, -0.15625, 0.15625, 0.40625, 0.21875, 0.12500, -0.09375, 0.03125, -0.21875, -0.18750, -0.31250, -0.28125, -0.37500, -0.06250, 0.06250, 0.12500, 0.15625, -0.25000, -0.40625, -0.15625, 0.06250, 0.18750, 0.09375, 0.06250, 0.12500, 0.25000, -0.18750, 0.28125, 0.03125, 0.25000, -0.21875, 0.06250, 0.37500, -0.21875, -0.50000, 0.03125, -0.09375, 0.09375, -0.18750, 0.15625, 0.12500, -0.09375, -0.03125, -0.03125, -0.28125, -0.21875, 0.09375, 0.21875, 0.00000, 0.12500, 0.50000, 0.03125, 0.12500, -0.09375, -0.18750, -0.28125, 0.09375, 0.03125, -0.03125, -0.37500, 0.03125, -0.28125, -0.09375, -0.21875, -0.34375, -0.37500, -0.31250, -0.09375, -0.21875, -0.15625, -0.06250, 0.09375, -0.12500, -0.25000, 0.03125, -0.09375, -0.03125, 0.18750, -0.40625, -0.09375, 0.12500, 0.09375, 0.18750, -0.09375, 0.00000, -0.03125, 0.03125, -0.03125, 0.15625, 0.03125, 0.06250, -0.09375, 0.06250, 0.09375, -0.18750, -0.03125, 0.06250, -0.03125, -0.09375, -0.09375, 0.00000, 0.15625, 0.03125, 0.06250, 0.06250, 0.00000, 0.06250, -0.18750, -0.12500, -0.12500, -0.09375, 0.09375, 0.00000, -0.09375, 0.18750, -0.09375, -0.31250, -0.03125, 0.03125, -0.06250, -0.03125, 0.00000, 0.12500, -0.09375, 0.03125, -0.12500, 0.06250, 0.00000, -0.12500, -0.15625, 0.12500, -0.06250, -0.06250, -0.15625, 0.18750, -0.03125, -0.15625, 0.00000, 0.37500, -0.03125, -0.15625, -0.12500, -0.18750, 0.40625, 0.03125, 0.90625, 0.96875, 0.46875, -0.15625, -0.06250, -0.06250, 0.53125, 0.59375, 0.25000, 0.53125, 0.87500, 0.37500, -0.21875, -0.03125, 0.12500, -0.53125, -0.84375, -0.15625, 0.65625, 0.21875, 0.50000, -0.28125, 0.00000, -0.65625, -0.96875, -0.46875, 0.50000, -0.12500, -0.25000, -0.03125, 0.00000, -0.31250, -0.43750, 0.21875, 0.31250, 0.18750, 0.15625, -0.18750, -0.15625, -0.62500, -0.15625, 0.21875, 0.62500, 0.37500, 0.00000, 0.00000, -0.03125, 0.75000, 0.71875, 0.34375, 0.15625, 0.03125, -0.12500, -0.21875, -0.12500, 0.00000, 0.06250, -0.12500, 0.00000, -0.25000, -0.06250, -0.03125, 0.25000, -0.12500, -0.06250, 0.40625, 0.09375, 0.25000, 0.21875, 0.12500, 0.00000, 0.18750, 0.06250, 0.00000, 0.09375, -0.06250, -0.06250, -0.21875, 0.15625, 0.18750, 0.28125, -0.03125, -0.15625, -0.18750, 0.03125, -0.18750, -0.18750, -0.09375, 0.12500, -0.25000, -0.21875, -0.15625, -0.18750, 0.03125, -0.12500, -0.25000, -0.18750, -0.03125, 0.12500, -0.28125, -0.18750, 0.00000, 0.34375, 0.25000, -0.31250, -0.31250, 0.21875, 0.25000, 0.28125, 0.21875, 0.31250, 0.28125, 0.34375, 0.21875, -0.12500, 0.00000, -0.12500, -0.15625, -0.18750, -0.03125, 0.00000, -0.12500, 0.09375, 0.03125, 0.06250, -0.18750, -0.12500, -0.06250, -0.37500, 0.09375, 0.40625, 0.34375, -0.18750, 0.15625, 0.03125, -0.03125, -0.18750, 0.15625, 0.34375, 0.25000, 0.18750, 0.09375, 0.31250, -0.09375, -0.09375, 0.06250, -0.03125, 0.18750, 0.06250, -0.12500, 0.50000, 0.15625, 0.28125, -0.46875, 0.00000, -0.06250, 0.12500, 0.00000, 0.21875, -0.15625, 0.18750, -0.50000, 0.00000, -0.03125, 0.06250, 0.09375, 0.56250, 0.03125, 0.06250, -0.21875, 0.09375, 0.31250, 0.12500, -0.18750, 0.09375, 0.18750, 0.18750, 0.06250, 0.21875, 0.09375, -0.06250, -0.15625, -0.06250, -0.31250, 0.09375, 0.06250, 0.06250, 0.06250, 0.06250, -0.12500, -0.18750, -0.28125, -0.31250, 0.15625, -0.06250, 0.15625, -0.31250, 0.00000, 0.12500, 0.12500, 0.28125, 0.40625, -0.03125, -0.06250, -0.09375, -0.28125, 0.00000, -0.03125, 0.18750, 0.28125, -0.28125, -0.03125, -0.09375, 0.21875, -0.21875, -0.37500, -0.18750, 0.03125, -0.28125, 0.12500, 0.09375, 0.09375, -0.21875, -0.18750, -0.09375, -0.34375, -0.21875, 0.12500, -0.06250, -0.09375, -0.37500, -0.25000, 0.21875, 0.09375, 0.00000, -0.28125, -0.09375, -0.18750, 0.12500, 0.46875, 0.34375, 0.25000, -0.25000, -0.15625, -0.12500, -0.25000, 0.03125, -0.09375, -0.06250, 0.46875, 0.46875, -0.09375, 0.09375, -0.28125, -0.28125, -0.21875, -0.09375, 0.18750, 0.12500, -0.15625, -0.25000, -0.03125, 0.12500, 0.62500, 0.06250, -0.56250, 0.18750, 0.56250, 0.00000, 0.18750, 0.25000, -0.06250, -0.65625, -0.37500, 0.93750, 0.65625, -0.21875, -0.09375, 0.15625, 0.31250, 0.96875, 0.65625, -0.03125, -0.12500, -0.03125, -0.21875, 0.03125, 0.96875, 0.96875, 0.31250, 0.15625, -0.06250, 0.18750, -0.25000, -0.40625, 0.59375, 0.53125, 0.00000, 0.00000, -0.09375, -0.28125, 0.21875, -0.18750, -0.37500, -0.37500, -0.56250, -0.09375, 0.09375, -0.03125, -0.15625, -0.18750, -0.43750, 0.25000, 0.00000, -0.31250, -0.25000, 0.15625, -0.21875, -0.15625, 0.31250, -0.12500, 0.12500, -0.15625, -0.06250, -0.12500, -0.34375, 0.00000, 0.03125, -0.31250, -0.09375, -0.31250, -0.21875, 0.00000, -0.25000, -0.15625, 0.03125, -0.03125, -0.09375, -0.06250, 0.09375, 0.15625, 0.12500, 0.12500, 0.00000, 0.00000, 0.09375, 0.09375, 0.21875, -0.31250, 0.21875, 0.09375, -0.06250, 0.18750, -0.12500, 0.03125, -0.28125, -0.21875, 0.21875, -0.21875, 0.31250, 0.06250, 0.28125, -0.15625, -0.25000, -0.06250, 0.21875, 0.06250, -0.31250, -0.03125, 0.31250, -0.28125, 0.09375, -0.12500, 0.00000, -0.21875, -0.25000, 0.00000, 0.18750, -0.12500, 0.09375, -0.15625, -0.28125, 0.15625, -0.06250, -0.12500, -0.15625, -0.21875, -0.18750, 0.15625, 0.03125, 0.03125, 0.06250, -0.12500, 0.09375, -0.03125, -0.09375, 0.18750, -0.25000, -0.31250, -0.03125, 0.12500, 0.03125, -0.25000, 0.12500, 0.00000, -0.21875, 0.09375, 0.18750, -0.18750, 0.21875, -0.06250, -0.25000, -0.15625, 0.15625, 0.06250, 0.15625, -0.18750, 0.03125, -0.09375, 0.21875, -0.28125, -0.18750, 0.09375, 0.15625, -0.03125, -0.03125, 0.15625, 0.03125, -0.03125, 0.18750, -0.28125, 0.15625, -0.21875, 0.09375, -0.21875, 0.12500, 0.09375, 0.18750, 0.00000, 0.15625, 0.03125, 0.09375, -0.03125, -0.21875, 0.09375, -0.25000, 0.46875, 0.18750, 0.40625, 0.56250, 0.62500, 0.12500, 0.06250, 0.15625, 0.03125, -0.03125, -0.65625, 0.28125, 0.62500, 0.46875, -0.28125, -0.06250, 0.00000, -0.31250, -0.25000, 0.34375, -0.06250, 0.18750, 0.15625, -0.25000, 0.46875, -0.34375, -0.75000, -1.00000, -0.34375, 0.46875, -0.18750, 0.28125, 0.40625, -0.75000, -1.00000, -0.71875, -0.15625, -0.31250, 0.15625, 0.21875, 0.46875, 0.09375, -0.56250, -0.12500, 0.50000, 0.21875, 0.03125, -0.25000, 0.50000, 0.53125, 0.65625, 0.75000, 0.06250, 0.09375, 0.18750, -0.21875, 0.21875, -0.18750, -0.25000, 0.15625, 0.21875, -0.12500, 0.12500, -0.28125, 0.12500, 0.18750, -0.03125, 0.53125, 0.03125, 0.09375, -0.09375, -0.06250, 0.06250, 0.09375, -0.06250, -0.25000, -0.31250, 0.18750, -0.18750, 0.03125, 0.06250, -0.06250, 0.25000, 0.40625, 0.15625, 0.06250, 0.06250, 0.18750, -0.03125, 0.18750, 0.43750, 0.03125, -0.03125, 0.06250, -0.18750, -0.06250, -0.12500, 0.06250, -0.09375, 0.06250, 0.31250, 0.15625, -0.15625, -0.28125, 0.00000, 0.18750, -0.06250, -0.06250, 0.00000, -0.03125, 0.25000, -0.18750, -0.12500, -0.06250, 0.15625, 0.28125, 0.00000, 0.12500, 0.25000, -0.21875, -0.06250, 0.06250, -0.21875, 0.12500, -0.18750, 0.03125, 0.18750, -0.28125, 0.12500, -0.15625, 0.12500, 0.25000, -0.09375, -0.25000, 0.03125, -0.59375, 0.03125, -0.09375, -0.03125, 0.12500, 0.21875, -0.21875, -0.12500, 0.12500, -0.28125, -0.12500, -0.09375, 0.31250, 0.18750, -0.09375, -0.43750, -0.06250, 0.21875, 0.06250, 0.12500, 0.50000, 0.43750, 0.03125, 0.18750, 0.00000, 0.06250, -0.21875, 0.25000, 0.43750, -0.06250, -0.12500, 0.06250, 0.03125, 0.00000, -0.06250, 0.09375, 0.28125, 0.09375, 0.21875, -0.06250, 0.21875, -0.12500, -0.28125, -0.12500, 0.15625, 0.00000, -0.06250, 0.12500, 0.09375, -0.06250, 0.00000, -0.03125, 0.09375, 0.18750, 0.12500, -0.15625, 0.09375, -0.18750, 0.06250, -0.03125, -0.12500, 0.03125, -0.21875, -0.06250, -0.09375, -0.06250, -0.09375, 0.21875, 0.31250, -0.06250, -0.09375, 0.18750, 0.03125, -0.34375, 0.12500, 0.18750, 0.40625, -0.15625, -0.15625, -0.03125, -0.21875, -0.62500, -0.25000, -0.15625, 0.00000, -0.18750, -0.12500, -0.15625, -0.21875, -0.15625, -0.06250, 0.25000, -0.03125, -0.09375, -0.21875, -0.15625, -0.12500, -0.37500, 0.00000, 0.37500, 0.25000, -0.06250, -0.06250, -0.28125, 0.09375, -0.09375, -0.06250, 0.06250, 0.12500, -0.06250, -0.18750, -0.15625, 0.09375, -0.25000, 0.06250, -0.25000, -0.34375, -0.12500, 0.06250, -0.28125, -0.09375, 0.00000, -0.28125, 0.09375, 0.03125, 0.59375, 0.31250, -0.34375, 0.18750, 0.00000, 0.06250, 0.06250, 0.12500, 0.40625, 0.37500, -0.34375, -0.15625, 0.09375, 0.31250, 0.06250, 0.31250, 0.03125, -0.06250, -0.28125, 0.09375, 0.06250, -0.09375, 0.12500, 0.03125, 0.21875, -0.21875, 0.12500, 0.09375, 0.21875, -0.12500, -0.03125, -0.03125, -0.09375, -0.34375, 0.00000, 0.21875, 0.31250, 0.25000, -0.28125, -0.46875, 0.06250, 0.18750, -0.28125, -0.25000, 0.09375, 0.43750, 0.56250, 0.28125, 0.21875, -0.15625, -0.12500, -0.12500, 0.25000, -0.43750, -0.28125, -0.25000, -0.65625, -0.43750, 0.21875, -0.03125, 0.18750, 0.28125, -0.46875, -1.00000, -0.78125, -0.21875, 0.21875, 0.31250, 0.18750, 0.03125, 0.31250, 0.06250, -0.06250, -0.25000, 0.06250, -0.25000, 0.37500, 0.62500, -0.25000, -0.81250, 0.06250, 0.06250, -0.53125, -0.09375, 0.81250, 0.90625, -0.75000, -0.62500, 0.96875, 0.53125, 0.00000, -0.21875, 0.37500, -0.15625, -0.59375, 0.25000, 0.40625, 0.15625, -0.12500, -1.00000, -1.00000, -1.00000, 0.12500, 0.37500, 0.03125, -0.43750, -0.09375, 0.12500, -0.56250, -0.84375, -0.96875, -0.46875, -0.15625, 0.03125, -0.15625, 0.15625, 0.00000, -0.03125, -0.06250, -0.12500, -0.03125, 0.12500, 0.03125, -0.25000, -0.12500, -0.28125, 0.28125, 0.25000, 0.18750, 0.00000, -0.25000, -0.25000, -0.06250, 0.12500, 0.28125, 0.03125, 0.00000, -0.09375, -0.03125, -0.03125, -0.03125, 0.34375, 0.12500, -0.18750, 0.15625, 0.18750, 0.06250, -0.21875, 0.03125, 0.15625, 0.00000, -0.09375, 0.12500, -0.15625, -0.15625, 0.09375, 0.00000, 0.00000, 0.06250, 0.06250, -0.12500, -0.18750, -0.18750, 0.03125, 0.03125, -0.12500, 0.15625, 0.31250, -0.15625, -0.12500, -0.21875, -0.25000, -0.15625, -0.06250, -0.12500, 0.03125, 0.15625, -0.06250, -0.06250, 0.06250, -0.03125, 0.06250, 0.09375, 0.09375, 0.06250, -0.09375, -0.21875, -0.03125, 0.31250, 0.15625, -0.06250, -0.21875, 0.03125, 0.00000, 0.06250, 0.21875, 0.03125, 0.25000, -0.15625, 0.12500, 0.25000, -0.12500, -0.15625, 0.25000, 0.12500, 0.21875, -0.12500, 0.12500, 0.06250, -0.06250, -0.31250, -0.18750, 0.00000, 0.09375, 0.18750, 0.06250, -0.15625, -0.03125, -0.25000, -0.09375, -0.12500, 0.18750, 0.18750, -0.18750, 0.37500, -0.18750, -0.18750, 0.03125, -0.15625, -0.15625, -0.12500, -0.15625, 0.06250, 0.09375, 0.18750, -0.18750, -0.06250, -0.21875, -0.21875, -0.12500, 0.06250, 0.15625, -0.15625};
#endif

#endif
