//Numpy array shape [16, 10]
//Min -2.716796875000
//Max 2.232421875000
//Number of zeros 0

#ifndef W8_H_
#define W8_H_

#ifndef __SYNTHESIS__
weight8_t w8[160];
#else
weight8_t w8[160] = {0.664062500, -2.716796875, -1.148437500, 1.203125000, -2.148437500, 0.703125000, 0.695312500, -2.033203125, 0.226562500, 2.232421875, -2.494140625, 1.470703125, 0.591796875, -1.908203125, 0.316406250, 0.880859375, 1.152343750, -1.689453125, 0.947265625, -1.580078125, -2.490234375, 1.072265625, 1.136718750, 0.070312500, -2.273437500, 1.164062500, -1.308593750, 0.546875000, -0.062500000, -0.056640625, 0.925781250, -0.578125000, 0.982421875, -1.054687500, -1.361328125, -0.179687500, 1.529296875, 1.777343750, -1.849609375, -0.943359375, -1.537109375, -0.173828125, 0.976562500, 1.707031250, -0.457031250, -1.648437500, -1.611328125, 1.095703125, 1.552734375, -1.171875000, -0.197265625, -2.062500000, -1.601562500, 1.505859375, 0.816406250, 1.693359375, -1.304687500, -0.041015625, -2.402343750, 0.736328125, 1.511718750, -1.472656250, -0.019531250, -0.515625000, 1.794921875, -1.238281250, 1.005859375, -1.001953125, -0.076171875, -1.210937500, 1.224609375, -0.482421875, 1.304687500, 0.933593750, -0.654296875, -1.386718750, -2.130859375, 1.308593750, -1.087890625, -0.722656250, 0.767578125, 1.429687500, -2.320312500, -0.023437500, -1.351562500, 2.125000000, 0.826171875, -1.208984375, 0.257812500, -1.482421875, 1.902343750, -1.691406250, 0.781250000, -1.916015625, -0.800781250, -1.990234375, 1.775390625, -1.031250000, 1.626953125, -1.580078125, -0.724609375, 1.324218750, -1.701171875, -1.359375000, 1.285156250, -1.591796875, 0.988281250, -1.101562500, 0.027343750, 1.132812500, -0.623046875, -2.220703125, 0.207031250, -1.339843750, 1.462890625, -0.468750000, 0.697265625, 1.167968750, -1.886718750, 1.052734375, 0.673828125, -1.515625000, 1.591796875, 0.966796875, 0.232421875, 1.384765625, -2.054687500, -2.076171875, 0.738281250, -1.431640625, -1.388671875, 1.234375000, -2.109375000, 1.015625000, 0.683593750, -2.251953125, -2.296875000, 1.425781250, 1.234375000, 0.953125000, -1.125000000, 1.121093750, 0.470703125, 1.681640625, 0.791015625, -1.031250000, 1.115234375, -0.933593750, -1.914062500, -2.193359375, 0.662109375, -1.628906250, -1.509765625, -2.037109375, 0.955078125, 0.517578125, -1.763671875, 0.996093750, 1.015625000, 1.173828125};
#endif

#endif
